<?xml version="1.0"?>
<opencv_storage>
<opencv_ml_svm>
  <format>3</format>
  <svmType>C_SVC</svmType>
  <kernel>
    <type>RBF</type>
    <gamma>1.</gamma></kernel>
  <C>1.</C>
  <term_criteria><epsilon>1.1920928955078125e-07</epsilon>
    <iterations>1000</iterations></term_criteria>
  <var_count>1280</var_count>
  <class_count>3</class_count>
  <class_labels type_id="opencv-matrix">
    <rows>3</rows>
    <cols>1</cols>
    <dt>i</dt>
    <data>
      0 1 5</data></class_labels>
  <sv_total>122</sv_total>
  <support_vectors>
    <_>
      0. 0. 0. 0. 0. 0. 0. 0. 0. 0. 0. 0. 0. 0. 0. 0. 0. 0. 0. 0. 0. 0.
      0. 0. 0. 0. 0. 0. 0. 0. 0. 0. 0. 0. 0. 0. 0. 0. 0. 0. 0. 0. 0. 0.
      0. 0. 0. 0. 0. 0. 0. 0. 0. 0. 0. 0. 0. 0. 0. 0. 3. 0. 0. 0. 0. 0.
      0. 0. 0. 0. 1. 1. 1. 1. 4. 0. 0. 0. 0. 0. 0. 0. 0. 0. 0. 0. 0. 0.
      0. 0. 0. 0. 0. 0. 0. 0. 0. 0. 0. 0. 0. 0. 0. 0. 0. 0. 0. 0. 0. 0.
      0. 0. 0. 0. 0. 0. 0. 0. 0. 0. 0. 0. 0. 0. 0. 0. 0. 0. 0. 0. 0. 0.
      0. 0. 0. 0. 0. 0. 0. 0. 1. 1. 0. 0. 0. 0. 0. 0. 0. 0. 0. 1. 1. 2.
      4. 0. 0. 0. 0. 0. 0. 0. 0. 0. 0. 0. 0. 0. 0. 0. 0. 0. 0. 0. 0. 0.
      0. 0. 0. 0. 0. 0. 0. 0. 0. 0. 0. 0. 0. 0. 0. 0. 0. 0. 0. 0. 0. 0.
      0. 0. 0. 0. 0. 0. 0. 0. 0. 0. 0. 0. 0. 0. 0. 0. 0. 0. 0. 0. 0. 0.
      0. 0. 0. 0. 0. 0. 0. 0. 0. 0. 1. 1. 0. 1. 3. 2. 0. 0. 0. 0. 0. 0.
      0. 0. 0. 0. 0. 0. 0. 0. 0. 0. 0. 0. 0. 0. 0. 0. 0. 0. 0. 0. 0. 0.
      0. 0. 0. 0. 0. 0. 0. 0. 0. 0. 0. 0. 0. 0. 0. 0. 0. 0. 0. 0. 0. 0.
      0. 0. 0. 0. 0. 0. 0. 0. 0. 0. 0. 0. 0. 0. 0. 0. 0. 0. 0. 0. 0. 0.
      0. 0. 3. 2. 1. 0. 0. 0. 0. 0. 0. 0. 4. 0. 0. 0. 0. 0. 0. 0. 0. 0.
      0. 0. 0. 0. 0. 0. 0. 0. 0. 0. 0. 0. 0. 0. 0. 0. 0. 0. 0. 0. 0. 0.
      0. 0. 0. 0. 0. 0. 0. 0. 0. 0. 0. 0. 0. 0. 0. 0. 0. 0. 0. 0. 0. 0.
      0. 0. 0. 0. 0. 0. 3. 0. 0. 0. 0. 0. 0. 0. 0. 0. 7. 0. 0. 0. 0. 0.
      0. 0. 0. 0. 0. 0. 0. 0. 0. 0. 0. 0. 0. 0. 0. 0. 0. 0. 0. 0. 0. 0.
      0. 6. 0. 0. 0. 0. 0. 0. 0. 0. 0. 0. 0. 0. 0. 0. 0. 1. 1. 1. 1. 0.
      5. 1. 1. 1. 0. 0. 0. 0. 0. 0. 4. 0. 0. 0. 0. 0. 0. 0. 0. 0. 0. 0.
      0. 0. 0. 0. 0. 0. 0. 0. 0. 0. 0. 0. 0. 0. 0. 0. 0. 0. 2. 1. 1. 1.
      1. 0. 0. 0. 0. 0. 0. 0. 0. 0. 3. 5. 0. 0. 0. 0. 0. 0. 0. 0. 3. 5.
      0. 0. 0. 0. 0. 0. 1. 3. 4. 0. 0. 0. 0. 0. 0. 5. 3. 0. 0. 0. 0. 0.
      0. 0. 1. 5. 0. 0. 0. 0. 0. 0. 0. 0. 0. 0. 0. 0. 0. 0. 0. 0. 0. 0.
      0. 0. 0. 0. 0. 0. 0. 0. 0. 0. 0. 0. 3. 4. 1. 0. 0. 0. 0. 0. 0. 0.
      0. 0. 5. 3. 0. 0. 0. 0. 0. 0. 0. 0. 0. 5. 3. 0. 0. 0. 0. 0. 0. 1.
      3. 4. 0. 0. 0. 0. 0. 6. 2. 0. 0. 0. 0. 0. 0. 0. 3. 5. 0. 0. 0. 0.
      0. 0. 0. 0. 2. 0. 0. 0. 0. 0. 0. 0. 0. 0. 6. 0. 0. 0. 0. 0. 0. 0.
      0. 0. 5. 3. 0. 0. 0. 0. 0. 0. 0. 0. 0. 4. 4. 0. 0. 0. 0. 0. 0. 0.
      0. 6. 2. 0. 0. 0. 0. 0. 0. 0. 0. 8. 0. 0. 0. 0. 0. 0. 0. 0. 0. 8.
      0. 0. 0. 0. 0. 0. 0. 0. 0. 0. 8. 0. 0. 0. 0. 0. 0. 0. 0. 0. 4. 1.
      1. 0. 0. 2. 0. 0. 0. 0. 0. 0. 0. 3. 1. 0. 1. 0. 0. 2. 6. 0. 0. 0.
      0. 0. 0. 0. 0. 0. 8. 0. 0. 0. 0. 0. 0. 0. 0. 0. 8. 0. 0. 0. 0. 0.
      0. 0. 0. 2. 6. 0. 0. 0. 0. 0. 0. 0. 0. 0. 8. 0. 0. 0. 0. 0. 0. 0.
      0. 0. 1. 7. 0. 0. 0. 0. 0. 0. 0. 0. 0. 6. 0. 1. 1. 0. 0. 0. 0. 0.
      0. 0. 0. 0. 2. 0. 1. 0. 0. 0. 8. 0. 0. 0. 0. 0. 0. 0. 0. 0. 1. 7.
      0. 0. 0. 0. 0. 0. 0. 0. 1. 7. 0. 0. 0. 0. 0. 0. 0. 0. 8. 0. 0. 0.
      0. 0. 0. 0. 0. 0. 8. 0. 0. 0. 0. 0. 0. 0. 0. 0. 1. 7. 0. 0. 0. 0.
      0. 0. 0. 0. 0. 5. 3. 0. 0. 0. 0. 0. 0. 0. 0. 2. 1. 0. 0. 0. 1. 0.
      0. 2. 6. 0. 0. 0. 0. 0. 0. 0. 0. 0. 0. 8. 0. 0. 0. 0. 0. 0. 0. 0.
      0. 8. 0. 0. 0. 0. 0. 0. 0. 0. 6. 2. 0. 0. 0. 0. 0. 0. 0. 1. 5. 2.
      0. 0. 0. 0. 0. 0. 0. 0. 0. 7. 1. 0. 0. 0. 0. 0. 0. 0. 0. 0. 8. 0.
      0. 0. 0. 0. 0. 0. 0. 6. 2. 0. 0. 0. 0. 0. 2. 5. 1. 0. 0. 0. 0. 0.
      0. 0. 0. 8. 0. 0. 0. 0. 0. 0. 0. 0. 1. 7. 0. 0. 0. 0. 0. 0. 0. 0.
      8. 0. 0. 0. 0. 0. 0. 0. 0. 0. 2. 4. 2. 0. 0. 0. 0. 0. 0. 0. 0. 0.
      6. 2. 0. 0. 0. 0. 0. 0. 0. 0. 0. 7. 1. 0. 0. 0. 0. 0. 0. 0. 0. 0.
      8. 0. 0. 0. 0. 0. 5. 3. 0. 0. 0. 0. 0. 0. 0. 0. 8. 0. 0. 0. 0. 0.
      0. 0. 0. 0. 8. 0. 0. 0. 0. 0. 0. 0. 0. 0. 8. 0. 0. 0. 0. 0. 0. 0.
      0. 0. 4. 4. 0. 0. 0. 0. 0. 0. 0. 0. 0. 6. 1. 1. 0. 0. 0. 0. 0. 0.
      0. 0. 0. 1. 7. 0. 0. 0. 0. 0. 0. 0. 0. 0. 8. 0. 0. 0. 0. 0. 8. 0.
      0. 0. 0. 0. 0. 0. 0. 0. 1. 7. 0. 0. 0. 0. 0. 0. 0. 0. 4. 4. 0. 0.
      0. 0. 0. 0. 0. 0. 8. 0. 0. 0. 0. 0. 0. 0. 0. 0. 3. 5. 0. 0. 0. 0.
      0. 0. 0. 0. 0. 5. 2. 1. 0. 0. 0. 0. 0. 0. 0. 0. 0. 0. 6. 2. 0. 0.
      0. 0. 0. 0. 0. 0. 8. 0. 0. 0. 0. 0. 8. 0. 0. 0. 0. 0. 0. 0. 0. 0.
      1. 7. 0. 0. 0. 0. 0. 0. 0. 0. 0. 8. 0. 0. 0. 0. 0. 0. 0. 0. 6. 2.
      0. 0. 0. 0. 0. 0. 0. 0. 3. 5. 0. 0. 0. 0. 0. 0. 0. 0. 0. 4. 2. 2.
      0. 0. 0. 0. 0. 0. 0. 0. 0. 2. 6. 0. 0. 0. 0. 0. 0. 0. 0. 0. 8. 0.
      0. 0. 0. 0.</_>
    <_>
      0. 8. 0. 0. 0. 0. 0. 0. 0. 0. 0. 8. 0. 0. 0. 0. 0. 0. 0. 0. 0. 0.
      8. 0. 0. 0. 0. 0. 0. 0. 0. 0. 0. 3. 4. 1. 0. 0. 0. 0. 0. 0. 0. 0.
      0. 2. 6. 0. 0. 0. 0. 0. 0. 0. 0. 0. 8. 0. 0. 0. 0. 0. 0. 0. 0. 0.
      1. 3. 3. 1. 0. 0. 0. 0. 0. 0. 0. 8. 0. 0. 7. 1. 0. 0. 0. 0. 0. 0.
      0. 0. 0. 8. 0. 0. 0. 0. 0. 0. 0. 0. 0. 8. 0. 0. 0. 0. 0. 0. 0. 0.
      0. 1. 3. 2. 2. 0. 0. 0. 0. 0. 0. 0. 0. 0. 0. 1. 1. 6. 0. 0. 0. 0.
      0. 0. 0. 0. 0. 8. 0. 0. 0. 0. 0. 0. 0. 0. 0. 1. 0. 2. 0. 0. 0. 0.
      0. 0. 0. 6. 2. 0. 0. 0. 0. 0. 0. 0. 0. 0. 0. 0. 7. 0. 0. 0. 0. 0.
      0. 0. 0. 0. 5. 3. 0. 0. 0. 0. 0. 0. 0. 0. 0. 2. 1. 1. 2. 2. 0. 0.
      0. 0. 0. 0. 0. 0. 0. 0. 2. 4. 2. 0. 0. 0. 0. 0. 0. 0. 0. 0. 6. 2.
      0. 0. 0. 0. 0. 0. 0. 0. 0. 4. 0. 0. 0. 0. 0. 0. 0. 0. 0. 6. 0. 0.
      0. 0. 0. 0. 0. 0. 0. 0. 0. 0. 0. 0. 0. 0. 0. 0. 0. 0. 0. 0. 0. 0.
      0. 0. 0. 0. 0. 0. 0. 0. 0. 0. 0. 0. 0. 0. 0. 0. 0. 0. 0. 0. 0. 0.
      0. 0. 0. 0. 0. 0. 0. 0. 0. 0. 0. 0. 0. 0. 0. 0. 0. 0. 0. 0. 0. 0.
      0. 5. 0. 0. 0. 0. 0. 0. 0. 0. 0. 8. 0. 0. 0. 0. 0. 0. 0. 0. 0. 0.
      0. 0. 0. 0. 0. 0. 0. 0. 0. 0. 0. 0. 0. 0. 0. 0. 0. 0. 0. 0. 0. 0.
      0. 0. 0. 0. 0. 0. 0. 0. 0. 0. 0. 0. 0. 0. 0. 0. 0. 0. 0. 0. 0. 0.
      0. 0. 0. 0. 0. 0. 0. 0. 0. 0. 0. 0. 0. 0. 0. 0. 0. 0. 0. 0. 0. 0.
      0. 0. 0. 0. 0. 0. 0. 0. 0. 0. 0. 0. 0. 0. 0. 0. 0. 0. 0. 0. 0. 0.
      0. 0. 0. 0. 0. 0. 0. 0. 0. 0. 0. 0. 0. 0. 0. 0. 0. 0. 0. 0. 0. 0.
      0. 0. 0. 0. 0. 0. 0. 0. 0. 0. 0. 0. 0. 0. 0. 0. 0. 0. 0. 0. 0. 0.
      0. 0. 0. 0. 0. 0. 0. 0. 0. 0. 0. 0. 0. 0. 0. 0. 0. 0. 0. 0. 0. 0.
      0. 0. 0. 0. 0. 0. 0. 0. 0. 0. 0. 0. 0. 0. 0. 0. 0. 0. 0. 0. 0. 0.
      0. 0. 0. 0. 0. 0. 0. 0. 0. 0. 0. 0. 0. 0. 0. 0. 0. 0. 0. 0. 0. 0.
      0. 0. 0. 0. 0. 0. 0. 0. 0. 0. 0. 0. 0. 0. 0. 0. 0. 0. 0. 0. 0. 0.
      0. 0. 0. 0. 0. 0. 0. 0. 0. 0. 0. 0. 0. 0. 0. 0. 0. 0. 0. 0. 0. 0.
      0. 0. 0. 0. 0. 0. 0. 0. 0. 0. 0. 0. 0. 0. 0. 0. 0. 0. 0. 0. 0. 0.
      0. 0. 0. 0. 0. 0. 0. 0. 0. 0. 0. 0. 0. 0. 0. 0. 0. 0. 0. 0. 0. 0.
      0. 0. 0. 0. 0. 0. 0. 0. 0. 0. 0. 0. 0. 0. 0. 0. 0. 0. 0. 0. 0. 0.
      0. 0. 3. 1. 1. 0. 1. 0. 1. 0. 1. 0. 0. 0. 0. 0. 0. 0. 0. 0. 0. 3.
      0. 0. 0. 0. 0. 0. 0. 2. 1. 5. 0. 0. 0. 0. 0. 4. 4. 0. 0. 0. 0. 0.
      0. 0. 0. 0. 1. 3. 1. 3. 0. 0. 0. 0. 0. 0. 0. 0. 0. 4. 0. 0. 0. 0.
      0. 0. 0. 0. 0. 1. 0. 0. 0. 0. 0. 0. 0. 0. 0. 0. 0. 0. 0. 0. 0. 0.
      0. 0. 0. 1. 0. 0. 0. 0. 0. 0. 0. 0. 0. 0. 0. 0. 0. 0. 0. 0. 0. 0.
      1. 2. 0. 0. 0. 3. 2. 1. 1. 1. 0. 0. 0. 0. 0. 1. 1. 1. 2. 2. 1. 0.
      0. 0. 0. 0. 0. 0. 0. 0. 8. 0. 0. 0. 0. 0. 0. 0. 0. 0. 1. 0. 0. 0.
      0. 0. 0. 0. 0. 0. 0. 0. 0. 0. 0. 0. 0. 0. 0. 0. 0. 0. 0. 0. 0. 0.
      0. 0. 0. 0. 0. 0. 0. 0. 0. 0. 0. 1. 2. 2. 1. 1. 0. 2. 4. 0. 2. 0.
      0. 0. 0. 0. 0. 0. 3. 2. 1. 2. 0. 0. 0. 0. 0. 0. 0. 0. 0. 0. 2. 1.
      3. 2. 0. 0. 0. 0. 0. 0. 0. 0. 0. 0. 0. 0. 0. 0. 0. 0. 0. 0. 0. 0.
      0. 0. 0. 0. 0. 0. 0. 0. 0. 0. 0. 0. 0. 0. 0. 0. 0. 0. 0. 1. 0. 0.
      0. 0. 0. 3. 4. 1. 0. 0. 0. 2. 3. 1. 2. 0. 0. 0. 0. 0. 0. 0. 4. 2.
      1. 1. 0. 0. 0. 0. 0. 0. 0. 0. 0. 1. 2. 2. 1. 1. 0. 0. 0. 0. 0. 0.
      0. 0. 0. 0. 0. 0. 0. 0. 0. 0. 0. 0. 0. 0. 0. 0. 0. 0. 0. 0. 0. 0.
      0. 0. 0. 0. 0. 0. 0. 0. 0. 1. 0. 1. 0. 0. 0. 0. 0. 5. 3. 0. 0. 0.
      0. 0. 0. 0. 0. 0. 3. 5. 0. 0. 0. 0. 0. 0. 0. 0. 0. 2. 2. 2. 0. 0.
      0. 0. 0. 0. 0. 0. 0. 0. 0. 0. 0. 0. 0. 0. 0. 0. 0. 0. 0. 0. 0. 0.
      0. 0. 0. 0. 0. 0. 0. 0. 0. 0. 0. 0. 2. 2. 1. 2. 0. 0. 0. 0. 0. 0.
      0. 0. 0. 0. 0. 0. 0. 0. 0. 0. 0. 0. 0. 0. 0. 0. 0. 0. 0. 0. 0. 0.
      0. 0. 0. 0. 0. 0. 0. 0. 0. 0. 0. 0. 0. 0. 0. 0. 0. 0. 0. 0. 0. 0.
      0. 0. 0. 0. 0. 0. 0. 0. 0. 0. 0. 0. 0. 0. 0. 0. 0. 0. 0. 0. 0. 0.
      0. 1. 1. 1. 1. 1. 1. 1. 0. 0. 0. 0. 0. 0. 0. 0. 0. 0. 0. 0. 0. 0.
      0. 0. 0. 0. 0. 0. 0. 0. 0. 0. 0. 0. 0. 0. 0. 0. 0. 0. 0. 0. 0. 0.
      0. 0. 0. 0. 0. 0. 0. 0. 0. 0. 0. 0. 0. 0. 0. 0. 0. 0. 0. 0. 0. 0.
      0. 0. 0. 0. 0. 0. 0. 0. 0. 0. 0. 0. 0. 2. 1. 2. 1. 1. 1. 0. 0. 0.
      0. 0. 0. 0. 0. 0. 0. 0. 1. 0. 0. 0. 0. 0. 0. 0. 0. 0. 0. 0. 0. 0.
      0. 0. 0. 0. 0. 0. 0. 0. 0. 0. 0. 0. 0. 0. 0. 0. 0. 0. 0. 0. 0. 0.
      0. 0. 0. 0. 0. 0. 0. 0. 0. 0. 0. 0. 0. 0. 0. 0. 0. 0. 0. 0. 0. 0.
      0. 0. 0. 0.</_>
    <_>
      0. 0. 0. 0. 0. 0. 3. 2. 0. 1. 0. 0. 0. 0. 0. 0. 0. 0. 0. 0. 0. 0.
      0. 0. 0. 0. 0. 0. 0. 0. 0. 0. 0. 0. 0. 0. 0. 0. 0. 0. 0. 0. 0. 0.
      0. 0. 0. 0. 0. 0. 0. 0. 0. 0. 0. 0. 0. 0. 0. 0. 2. 2. 1. 0. 0. 0.
      0. 0. 0. 0. 0. 0. 1. 4. 3. 0. 0. 0. 0. 0. 0. 0. 0. 0. 0. 0. 0. 0.
      1. 6. 0. 0. 0. 0. 0. 0. 0. 0. 0. 0. 0. 0. 0. 0. 0. 0. 0. 0. 0. 0.
      0. 0. 0. 0. 0. 0. 0. 0. 0. 0. 0. 0. 0. 0. 0. 0. 0. 0. 0. 0. 0. 0.
      0. 0. 0. 0. 0. 0. 0. 0. 5. 2. 0. 0. 0. 0. 0. 0. 0. 0. 0. 0. 2. 6.
      0. 0. 0. 0. 0. 0. 0. 0. 0. 0. 0. 0. 0. 0. 7. 1. 0. 0. 0. 0. 0. 0.
      0. 0. 8. 0. 4. 0. 0. 1. 0. 0. 0. 0. 1. 0. 0. 0. 0. 0. 0. 0. 0. 0.
      0. 0. 4. 0. 0. 0. 0. 0. 0. 0. 0. 0. 8. 0. 0. 0. 0. 0. 0. 0. 0. 0.
      4. 4. 0. 0. 0. 0. 0. 0. 0. 0. 0. 5. 3. 0. 0. 0. 0. 0. 0. 0. 0. 0.
      0. 0. 0. 0. 0. 8. 0. 0. 0. 0. 0. 0. 0. 1. 1. 6. 0. 0. 0. 0. 5. 2.
      1. 0. 0. 0. 0. 0. 4. 4. 0. 0. 0. 0. 0. 0. 0. 0. 0. 8. 0. 0. 0. 0.
      0. 0. 0. 0. 0. 8. 0. 0. 0. 0. 0. 0. 0. 0. 0. 5. 3. 0. 0. 0. 0. 0.
      0. 0. 0. 1. 7. 0. 0. 0. 0. 0. 0. 0. 0. 0. 0. 0. 2. 5. 1. 0. 0. 0.
      0. 0. 0. 1. 3. 1. 3. 0. 0. 0. 0. 0. 2. 6. 0. 0. 0. 0. 0. 0. 0. 3.
      5. 0. 0. 0. 0. 0. 0. 0. 0. 4. 4. 0. 0. 0. 0. 0. 0. 0. 0. 7. 1. 0.
      0. 0. 0. 0. 0. 0. 0. 3. 5. 0. 0. 0. 0. 0. 0. 0. 0. 0. 8. 0. 0. 0.
      0. 0. 0. 0. 0. 0. 0. 0. 3. 5. 0. 0. 0. 0. 0. 0. 0. 0. 5. 3. 0. 0.
      0. 0. 0. 0. 0. 0. 8. 0. 0. 0. 0. 0. 0. 0. 0. 8. 0. 0. 0. 0. 0. 0.
      0. 0. 8. 0. 0. 0. 0. 0. 0. 0. 0. 0. 8. 0. 0. 0. 0. 0. 0. 0. 0. 0.
      1. 7. 0. 0. 0. 0. 0. 0. 0. 0. 0. 8. 0. 0. 0. 0. 0. 0. 0. 0. 0. 0.
      8. 0. 0. 0. 0. 0. 0. 0. 0. 0. 7. 1. 0. 0. 0. 0. 0. 0. 0. 0. 8. 0.
      0. 0. 0. 0. 0. 0. 1. 6. 1. 0. 0. 0. 0. 0. 0. 0. 8. 0. 0. 0. 0. 0.
      0. 0. 0. 0. 6. 2. 0. 0. 0. 0. 0. 0. 0. 0. 0. 8. 0. 0. 0. 0. 0. 0.
      0. 0. 0. 8. 0. 0. 0. 0. 0. 0. 0. 0. 0. 0. 8. 0. 0. 0. 0. 0. 0. 0.
      0. 0. 7. 1. 0. 0. 0. 0. 0. 0. 0. 3. 5. 0. 0. 0. 0. 0. 0. 0. 0. 8.
      0. 0. 0. 0. 0. 0. 0. 0. 0. 8. 0. 0. 0. 0. 0. 0. 0. 0. 5. 3. 0. 0.
      0. 0. 0. 0. 0. 0. 8. 0. 0. 0. 0. 0. 0. 0. 0. 0. 8. 0. 0. 0. 0. 0.
      0. 0. 8. 0. 0. 0. 0. 0. 0. 0. 0. 0. 5. 3. 0. 0. 0. 0. 0. 0. 0. 0.
      0. 8. 0. 0. 0. 0. 0. 0. 0. 0. 0. 8. 0. 0. 0. 0. 0. 0. 0. 0. 0. 3.
      5. 0. 0. 0. 0. 0. 0. 0. 0. 7. 1. 0. 0. 0. 0. 0. 0. 0. 0. 2. 1. 0.
      1. 1. 0. 1. 0. 0. 0. 0. 0. 0. 0. 0. 0. 0. 0. 0. 8. 0. 0. 0. 0. 0.
      0. 0. 0. 0. 8. 0. 0. 0. 0. 0. 0. 0. 0. 0. 8. 0. 0. 0. 0. 0. 0. 0.
      0. 0. 0. 8. 0. 0. 0. 0. 0. 0. 0. 0. 0. 4. 4. 0. 0. 0. 0. 0. 0. 0.
      0. 0. 8. 0. 0. 0. 0. 0. 0. 0. 0. 0. 1. 3. 1. 1. 1. 1. 0. 0. 0. 0.
      0. 0. 0. 0. 0. 1. 0. 1. 1. 7. 0. 0. 0. 0. 0. 0. 0. 0. 2. 6. 0. 0.
      0. 0. 0. 0. 0. 0. 8. 0. 0. 0. 0. 0. 0. 0. 0. 0. 0. 8. 0. 0. 0. 0.
      0. 0. 0. 0. 0. 6. 2. 0. 0. 0. 0. 0. 0. 0. 0. 0. 5. 3. 0. 0. 0. 0.
      0. 0. 0. 0. 0. 2. 6. 0. 0. 0. 0. 0. 0. 0. 0. 0. 8. 0. 0. 0. 0. 0.
      1. 7. 0. 0. 0. 0. 0. 0. 0. 0. 1. 7. 0. 0. 0. 0. 0. 0. 0. 0. 0. 8.
      0. 0. 0. 0. 0. 0. 0. 0. 0. 8. 0. 0. 0. 0. 0. 0. 0. 0. 0. 1. 5. 2.
      0. 0. 0. 0. 0. 0. 0. 0. 0. 8. 0. 0. 0. 0. 0. 0. 0. 0. 0. 1. 7. 0.
      0. 0. 0. 0. 0. 0. 0. 0. 8. 0. 0. 0. 0. 0. 2. 6. 0. 0. 0. 0. 0. 0.
      0. 0. 0. 8. 0. 0. 0. 0. 0. 0. 0. 0. 0. 8. 0. 0. 0. 0. 0. 0. 0. 0.
      0. 2. 6. 0. 0. 0. 0. 0. 0. 0. 0. 0. 1. 7. 0. 0. 0. 0. 0. 0. 0. 0.
      0. 0. 8. 0. 0. 0. 0. 0. 0. 0. 0. 0. 4. 3. 1. 0. 0. 0. 0. 0. 0. 0.
      0. 8. 0. 0. 0. 0. 4. 3. 1. 0. 0. 0. 0. 0. 0. 0. 0. 0. 2. 6. 0. 0.
      0. 0. 0. 0. 0. 0. 0. 8. 0. 0. 0. 0. 0. 0. 0. 0. 0. 8. 0. 0. 0. 0.
      0. 0. 0. 0. 0. 0. 7. 1. 0. 0. 0. 0. 0. 0. 0. 0. 0. 6. 2. 0. 0. 0.
      0. 0. 0. 0. 0. 0. 0. 2. 3. 3. 0. 0. 0. 0. 0. 0. 0. 0. 0. 3. 0. 0.
      1. 3. 2. 2. 0. 0. 0. 0. 0. 0. 0. 0. 4. 4. 0. 0. 0. 0. 0. 0. 0. 0.
      8. 0. 0. 0. 0. 0. 0. 0. 0. 0. 1. 7. 0. 0. 0. 0. 0. 0. 0. 0. 0. 5.
      3. 0. 0. 0. 0. 0. 0. 0. 0. 0. 4. 2. 1. 1. 0. 0. 0. 0. 0. 0. 0. 0.
      0. 8. 0. 0. 0. 0. 0. 0. 0. 0. 0. 4. 0. 0. 2. 3. 2. 1. 0. 0. 0. 0.
      0. 0. 0. 0. 1. 7. 0. 0. 0. 0. 0. 0. 0. 0. 0. 5. 3. 0. 0. 0. 0. 0.
      0. 0. 0. 0. 1. 7. 0. 0. 0. 0. 0. 0. 0. 0. 0. 8. 0. 0. 0. 0. 0. 0.
      0. 0. 0. 8. 0. 0. 0. 0. 0. 0. 0. 0. 0. 8. 0. 0. 0. 0. 0. 0. 0. 0.
      0. 5. 3. 0.</_>
    <_>
      0. 1. 6. 1. 0. 0. 0. 0. 0. 0. 1. 4. 1. 2. 0. 0. 0. 0. 0. 0. 8. 0.
      0. 0. 0. 0. 0. 0. 0. 0. 7. 1. 0. 0. 0. 0. 0. 0. 0. 0. 0. 3. 2. 1.
      0. 2. 0. 0. 0. 0. 0. 0. 0. 0. 0. 0. 7. 1. 0. 0. 0. 0. 0. 0. 0. 0.
      0. 3. 5. 0. 0. 0. 0. 0. 0. 0. 0. 0. 5. 3. 0. 0. 0. 0. 0. 0. 0. 0.
      0. 0. 0. 0. 0. 0. 0. 0. 0. 0. 0. 0. 0. 0. 0. 0. 0. 0. 0. 0. 0. 0.
      0. 0. 0. 0. 0. 0. 0. 0. 0. 0. 0. 0. 0. 0. 0. 0. 0. 0. 0. 0. 0. 0.
      0. 0. 0. 0. 0. 0. 0. 4. 0. 0. 0. 0. 0. 0. 0. 0. 0. 1. 0. 0. 0. 0.
      0. 0. 0. 1. 0. 1. 0. 0. 0. 0. 0. 0. 0. 0. 0. 0. 0. 0. 0. 0. 0. 0.
      0. 0. 0. 0. 0. 0. 0. 0. 0. 0. 0. 0. 0. 0. 0. 0. 0. 0. 0. 0. 0. 0.
      0. 0. 0. 0. 0. 0. 0. 0. 0. 0. 0. 0. 0. 0. 0. 0. 0. 0. 0. 0. 0. 0.
      0. 0. 0. 0. 0. 0. 0. 0. 0. 0. 0. 0. 0. 0. 0. 0. 0. 0. 0. 0. 0. 0.
      0. 0. 0. 0. 0. 0. 0. 0. 0. 0. 0. 0. 0. 0. 0. 0. 0. 0. 0. 0. 0. 0.
      0. 0. 0. 0. 0. 0. 0. 0. 0. 0. 0. 0. 0. 0. 0. 0. 0. 0. 0. 0. 0. 0.
      0. 0. 0. 0. 0. 0. 0. 0. 0. 0. 0. 0. 0. 0. 0. 0. 0. 0. 0. 0. 0. 0.
      0. 0. 0. 0. 0. 0. 0. 0. 0. 0. 0. 0. 0. 0. 0. 0. 0. 0. 0. 0. 0. 0.
      0. 0. 0. 0. 0. 0. 0. 0. 0. 0. 0. 0. 0. 0. 0. 0. 0. 0. 0. 0. 0. 0.
      0. 0. 0. 0. 0. 0. 0. 0. 0. 0. 0. 0. 0. 0. 0. 0. 0. 0. 0. 0. 0. 0.
      0. 0. 0. 0. 0. 0. 0. 0. 0. 0. 0. 0. 0. 0. 0. 0. 0. 0. 0. 0. 0. 0.
      0. 0. 0. 0. 0. 0. 0. 0. 0. 0. 0. 0. 0. 0. 0. 0. 0. 0. 0. 0. 0. 0.
      0. 0. 0. 0. 0. 0. 0. 0. 0. 0. 0. 0. 0. 0. 0. 0. 0. 0. 0. 0. 0. 0.
      0. 0. 0. 0. 0. 0. 0. 0. 0. 0. 0. 0. 0. 0. 0. 0. 0. 0. 0. 0. 0. 0.
      0. 0. 0. 0. 0. 0. 0. 0. 0. 0. 0. 0. 0. 0. 0. 0. 0. 0. 0. 0. 0. 0.
      0. 0. 0. 0. 0. 0. 0. 0. 0. 0. 0. 0. 0. 0. 0. 0. 0. 0. 0. 0. 0. 0.
      0. 0. 0. 0. 0. 0. 0. 0. 0. 0. 0. 0. 0. 0. 0. 0. 0. 0. 0. 0. 0. 0.
      0. 0. 0. 0. 0. 0. 0. 0. 0. 0. 0. 0. 0. 0. 0. 0. 0. 0. 0. 0. 0. 0.
      0. 0. 0. 0. 0. 0. 0. 0. 0. 0. 0. 0. 0. 0. 0. 0. 0. 0. 0. 0. 0. 0.
      0. 0. 0. 0. 0. 0. 0. 0. 0. 0. 0. 0. 0. 0. 0. 0. 0. 0. 0. 0. 0. 0.
      0. 0. 0. 0. 0. 0. 0. 0. 0. 0. 0. 0. 0. 0. 0. 0. 0. 0. 0. 0. 0. 0.
      0. 0. 0. 0. 0. 0. 0. 0. 0. 0. 0. 0. 0. 0. 0. 0. 0. 0. 0. 0. 0. 0.
      0. 0. 8. 0. 0. 0. 0. 0. 0. 0. 0. 0. 2. 3. 3. 0. 0. 0. 0. 0. 0. 0.
      0. 0. 8. 0. 0. 0. 0. 0. 0. 0. 0. 3. 5. 0. 0. 0. 0. 0. 0. 0. 6. 2.
      0. 0. 0. 0. 0. 0. 0. 0. 8. 0. 0. 0. 0. 0. 0. 0. 0. 0. 8. 0. 0. 0.
      0. 0. 0. 0. 0. 0. 8. 0. 0. 0. 0. 0. 0. 0. 0. 0. 1. 0. 2. 1. 4. 0.
      0. 0. 0. 0. 0. 0. 0. 0. 8. 0. 0. 0. 0. 0. 0. 0. 1. 4. 3. 0. 0. 0.
      0. 0. 0. 4. 4. 0. 0. 0. 0. 0. 0. 0. 6. 2. 0. 0. 0. 0. 0. 0. 0. 0.
      2. 5. 1. 0. 0. 0. 0. 0. 0. 0. 0. 0. 8. 0. 0. 0. 0. 0. 0. 0. 1. 1.
      6. 0. 0. 0. 0. 0. 0. 0. 0. 0. 0. 0. 1. 1. 6. 0. 0. 0. 0. 0. 0. 0.
      2. 2. 4. 0. 0. 0. 0. 0. 3. 4. 1. 0. 0. 0. 0. 0. 0. 6. 2. 0. 0. 0.
      0. 0. 0. 0. 0. 8. 0. 0. 0. 0. 0. 0. 0. 0. 0. 4. 4. 0. 0. 0. 0. 0.
      0. 0. 0. 0. 8. 0. 0. 0. 0. 0. 0. 0. 0. 0. 5. 3. 0. 0. 0. 0. 0. 0.
      0. 0. 0. 0. 1. 2. 5. 0. 0. 0. 0. 0. 0. 0. 3. 2. 3. 0. 0. 0. 0. 0.
      0. 6. 2. 0. 0. 0. 0. 0. 0. 4. 3. 1. 0. 0. 0. 0. 0. 0. 0. 1. 7. 0.
      0. 0. 0. 0. 0. 0. 0. 0. 2. 6. 0. 0. 0. 0. 0. 0. 0. 0. 0. 6. 2. 0.
      0. 0. 0. 0. 0. 0. 0. 0. 1. 1. 1. 0. 1. 0. 0. 0. 2. 2. 4. 0. 0. 0.
      0. 0. 0. 0. 0. 0. 3. 5. 0. 0. 0. 0. 0. 0. 0. 0. 8. 0. 0. 0. 0. 0.
      0. 0. 3. 2. 3. 0. 0. 0. 0. 0. 0. 0. 1. 4. 3. 0. 0. 0. 0. 0. 0. 0.
      0. 0. 0. 8. 0. 0. 0. 0. 0. 0. 0. 0. 0. 6. 1. 1. 0. 0. 0. 0. 0. 0.
      0. 0. 0. 0. 1. 1. 0. 2. 3. 3. 0. 0. 0. 0. 0. 0. 0. 0. 0. 2. 4. 2.
      0. 0. 0. 0. 0. 0. 0. 0. 0. 7. 1. 0. 0. 0. 0. 0. 0. 0. 0. 6. 2. 0.
      0. 0. 0. 0. 0. 0. 0. 8. 0. 0. 0. 0. 0. 0. 0. 0. 0. 1. 7. 0. 0. 0.
      0. 0. 0. 0. 0. 0. 1. 2. 3. 2. 0. 0. 0. 0. 0. 0. 0. 0. 0. 0. 0. 0.
      0. 0. 0. 3. 4. 1. 0. 0. 0. 0. 0. 0. 0. 0. 2. 3. 3. 0. 0. 0. 0. 0.
      0. 8. 0. 0. 0. 0. 0. 0. 0. 0. 0. 6. 2. 0. 0. 0. 0. 0. 0. 0. 0. 0.
      8. 0. 0. 0. 0. 0. 0. 0. 0. 0. 6. 2. 0. 0. 0. 0. 0. 0. 0. 0. 0. 0.
      1. 2. 0. 0. 0. 0. 0. 0. 0. 0. 0. 7. 0. 0. 0. 0. 2. 2. 3. 1. 0. 0.
      0. 0. 0. 0. 0. 0. 2. 6. 0. 0. 0. 0. 0. 0. 0. 8. 0. 0. 0. 0. 0. 0.
      0. 0. 0. 5. 3. 0. 0. 0. 0. 0. 0. 0. 0. 0. 8. 0. 0. 0. 0. 0. 0. 0.
      0. 0. 4. 2. 1. 0. 0. 0. 0. 0. 0. 0. 0. 0. 0. 0. 0. 0. 0. 0. 0. 0.
      0. 0. 0. 0.</_>
    <_>
      0. 0. 0. 0. 0. 0. 0. 0. 0. 0. 0. 0. 0. 0. 0. 0. 0. 0. 0. 0. 0. 0.
      0. 0. 0. 0. 0. 0. 0. 0. 0. 0. 0. 0. 0. 0. 0. 0. 0. 0. 0. 0. 0. 0.
      0. 0. 0. 0. 0. 0. 0. 0. 0. 0. 0. 0. 0. 0. 0. 0. 1. 1. 1. 0. 0. 0.
      0. 0. 0. 0. 0. 0. 0. 8. 0. 0. 0. 0. 0. 0. 0. 0. 0. 0. 0. 0. 0. 0.
      0. 0. 0. 0. 0. 0. 0. 0. 0. 0. 0. 0. 0. 0. 0. 0. 0. 0. 0. 0. 0. 0.
      0. 0. 0. 0. 0. 0. 0. 0. 0. 0. 0. 0. 0. 0. 0. 0. 0. 0. 0. 0. 0. 0.
      0. 0. 0. 0. 0. 0. 0. 0. 1. 2. 2. 0. 0. 0. 0. 0. 0. 0. 0. 0. 1. 5.
      2. 0. 0. 0. 0. 0. 0. 0. 0. 0. 0. 0. 0. 0. 3. 5. 0. 0. 0. 0. 0. 0.
      0. 0. 0. 6. 0. 0. 0. 0. 0. 0. 0. 0. 0. 0. 0. 0. 0. 0. 0. 0. 0. 0.
      0. 0. 0. 0. 0. 0. 0. 0. 0. 0. 0. 0. 3. 0. 0. 0. 0. 0. 0. 0. 0. 0.
      6. 2. 0. 0. 0. 0. 0. 0. 0. 0. 0. 1. 5. 2. 0. 0. 0. 0. 0. 0. 0. 0.
      0. 0. 0. 0. 0. 0. 8. 0. 0. 0. 0. 0. 0. 0. 0. 0. 6. 2. 0. 0. 0. 0.
      2. 1. 1. 1. 1. 2. 3. 2. 1. 2. 0. 0. 0. 0. 0. 0. 8. 0. 0. 0. 0. 0.
      0. 0. 0. 0. 8. 0. 0. 0. 0. 0. 0. 0. 0. 0. 6. 2. 0. 0. 0. 0. 0. 0.
      0. 0. 0. 2. 5. 1. 0. 0. 0. 0. 0. 0. 0. 0. 0. 0. 0. 0. 0. 0. 7. 1.
      0. 0. 0. 0. 0. 0. 0. 1. 7. 0. 0. 0. 0. 0. 7. 1. 0. 0. 0. 0. 0. 0.
      1. 2. 5. 0. 0. 0. 0. 0. 0. 0. 8. 0. 0. 0. 0. 0. 0. 0. 0. 0. 8. 0.
      0. 0. 0. 0. 0. 0. 2. 6. 0. 0. 0. 0. 0. 0. 0. 0. 8. 0. 0. 0. 0. 0.
      0. 0. 0. 0. 0. 0. 0. 0. 0. 0. 0. 3. 3. 1. 0. 0. 0. 0. 0. 3. 3. 2.
      0. 0. 0. 0. 0. 0. 8. 0. 0. 0. 0. 0. 0. 0. 0. 1. 7. 0. 0. 0. 0. 0.
      0. 0. 7. 1. 0. 0. 0. 0. 0. 0. 0. 0. 8. 0. 0. 0. 0. 0. 0. 0. 0. 1.
      7. 0. 0. 0. 0. 0. 0. 0. 0. 6. 2. 0. 0. 0. 0. 0. 0. 0. 0. 0. 0. 0.
      0. 8. 0. 0. 0. 0. 0. 0. 0. 0. 0. 8. 0. 0. 0. 0. 0. 0. 0. 0. 2. 6.
      0. 0. 0. 0. 0. 0. 0. 3. 5. 0. 0. 0. 0. 0. 0. 0. 8. 0. 0. 0. 0. 0.
      0. 0. 0. 0. 8. 0. 0. 0. 0. 0. 0. 0. 0. 0. 8. 0. 0. 0. 0. 0. 0. 0.
      0. 3. 5. 0. 0. 0. 0. 0. 0. 0. 0. 0. 0. 0. 1. 7. 0. 0. 0. 0. 0. 0.
      0. 0. 0. 8. 0. 0. 0. 0. 0. 0. 0. 0. 5. 3. 0. 0. 0. 0. 0. 0. 0. 6.
      2. 0. 0. 0. 0. 0. 0. 0. 8. 0. 0. 0. 0. 0. 0. 0. 0. 0. 7. 1. 0. 0.
      0. 0. 0. 0. 0. 0. 0. 8. 0. 0. 0. 0. 0. 0. 0. 0. 2. 6. 0. 0. 0. 0.
      0. 0. 8. 0. 0. 0. 0. 0. 0. 0. 0. 0. 0. 7. 1. 0. 0. 0. 0. 0. 0. 0.
      0. 0. 5. 3. 0. 0. 0. 0. 0. 0. 0. 0. 0. 8. 0. 0. 0. 0. 0. 0. 0. 0.
      7. 1. 0. 0. 0. 0. 0. 0. 0. 0. 0. 8. 0. 0. 0. 0. 0. 0. 0. 1. 3. 1.
      0. 0. 1. 0. 0. 0. 0. 0. 0. 0. 0. 0. 0. 0. 0. 0. 0. 1. 3. 4. 0. 0.
      0. 0. 0. 0. 0. 0. 0. 8. 0. 0. 0. 0. 0. 0. 0. 0. 8. 0. 0. 0. 0. 0.
      0. 0. 0. 0. 8. 0. 0. 0. 0. 0. 0. 0. 0. 0. 5. 1. 1. 1. 0. 0. 0. 0.
      0. 0. 0. 0. 0. 2. 6. 0. 0. 0. 0. 0. 0. 0. 0. 0. 2. 1. 0. 1. 0. 0.
      0. 0. 0. 0. 0. 0. 0. 0. 0. 0. 2. 6. 0. 0. 0. 0. 0. 0. 0. 2. 1. 5.
      0. 0. 0. 0. 0. 0. 1. 7. 0. 0. 0. 0. 0. 0. 0. 0. 4. 3. 1. 0. 0. 0.
      0. 0. 0. 0. 0. 0. 1. 5. 2. 0. 0. 0. 0. 0. 0. 0. 0. 0. 1. 3. 3. 1.
      0. 0. 0. 0. 0. 0. 0. 0. 0. 1. 2. 5. 0. 0. 0. 0. 0. 0. 0. 0. 1. 3.
      0. 0. 0. 0. 5. 3. 0. 0. 0. 0. 0. 2. 0. 3. 3. 0. 0. 0. 0. 0. 7. 1.
      0. 0. 0. 0. 0. 0. 0. 0. 5. 1. 2. 0. 0. 0. 0. 0. 0. 0. 0. 0. 0. 6.
      2. 0. 0. 0. 0. 0. 0. 0. 0. 0. 3. 1. 1. 1. 2. 0. 0. 0. 0. 0. 0. 0.
      0. 0. 8. 0. 0. 0. 0. 0. 0. 0. 0. 0. 6. 2. 0. 0. 0. 3. 5. 0. 0. 0.
      0. 0. 0. 0. 1. 1. 6. 0. 0. 0. 0. 0. 0. 0. 1. 7. 0. 0. 0. 0. 0. 0.
      0. 0. 0. 5. 3. 0. 0. 0. 0. 0. 0. 0. 0. 0. 2. 2. 4. 0. 0. 0. 0. 0.
      0. 0. 0. 0. 0. 1. 7. 0. 0. 0. 0. 0. 0. 0. 0. 0. 8. 0. 0. 0. 0. 0.
      0. 0. 0. 0. 5. 3. 0. 3. 4. 1. 0. 0. 0. 0. 0. 0. 0. 0. 0. 2. 1. 4.
      1. 0. 0. 0. 0. 0. 0. 0. 0. 8. 0. 0. 0. 0. 0. 0. 0. 0. 0. 8. 0. 0.
      0. 0. 0. 0. 0. 0. 0. 0. 2. 3. 3. 0. 0. 0. 0. 0. 0. 0. 0. 0. 3. 5.
      0. 0. 0. 0. 0. 0. 0. 0. 0. 8. 0. 1. 0. 0. 0. 1. 0. 0. 6. 0. 0. 4.
      3. 1. 0. 0. 0. 0. 0. 0. 0. 0. 0. 0. 1. 0. 5. 2. 0. 0. 0. 0. 0. 0.
      0. 0. 8. 0. 0. 0. 0. 0. 0. 0. 0. 0. 4. 3. 1. 0. 0. 0. 0. 0. 0. 0.
      0. 0. 2. 6. 0. 0. 0. 0. 0. 0. 0. 0. 0. 7. 0. 0. 0. 0. 0. 0. 0. 0.
      0. 3. 4. 0. 0. 0. 1. 0. 0. 0. 1. 2. 6. 2. 0. 0. 0. 0. 0. 0. 0. 0.
      0. 0. 1. 0. 1. 0. 1. 5. 0. 0. 0. 0. 0. 0. 0. 0. 0. 8. 0. 0. 0. 0.
      0. 0. 0. 0. 0. 2. 4. 2. 0. 0. 0. 0. 0. 0. 0. 0. 0. 4. 0. 0. 0. 0.
      0. 0. 0. 0. 0. 0. 0. 0. 0. 0. 0. 0. 0. 0. 0. 0. 2. 3. 1. 0. 0. 0.
      1. 0. 0. 0.</_>
    <_>
      0. 0. 0. 0. 0. 0. 0. 0. 0. 0. 0. 0. 0. 0. 0. 0. 0. 0. 0. 0. 0. 0.
      0. 0. 0. 0. 0. 0. 0. 0. 0. 0. 0. 0. 0. 0. 0. 0. 0. 0. 2. 1. 0. 1.
      2. 0. 0. 0. 0. 0. 0. 0. 0. 0. 3. 5. 0. 0. 0. 0. 0. 0. 0. 0. 0. 2.
      0. 4. 2. 0. 0. 0. 0. 0. 0. 0. 8. 0. 0. 0. 0. 0. 0. 0. 0. 0. 0. 0.
      0. 0. 0. 0. 0. 0. 0. 0. 0. 0. 0. 0. 0. 0. 0. 0. 0. 0. 0. 0. 0. 0.
      0. 0. 0. 0. 0. 0. 0. 0. 0. 0. 2. 1. 1. 0. 0. 0. 0. 0. 0. 0. 0. 0.
      0. 2. 1. 2. 3. 0. 0. 0. 0. 0. 0. 0. 0. 0. 2. 0. 1. 5. 0. 0. 0. 0.
      0. 0. 5. 2. 1. 0. 0. 0. 0. 0. 0. 0. 0. 0. 0. 0. 0. 0. 0. 0. 0. 0.
      0. 0. 0. 0. 0. 0. 0. 0. 0. 0. 0. 0. 0. 0. 0. 0. 0. 0. 0. 0. 0. 0.
      0. 0. 4. 0. 0. 0. 0. 0. 0. 0. 0. 0. 1. 2. 0. 2. 1. 0. 1. 1. 0. 0.
      0. 0. 0. 0. 0. 0. 0. 1. 2. 5. 0. 0. 0. 0. 0. 0. 0. 6. 2. 0. 0. 0.
      0. 0. 0. 0. 0. 0. 0. 0. 0. 0. 0. 0. 0. 0. 0. 0. 0. 0. 0. 0. 0. 0.
      0. 0. 0. 0. 0. 0. 0. 0. 0. 0. 0. 0. 0. 0. 0. 0. 0. 0. 0. 0. 0. 0.
      0. 0. 0. 0. 0. 0. 0. 0. 0. 0. 0. 0. 0. 0. 0. 0. 0. 0. 0. 0. 0. 0.
      0. 1. 0. 0. 0. 0. 0. 0. 0. 0. 7. 1. 0. 0. 0. 0. 0. 0. 0. 0. 0. 0.
      0. 0. 0. 0. 0. 0. 0. 0. 0. 0. 0. 0. 0. 0. 0. 0. 0. 0. 0. 0. 0. 0.
      0. 0. 0. 0. 0. 0. 0. 0. 0. 0. 0. 0. 0. 0. 0. 0. 0. 0. 0. 0. 0. 0.
      0. 0. 0. 0. 0. 0. 0. 0. 0. 0. 0. 0. 0. 0. 0. 0. 0. 0. 0. 0. 0. 0.
      0. 0. 7. 1. 0. 0. 0. 0. 0. 0. 0. 0. 0. 0. 0. 0. 0. 0. 0. 0. 0. 0.
      0. 0. 0. 0. 0. 0. 0. 0. 0. 0. 0. 0. 0. 0. 0. 0. 0. 0. 0. 0. 0. 0.
      0. 0. 0. 0. 0. 0. 0. 0. 0. 0. 0. 0. 0. 0. 0. 0. 0. 0. 0. 0. 0. 0.
      0. 0. 0. 0. 0. 0. 0. 0. 0. 0. 0. 0. 0. 0. 0. 0. 0. 0. 0. 0. 0. 0.
      0. 0. 0. 0. 0. 0. 0. 0. 0. 0. 0. 0. 0. 0. 0. 0. 0. 0. 0. 0. 0. 0.
      0. 0. 0. 0. 0. 0. 0. 0. 0. 0. 0. 0. 0. 0. 0. 0. 0. 0. 0. 0. 0. 0.
      0. 0. 0. 0. 0. 0. 0. 0. 0. 0. 0. 0. 0. 0. 0. 0. 0. 0. 0. 0. 0. 0.
      0. 0. 0. 0. 0. 0. 0. 0. 0. 0. 0. 0. 0. 0. 0. 0. 0. 0. 0. 0. 0. 0.
      0. 0. 0. 0. 0. 0. 0. 0. 0. 0. 0. 0. 0. 0. 0. 0. 0. 0. 0. 0. 0. 0.
      0. 0. 0. 0. 0. 0. 0. 0. 0. 0. 0. 0. 0. 0. 0. 0. 0. 0. 0. 0. 0. 0.
      0. 0. 0. 0. 0. 0. 0. 0. 0. 0. 0. 0. 0. 0. 0. 0. 0. 0. 0. 0. 0. 0.
      0. 0. 4. 1. 1. 1. 0. 0. 1. 0. 0. 0. 0. 0. 0. 0. 0. 0. 0. 0. 0. 0.
      0. 0. 0. 0. 0. 0. 0. 0. 0. 0. 0. 0. 0. 0. 0. 0. 0. 0. 1. 2. 0. 0.
      3. 1. 2. 1. 0. 1. 0. 0. 0. 0. 0. 0. 8. 0. 0. 0. 0. 0. 0. 0. 0. 0.
      2. 1. 0. 3. 2. 0. 0. 0. 0. 0. 0. 0. 0. 0. 0. 4. 0. 0. 0. 0. 0. 0.
      0. 1. 0. 0. 0. 0. 0. 0. 0. 0. 0. 0. 0. 0. 0. 0. 0. 0. 0. 0. 0. 0.
      0. 0. 0. 0. 0. 0. 0. 0. 0. 0. 4. 1. 0. 0. 1. 1. 1. 1. 1. 2. 1. 0.
      0. 0. 8. 0. 0. 0. 0. 0. 0. 0. 0. 0. 2. 1. 0. 0. 2. 3. 0. 0. 0. 0.
      0. 0. 0. 0. 0. 2. 0. 1. 0. 0. 0. 0. 0. 0. 0. 0. 0. 0. 0. 0. 0. 0.
      0. 0. 0. 0. 0. 0. 0. 0. 0. 0. 0. 0. 0. 0. 0. 0. 0. 0. 0. 0. 0. 0.
      0. 2. 2. 1. 0. 0. 0. 1. 1. 2. 2. 2. 0. 0. 2. 4. 2. 0. 0. 0. 0. 0.
      0. 0. 0. 1. 1. 0. 1. 3. 2. 0. 0. 0. 0. 0. 0. 0. 0. 0. 1. 1. 6. 0.
      0. 0. 0. 0. 0. 0. 0. 0. 0. 0. 0. 0. 0. 0. 0. 0. 0. 0. 0. 0. 0. 0.
      0. 0. 0. 0. 0. 0. 0. 0. 0. 0. 0. 0. 0. 0. 0. 1. 1. 1. 0. 0. 0. 0.
      0. 3. 4. 1. 0. 0. 0. 0. 0. 2. 6. 0. 0. 0. 0. 0. 0. 0. 0. 0. 0. 5.
      3. 0. 0. 0. 0. 0. 0. 0. 0. 0. 1. 7. 0. 0. 0. 0. 0. 0. 1. 0. 1. 1.
      0. 0. 0. 0. 0. 0. 0. 0. 0. 0. 0. 0. 0. 0. 0. 0. 0. 0. 0. 0. 0. 0.
      0. 0. 0. 0. 0. 0. 0. 0. 0. 0. 0. 0. 0. 0. 0. 0. 0. 4. 2. 1. 0. 0.
      0. 0. 0. 0. 0. 7. 1. 0. 0. 0. 0. 0. 0. 0. 0. 4. 4. 0. 0. 0. 0. 0.
      0. 0. 0. 8. 0. 0. 0. 0. 0. 0. 1. 1. 0. 1. 1. 0. 0. 0. 0. 0. 0. 0.
      0. 0. 0. 0. 0. 0. 0. 0. 0. 0. 0. 0. 0. 0. 0. 0. 0. 0. 0. 0. 0. 0.
      0. 0. 0. 0. 0. 0. 0. 0. 0. 0. 0. 0. 0. 0. 0. 0. 0. 0. 0. 0. 0. 2.
      0. 0. 0. 0. 0. 0. 0. 0. 0. 1. 0. 0. 0. 0. 0. 0. 0. 0. 0. 0. 0. 0.
      0. 0. 0. 0. 0. 0. 0. 1. 0. 0. 0. 0. 0. 0. 0. 0. 0. 0. 0. 0. 0. 0.
      0. 0. 0. 0. 0. 0. 0. 0. 0. 0. 0. 0. 0. 0. 0. 0. 0. 0. 0. 0. 0. 0.
      0. 0. 0. 0. 0. 0. 0. 0. 0. 0. 0. 0. 0. 0. 0. 0. 0. 0. 0. 0. 0. 0.
      0. 0. 0. 0. 0. 0. 0. 0. 0. 0. 0. 0. 0. 0. 0. 0. 0. 0. 1. 0. 2. 1.
      0. 0. 0. 0. 0. 0. 0. 0. 0. 0. 0. 0. 0. 0. 0. 0. 0. 0. 0. 0. 0. 0.
      0. 0. 0. 0. 0. 0. 0. 0. 0. 0. 0. 0. 0. 0. 0. 0. 0. 0. 0. 0. 0. 0.
      0. 0. 0. 0. 0. 0. 0. 0. 0. 0. 0. 0. 0. 0. 0. 0. 0. 0. 0. 0. 0. 0.
      0. 0. 0. 0.</_>
    <_>
      0. 0. 0. 0. 0. 0. 0. 0. 0. 2. 0. 0. 0. 0. 0. 0. 0. 0. 0. 0. 0. 0.
      0. 0. 0. 0. 0. 0. 0. 0. 4. 0. 0. 0. 0. 0. 0. 0. 0. 0. 8. 0. 0. 0.
      0. 0. 0. 0. 0. 0. 6. 2. 0. 0. 0. 0. 0. 0. 0. 0. 1. 6. 0. 0. 0. 0.
      0. 0. 0. 0. 0. 0. 0. 0. 0. 0. 0. 0. 0. 0. 1. 0. 0. 1. 1. 0. 0. 0.
      0. 0. 1. 0. 0. 0. 0. 0. 0. 0. 0. 0. 8. 0. 0. 0. 0. 0. 0. 0. 0. 0.
      8. 0. 0. 0. 0. 0. 0. 0. 0. 0. 4. 4. 0. 0. 0. 0. 0. 0. 0. 0. 0. 8.
      0. 0. 0. 0. 0. 0. 0. 0. 0. 8. 0. 0. 0. 0. 0. 0. 0. 0. 3. 5. 0. 0.
      0. 0. 0. 0. 0. 0. 5. 1. 1. 1. 0. 0. 0. 0. 0. 0. 8. 0. 0. 0. 0. 0.
      0. 0. 0. 0. 0. 8. 0. 0. 0. 0. 0. 0. 0. 0. 0. 8. 0. 0. 0. 0. 0. 0.
      0. 0. 0. 8. 0. 0. 0. 0. 0. 0. 0. 0. 0. 8. 0. 0. 0. 0. 0. 0. 0. 0.
      0. 8. 0. 0. 0. 0. 0. 0. 0. 0. 0. 6. 2. 0. 0. 0. 0. 0. 0. 0. 0. 1.
      2. 4. 1. 0. 0. 0. 0. 0. 7. 1. 0. 0. 0. 0. 0. 0. 0. 0. 8. 0. 0. 0.
      0. 0. 0. 0. 0. 0. 4. 4. 0. 0. 0. 0. 0. 0. 0. 0. 0. 8. 0. 0. 0. 0.
      0. 0. 0. 0. 0. 8. 0. 0. 0. 0. 0. 0. 0. 0. 2. 6. 0. 0. 0. 0. 0. 0.
      0. 0. 3. 0. 0. 0. 0. 0. 0. 0. 0. 0. 0. 0. 0. 0. 8. 0. 0. 0. 0. 0.
      0. 0. 0. 0. 1. 0. 1. 0. 0. 0. 5. 0. 0. 0. 0. 0. 0. 0. 0. 0. 2. 2.
      4. 0. 0. 0. 0. 0. 0. 0. 0. 0. 8. 0. 0. 0. 0. 0. 0. 0. 0. 0. 8. 0.
      0. 0. 0. 0. 0. 0. 2. 5. 1. 0. 0. 0. 0. 0. 0. 0. 3. 3. 0. 0. 0. 0.
      0. 0. 0. 0. 0. 0. 0. 0. 0. 8. 0. 0. 0. 0. 0. 0. 0. 0. 2. 6. 0. 0.
      0. 0. 0. 0. 0. 8. 0. 0. 0. 0. 0. 0. 0. 0. 0. 8. 0. 0. 0. 0. 0. 0.
      0. 0. 0. 8. 0. 0. 0. 0. 0. 0. 0. 0. 0. 8. 0. 0. 0. 0. 0. 0. 0. 0.
      0. 8. 0. 0. 0. 0. 0. 0. 0. 0. 0. 8. 0. 0. 0. 0. 0. 0. 0. 0. 0. 0.
      0. 7. 1. 0. 0. 0. 0. 0. 0. 0. 0. 8. 0. 0. 0. 0. 0. 0. 0. 0. 1. 7.
      0. 0. 0. 0. 0. 0. 0. 0. 1. 7. 0. 0. 0. 0. 0. 0. 0. 5. 3. 0. 0. 0.
      0. 0. 0. 0. 0. 8. 0. 0. 0. 0. 0. 0. 0. 0. 2. 6. 0. 0. 0. 0. 0. 0.
      0. 0. 8. 0. 0. 0. 0. 0. 0. 0. 0. 0. 0. 0. 0. 0. 7. 1. 0. 0. 0. 0.
      0. 0. 0. 5. 3. 0. 0. 0. 0. 0. 0. 0. 0. 8. 0. 0. 0. 0. 0. 0. 0. 0.
      0. 8. 0. 0. 0. 0. 0. 0. 0. 2. 6. 0. 0. 0. 0. 0. 0. 0. 0. 4. 4. 0.
      0. 0. 0. 0. 0. 0. 0. 5. 3. 0. 0. 0. 0. 0. 0. 0. 8. 0. 0. 0. 0. 0.
      0. 0. 7. 1. 0. 0. 0. 0. 0. 0. 0. 0. 0. 0. 1. 2. 1. 4. 0. 0. 0. 0.
      0. 0. 0. 0. 0. 6. 2. 0. 0. 0. 0. 0. 0. 0. 0. 0. 4. 2. 1. 1. 0. 0.
      0. 0. 0. 0. 0. 0. 0. 3. 0. 0. 0. 0. 0. 0. 1. 1. 0. 1. 0. 0. 0. 0.
      3. 4. 1. 0. 0. 0. 0. 0. 0. 0. 0. 2. 4. 2. 0. 0. 3. 4. 1. 0. 0. 0.
      0. 0. 0. 0. 0. 0. 1. 7. 0. 0. 0. 0. 0. 0. 0. 0. 0. 0. 3. 5. 0. 0.
      0. 0. 0. 0. 0. 0. 0. 1. 2. 2. 1. 1. 0. 0. 0. 0. 0. 0. 0. 0. 0. 0.
      0. 0. 0. 0. 0. 0. 0. 0. 0. 0. 0. 0. 0. 0. 0. 0. 0. 0. 0. 0. 0. 0.
      0. 0. 0. 0. 0. 0. 0. 0. 1. 6. 1. 0. 0. 0. 0. 0. 0. 0. 0. 0. 8. 0.
      0. 0. 0. 0. 0. 0. 0. 0. 1. 7. 0. 0. 0. 0. 0. 0. 0. 0. 0. 0. 2. 1.
      3. 1. 1. 0. 0. 0. 0. 0. 0. 0. 0. 0. 1. 2. 0. 0. 0. 0. 0. 0. 0. 0.
      0. 0. 0. 0. 0. 0. 0. 0. 0. 0. 0. 0. 0. 0. 0. 0. 0. 0. 0. 0. 0. 0.
      0. 7. 1. 0. 0. 0. 0. 0. 0. 0. 0. 8. 0. 0. 0. 0. 0. 0. 0. 0. 0. 1.
      3. 4. 0. 0. 0. 0. 0. 0. 0. 0. 0. 2. 3. 1. 1. 1. 0. 0. 0. 0. 0. 0.
      0. 0. 0. 1. 6. 1. 0. 0. 0. 0. 0. 0. 0. 0. 0. 2. 0. 0. 0. 0. 0. 0.
      0. 0. 0. 0. 0. 0. 0. 0. 0. 0. 0. 0. 0. 0. 0. 3. 5. 0. 0. 0. 0. 0.
      0. 0. 8. 0. 0. 0. 0. 0. 0. 0. 0. 0. 0. 1. 1. 1. 2. 3. 0. 0. 0. 0.
      0. 0. 0. 0. 0. 4. 1. 1. 1. 1. 0. 0. 0. 0. 0. 0. 0. 0. 0. 0. 0. 0.
      0. 0. 0. 0. 0. 0. 0. 0. 0. 0. 0. 0. 0. 0. 0. 0. 0. 7. 0. 0. 1. 0.
      0. 1. 0. 0. 2. 2. 0. 0. 1. 4. 3. 0. 0. 0. 0. 0. 0. 0. 0. 0. 6. 1.
      1. 0. 0. 0. 0. 0. 0. 0. 0. 0. 0. 1. 2. 2. 0. 0. 0. 0. 0. 0. 0. 0.
      0. 0. 0. 0. 0. 0. 0. 0. 0. 0. 0. 0. 0. 0. 0. 0. 0. 0. 0. 0. 0. 0.
      0. 0. 0. 0. 0. 0. 0. 0. 0. 0. 0. 0. 0. 0. 0. 0. 0. 0. 0. 0. 0. 0.
      0. 0. 0. 1. 2. 5. 0. 0. 0. 0. 0. 0. 0. 0. 0. 6. 2. 0. 0. 0. 0. 0.
      0. 0. 0. 0. 0. 1. 0. 0. 0. 0. 0. 0. 0. 0. 0. 0. 0. 0. 0. 0. 0. 0.
      0. 0. 0. 0. 0. 0. 0. 0. 0. 0. 0. 0. 0. 0. 0. 0. 0. 0. 0. 0. 0. 0.
      0. 0. 0. 0. 0. 0. 0. 0. 0. 0. 0. 0. 0. 0. 0. 0. 0. 1. 1. 1. 3. 2.
      0. 0. 0. 0. 0. 0. 0. 0. 0. 7. 0. 0. 0. 0. 0. 0. 0. 0. 0. 0. 0. 0.
      0. 0. 0. 0. 0. 0. 0. 0. 0. 0. 0. 0. 0. 0. 0. 0. 0. 0. 0. 0. 0. 0.
      0. 0. 0. 0. 0. 0. 0. 0. 0. 0. 0. 0. 0. 0. 0. 0. 0. 0. 0. 0. 0. 0.
      0. 0. 0. 0.</_>
    <_>
      0. 0. 0. 0. 0. 0. 0. 0. 0. 0. 0. 0. 0. 0. 0. 0. 0. 0. 0. 0. 0. 0.
      0. 0. 0. 0. 0. 0. 0. 0. 0. 0. 0. 0. 0. 0. 0. 0. 0. 0. 0. 0. 0. 0.
      0. 0. 0. 0. 0. 0. 0. 0. 0. 0. 0. 0. 0. 0. 0. 0. 0. 0. 0. 2. 5. 0.
      0. 0. 0. 0. 0. 0. 0. 0. 6. 0. 2. 0. 0. 0. 0. 0. 0. 0. 0. 0. 0. 0.
      0. 0. 0. 0. 0. 0. 0. 0. 0. 0. 0. 0. 0. 0. 0. 0. 0. 0. 0. 0. 0. 0.
      0. 0. 0. 0. 0. 0. 0. 0. 0. 0. 0. 0. 0. 0. 0. 0. 0. 0. 0. 0. 0. 0.
      0. 0. 0. 0. 0. 0. 0. 0. 0. 0. 0. 0. 0. 1. 0. 0. 0. 0. 0. 0. 0. 0.
      2. 6. 0. 0. 0. 0. 0. 0. 0. 0. 0. 0. 0. 0. 0. 0. 0. 0. 0. 0. 0. 0.
      0. 0. 0. 0. 0. 0. 0. 0. 0. 0. 0. 0. 0. 0. 0. 0. 0. 0. 0. 0. 0. 0.
      0. 0. 0. 0. 0. 0. 0. 0. 0. 0. 0. 0. 0. 0. 0. 0. 0. 0. 0. 0. 0. 0.
      0. 0. 0. 0. 0. 0. 0. 0. 0. 0. 0. 0. 0. 0. 2. 1. 0. 0. 0. 1. 0. 0.
      0. 0. 0. 0. 0. 0. 0. 1. 0. 0. 0. 0. 0. 0. 0. 0. 0. 0. 0. 0. 0. 0.
      0. 0. 0. 0. 0. 0. 0. 0. 0. 0. 0. 0. 0. 0. 0. 0. 0. 0. 0. 0. 0. 0.
      0. 0. 0. 0. 0. 0. 0. 0. 0. 0. 0. 0. 0. 0. 0. 0. 0. 0. 0. 0. 0. 0.
      0. 0. 0. 0. 0. 0. 0. 2. 0. 0. 0. 0. 0. 0. 0. 0. 0. 0. 0. 0. 5. 3.
      0. 0. 0. 0. 0. 0. 0. 0. 0. 8. 0. 0. 0. 0. 0. 0. 0. 0. 0. 8. 0. 0.
      0. 0. 0. 0. 0. 0. 0. 5. 0. 0. 0. 0. 0. 0. 0. 0. 0. 0. 0. 0. 0. 0.
      0. 0. 0. 0. 0. 0. 0. 0. 0. 0. 0. 0. 0. 0. 0. 0. 0. 0. 0. 0. 0. 0.
      0. 0. 0. 0. 0. 0. 0. 0. 0. 0. 0. 0. 0. 2. 0. 0. 0. 0. 0. 0. 0. 0.
      0. 8. 0. 0. 0. 0. 0. 0. 0. 2. 5. 1. 0. 0. 0. 0. 0. 0. 0. 0. 1. 1.
      0. 0. 0. 0. 0. 0. 0. 0. 0. 0. 0. 0. 0. 0. 0. 0. 0. 0. 0. 0. 0. 0.
      0. 0. 0. 0. 0. 0. 0. 0. 0. 0. 0. 0. 0. 0. 0. 0. 0. 0. 0. 0. 0. 0.
      0. 0. 0. 0. 0. 0. 0. 0. 0. 0. 0. 0. 0. 0. 0. 0. 0. 0. 0. 0. 0. 0.
      0. 0. 0. 0. 0. 0. 0. 0. 0. 0. 0. 0. 0. 0. 0. 0. 0. 0. 0. 0. 0. 0.
      0. 0. 0. 0. 0. 0. 0. 0. 0. 0. 0. 0. 0. 0. 0. 0. 0. 0. 0. 0. 0. 0.
      0. 0. 0. 0. 0. 0. 0. 0. 0. 0. 0. 0. 0. 0. 0. 0. 0. 0. 0. 0. 0. 0.
      0. 0. 0. 0. 0. 0. 0. 0. 0. 0. 0. 0. 0. 0. 0. 0. 0. 0. 0. 0. 0. 0.
      0. 0. 0. 0. 0. 0. 0. 0. 0. 0. 0. 0. 0. 0. 0. 0. 0. 0. 0. 0. 0. 0.
      0. 0. 0. 0. 0. 0. 0. 0. 0. 0. 0. 0. 0. 0. 0. 0. 0. 0. 0. 1. 1. 0.
      0. 0. 8. 0. 0. 0. 0. 0. 0. 0. 0. 0. 0. 2. 1. 1. 1. 2. 1. 0. 0. 0.
      0. 0. 0. 0. 0. 0. 0. 1. 1. 5. 0. 0. 0. 0. 0. 0. 0. 0. 2. 6. 0. 0.
      0. 0. 0. 0. 0. 0. 0. 2. 0. 0. 0. 1. 0. 1. 1. 1. 0. 1. 0. 1. 1. 0.
      1. 1. 1. 3. 0. 0. 0. 0. 0. 1. 4. 1. 1. 1. 0. 0. 3. 0. 1. 0. 1. 0.
      0. 1. 0. 0. 0. 0. 0. 0. 0. 0. 0. 0. 0. 0. 0. 0. 0. 0. 0. 0. 0. 0.
      0. 0. 0. 0. 0. 0. 0. 0. 0. 0. 0. 0. 0. 0. 0. 0. 0. 0. 0. 0. 0. 0.
      0. 0. 0. 0. 0. 0. 0. 0. 0. 0. 1. 2. 0. 1. 0. 1. 0. 1. 1. 1. 0. 0.
      1. 2. 2. 0. 2. 0. 1. 0. 0. 0. 1. 0. 1. 0. 0. 1. 0. 0. 0. 0. 0. 0.
      0. 0. 0. 0. 0. 0. 0. 0. 0. 0. 0. 0. 0. 0. 0. 0. 0. 0. 0. 0. 0. 0.
      0. 0. 0. 0. 0. 0. 0. 0. 0. 0. 0. 0. 0. 1. 0. 0. 0. 0. 0. 0. 0. 0.
      0. 1. 0. 0. 0. 0. 0. 0. 0. 0. 0. 0. 0. 1. 0. 0. 0. 1. 1. 0. 1. 1.
      0. 0. 0. 1. 0. 1. 0. 0. 0. 1. 0. 0. 0. 0. 0. 0. 0. 0. 0. 0. 0. 0.
      0. 0. 0. 0. 0. 0. 0. 1. 0. 0. 0. 0. 0. 0. 0. 0. 6. 2. 0. 0. 0. 0.
      0. 0. 0. 0. 1. 7. 0. 0. 0. 0. 0. 2. 6. 0. 0. 0. 0. 0. 0. 0. 0. 6.
      1. 1. 0. 0. 0. 0. 0. 3. 0. 1. 1. 1. 2. 0. 0. 0. 0. 0. 0. 1. 0. 1.
      0. 0. 0. 0. 0. 0. 0. 0. 0. 0. 0. 0. 0. 0. 0. 0. 0. 0. 0. 0. 1. 1.
      0. 0. 0. 0. 0. 5. 2. 1. 0. 0. 0. 0. 0. 0. 0. 0. 0. 1. 1. 1. 0. 0.
      0. 0. 0. 0. 0. 0. 0. 0. 0. 0. 0. 0. 0. 0. 0. 0. 0. 0. 0. 0. 0. 0.
      0. 0. 0. 0. 1. 0. 0. 0. 0. 0. 1. 1. 0. 0. 1. 0. 0. 0. 0. 0. 0. 0.
      0. 0. 0. 0. 0. 0. 0. 0. 0. 0. 0. 2. 1. 1. 0. 0. 0. 0. 0. 0. 5. 3.
      0. 0. 0. 0. 0. 0. 0. 0. 0. 2. 3. 1. 0. 0. 0. 0. 0. 0. 0. 0. 0. 1.
      0. 0. 0. 0. 0. 0. 0. 0. 0. 0. 0. 0. 0. 0. 0. 0. 0. 0. 0. 0. 0. 0.
      1. 0. 0. 1. 0. 0. 1. 0. 0. 0. 0. 0. 0. 0. 0. 0. 0. 0. 0. 0. 0. 0.
      0. 0. 0. 0. 3. 2. 0. 0. 0. 0. 0. 0. 0. 0. 0. 2. 0. 0. 0. 0. 0. 0.
      0. 0. 5. 2. 0. 0. 0. 0. 0. 0. 0. 0. 0. 4. 0. 0. 0. 0. 0. 0. 0. 0.
      0. 0. 0. 0. 0. 1. 0. 0. 0. 1. 0. 3. 0. 2. 3. 3. 0. 0. 0. 0. 0. 0.
      0. 0. 3. 3. 2. 0. 0. 0. 0. 0. 0. 0. 3. 1. 0. 1. 0. 1. 0. 0. 0. 0.
      0. 0. 0. 0. 0. 0. 0. 0. 0. 0. 0. 0. 0. 0. 0. 0. 3. 3. 0. 0. 0. 0.
      0. 0. 0. 0. 0. 2. 0. 0. 0. 0. 0. 0. 0. 0. 0. 0. 0. 0. 2. 0. 1. 1.
      1. 0. 1. 1.</_>
    <_>
      8. 0. 0. 0. 0. 0. 0. 0. 0. 0. 8. 0. 0. 0. 0. 0. 0. 0. 0. 0. 8. 0.
      0. 0. 0. 0. 0. 0. 0. 0. 8. 0. 0. 0. 0. 0. 0. 0. 0. 0. 8. 0. 0. 0.
      0. 0. 0. 0. 0. 0. 8. 0. 0. 0. 0. 0. 0. 0. 0. 0. 6. 2. 0. 0. 0. 0.
      0. 0. 0. 0. 2. 2. 1. 1. 2. 0. 0. 0. 0. 0. 8. 0. 0. 0. 0. 0. 0. 0.
      0. 0. 4. 0. 0. 0. 0. 0. 0. 0. 0. 0. 0. 0. 0. 0. 0. 0. 0. 0. 0. 0.
      0. 0. 0. 0. 0. 0. 0. 0. 0. 0. 6. 0. 0. 0. 0. 0. 0. 0. 0. 0. 8. 0.
      0. 0. 0. 0. 0. 0. 0. 0. 8. 0. 0. 0. 0. 0. 0. 0. 0. 0. 0. 2. 2. 2.
      2. 0. 0. 0. 0. 0. 8. 0. 0. 0. 0. 0. 0. 0. 0. 0. 6. 2. 0. 0. 0. 0.
      0. 0. 0. 0. 5. 0. 0. 0. 0. 0. 0. 0. 0. 0. 1. 0. 0. 0. 0. 0. 0. 0.
      0. 0. 5. 3. 0. 0. 0. 0. 0. 0. 0. 0. 7. 1. 0. 0. 0. 0. 0. 0. 0. 0.
      8. 0. 0. 0. 0. 0. 0. 0. 0. 0. 0. 1. 1. 1. 4. 1. 0. 0. 0. 0. 8. 0.
      0. 0. 0. 0. 0. 0. 0. 0. 2. 2. 1. 0. 3. 0. 0. 0. 0. 0. 0. 6. 1. 0.
      1. 0. 0. 0. 0. 0. 7. 0. 0. 0. 0. 0. 0. 0. 0. 0. 2. 3. 0. 0. 0. 0.
      0. 0. 0. 0. 6. 2. 0. 0. 0. 0. 0. 0. 0. 0. 8. 0. 0. 0. 0. 0. 0. 0.
      0. 0. 1. 1. 2. 4. 0. 0. 0. 0. 0. 0. 8. 0. 0. 0. 0. 0. 0. 0. 0. 0.
      4. 4. 0. 0. 0. 0. 0. 0. 0. 0. 6. 0. 0. 0. 0. 0. 0. 0. 0. 0. 4. 0.
      0. 0. 0. 0. 0. 0. 0. 0. 0. 0. 0. 0. 0. 0. 0. 0. 0. 0. 0. 0. 0. 0.
      0. 0. 0. 0. 0. 0. 0. 0. 0. 0. 0. 0. 0. 0. 0. 0. 0. 0. 0. 0. 0. 0.
      0. 0. 0. 0. 0. 0. 0. 0. 0. 0. 0. 0. 0. 0. 0. 0. 0. 0. 0. 0. 0. 0.
      0. 0. 0. 0. 0. 0. 0. 0. 0. 0. 0. 0. 0. 0. 0. 0. 0. 0. 0. 0. 0. 0.
      0. 0. 0. 0. 0. 0. 0. 0. 0. 0. 0. 0. 0. 0. 0. 0. 0. 0. 0. 0. 0. 0.
      0. 0. 0. 0. 0. 0. 0. 0. 0. 0. 0. 0. 0. 0. 0. 0. 0. 0. 0. 0. 0. 0.
      0. 0. 0. 0. 0. 0. 0. 0. 0. 0. 0. 0. 0. 0. 0. 0. 0. 0. 0. 0. 0. 0.
      0. 0. 0. 0. 0. 0. 0. 0. 0. 0. 0. 0. 0. 0. 0. 0. 0. 0. 0. 0. 0. 0.
      0. 0. 0. 0. 0. 0. 0. 0. 0. 0. 0. 0. 0. 0. 0. 0. 0. 0. 0. 0. 0. 0.
      0. 0. 0. 0. 0. 0. 0. 0. 0. 0. 0. 0. 0. 0. 0. 0. 0. 0. 0. 0. 0. 0.
      0. 0. 0. 0. 0. 0. 0. 0. 0. 0. 0. 0. 0. 0. 0. 0. 0. 0. 0. 0. 0. 0.
      0. 0. 0. 0. 0. 0. 0. 0. 0. 0. 0. 0. 0. 0. 0. 0. 0. 0. 0. 0. 0. 0.
      0. 0. 0. 0. 0. 0. 0. 0. 0. 0. 0. 0. 0. 0. 0. 0. 0. 0. 0. 0. 0. 0.
      0. 0. 4. 3. 1. 0. 0. 0. 0. 0. 0. 0. 0. 0. 5. 3. 0. 0. 0. 0. 0. 0.
      0. 0. 0. 8. 0. 0. 0. 0. 0. 0. 0. 0. 0. 1. 3. 4. 0. 0. 0. 0. 0. 0.
      0. 0. 0. 6. 2. 0. 0. 0. 0. 0. 0. 0. 0. 0. 8. 0. 0. 0. 0. 0. 0. 0.
      0. 5. 1. 0. 0. 1. 0. 0. 0. 5. 2. 0. 1. 0. 0. 0. 0. 0. 0. 1. 7. 0.
      0. 0. 0. 0. 0. 0. 0. 0. 3. 5. 0. 0. 0. 0. 0. 0. 0. 0. 5. 3. 0. 0.
      0. 0. 0. 0. 0. 0. 5. 3. 0. 0. 0. 0. 0. 0. 0. 0. 2. 6. 0. 0. 0. 0.
      0. 0. 0. 0. 2. 6. 0. 0. 0. 0. 0. 0. 0. 0. 0. 6. 1. 1. 0. 0. 0. 0.
      0. 0. 0. 0. 0. 1. 1. 3. 0. 0. 0. 0. 5. 2. 1. 0. 0. 0. 0. 0. 0. 4.
      0. 2. 2. 0. 0. 0. 0. 0. 2. 3. 3. 0. 0. 0. 0. 0. 0. 0. 3. 4. 1. 0.
      0. 0. 0. 0. 0. 0. 7. 1. 0. 0. 0. 0. 0. 0. 0. 0. 0. 5. 3. 0. 0. 0.
      0. 0. 0. 0. 0. 0. 5. 3. 0. 0. 0. 0. 0. 0. 0. 0. 0. 2. 0. 1. 0. 0.
      0. 0. 0. 1. 4. 1. 1. 1. 0. 0. 0. 2. 1. 1. 0. 1. 2. 0. 1. 0. 0. 2.
      6. 0. 0. 0. 0. 0. 0. 0. 0. 0. 7. 1. 0. 0. 0. 0. 0. 0. 4. 3. 1. 0.
      0. 0. 0. 0. 0. 0. 0. 0. 4. 4. 0. 0. 0. 0. 0. 0. 0. 0. 0. 0. 1. 7.
      0. 0. 0. 0. 0. 0. 0. 0. 0. 2. 1. 1. 2. 2. 1. 2. 3. 2. 0. 0. 0. 0.
      0. 0. 0. 0. 0. 8. 0. 0. 0. 0. 0. 0. 0. 0. 0. 2. 6. 0. 0. 0. 0. 0.
      0. 0. 3. 1. 4. 0. 0. 0. 0. 0. 0. 5. 2. 1. 0. 0. 0. 0. 0. 0. 0. 0.
      0. 2. 3. 3. 0. 0. 0. 0. 0. 0. 0. 0. 0. 1. 5. 2. 0. 0. 0. 0. 0. 0.
      0. 0. 0. 0. 1. 1. 2. 4. 2. 0. 0. 0. 0. 0. 0. 0. 0. 0. 2. 2. 1. 1.
      1. 1. 0. 0. 0. 0. 0. 0. 0. 6. 1. 1. 0. 0. 0. 0. 0. 0. 1. 7. 0. 0.
      0. 0. 0. 0. 0. 0. 8. 0. 0. 0. 0. 0. 0. 0. 0. 0. 1. 6. 1. 0. 0. 0.
      0. 0. 0. 0. 0. 0. 0. 1. 1. 2. 0. 0. 0. 0. 0. 0. 0. 0. 0. 0. 2. 2.
      4. 0. 0. 0. 0. 0. 0. 0. 0. 0. 0. 2. 3. 1. 2. 0. 0. 0. 0. 0. 0. 0.
      0. 5. 3. 0. 0. 0. 0. 0. 0. 0. 3. 5. 0. 0. 0. 0. 0. 0. 0. 0. 4. 4.
      0. 0. 0. 0. 0. 0. 0. 0. 0. 5. 1. 1. 1. 0. 0. 0. 0. 0. 0. 0. 0. 0.
      0. 2. 0. 0. 0. 0. 0. 0. 0. 0. 0. 8. 2. 4. 2. 0. 0. 0. 0. 0. 0. 0.
      0. 0. 0. 2. 1. 2. 3. 0. 0. 0. 0. 0. 0. 0. 0. 0. 8. 0. 0. 0. 0. 0.
      0. 0. 0. 3. 5. 0. 0. 0. 0. 0. 0. 0. 3. 5. 0. 0. 0. 0. 0. 0. 0. 0.
      0. 3. 2. 2. 1. 0. 0. 0. 0. 0. 0. 0. 0. 0. 1. 7. 0. 0. 0. 0. 0. 0.
      0. 1. 4. 3.</_>
    <_>
      0. 8. 0. 0. 0. 0. 0. 0. 0. 0. 0. 5. 3. 0. 0. 0. 0. 0. 0. 0. 0. 0.
      8. 0. 0. 0. 0. 0. 0. 0. 0. 0. 8. 0. 0. 0. 0. 0. 0. 0. 0. 0. 1. 6.
      1. 0. 0. 0. 0. 0. 0. 0. 0. 0. 3. 3. 2. 0. 0. 0. 0. 0. 0. 0. 0. 1.
      7. 0. 0. 0. 0. 0. 0. 0. 0. 0. 8. 0. 0. 0. 8. 0. 0. 0. 0. 0. 0. 0.
      0. 0. 0. 8. 0. 0. 0. 0. 0. 0. 0. 0. 0. 7. 1. 0. 0. 0. 0. 0. 0. 0.
      0. 0. 6. 2. 0. 0. 0. 0. 0. 0. 0. 0. 0. 6. 2. 0. 0. 0. 0. 0. 0. 0.
      0. 0. 1. 2. 5. 0. 0. 0. 0. 0. 0. 0. 0. 0. 5. 3. 0. 0. 0. 0. 0. 0.
      0. 0. 6. 2. 0. 0. 8. 0. 0. 0. 0. 0. 0. 0. 0. 0. 8. 0. 0. 0. 0. 0.
      0. 0. 0. 0. 1. 7. 0. 0. 0. 0. 0. 0. 0. 0. 0. 0. 4. 4. 0. 0. 0. 0.
      0. 0. 0. 0. 0. 7. 1. 0. 0. 0. 0. 0. 0. 0. 0. 0. 2. 1. 3. 2. 0. 0.
      0. 0. 0. 0. 0. 0. 0. 8. 0. 0. 0. 0. 0. 0. 0. 0. 0. 1. 2. 1. 8. 0.
      0. 0. 0. 0. 0. 0. 0. 0. 8. 0. 0. 0. 0. 0. 0. 0. 0. 0. 8. 0. 0. 0.
      0. 0. 0. 0. 0. 0. 4. 4. 0. 0. 0. 0. 0. 0. 0. 0. 0. 3. 2. 2. 0. 1.
      0. 0. 0. 0. 0. 0. 0. 0. 0. 0. 0. 8. 0. 0. 0. 0. 0. 0. 0. 0. 0. 3.
      4. 1. 0. 0. 0. 0. 0. 0. 0. 0. 0. 1. 0. 0. 0. 0. 0. 0. 0. 0. 0. 0.
      0. 0. 0. 0. 0. 0. 0. 0. 0. 0. 0. 0. 0. 0. 0. 0. 0. 0. 0. 0. 0. 0.
      0. 0. 0. 0. 0. 0. 0. 0. 0. 0. 0. 0. 0. 0. 0. 0. 0. 0. 0. 0. 0. 0.
      0. 0. 0. 0. 0. 3. 0. 0. 0. 0. 0. 0. 0. 0. 2. 4. 0. 0. 0. 0. 0. 0.
      0. 0. 0. 3. 0. 0. 0. 0. 0. 0. 0. 0. 0. 0. 0. 0. 0. 0. 0. 0. 0. 0.
      0. 0. 0. 0. 0. 0. 0. 0. 0. 0. 0. 0. 0. 0. 0. 0. 0. 0. 0. 0. 0. 0.
      0. 0. 0. 0. 0. 0. 0. 0. 0. 0. 0. 0. 0. 0. 0. 0. 0. 0. 0. 0. 0. 0.
      0. 0. 0. 0. 0. 0. 0. 0. 0. 0. 0. 0. 0. 0. 0. 0. 0. 0. 0. 0. 0. 0.
      0. 0. 0. 0. 0. 0. 0. 0. 0. 0. 0. 0. 0. 0. 0. 0. 0. 0. 0. 0. 0. 0.
      0. 0. 0. 0. 0. 0. 0. 0. 0. 0. 0. 0. 0. 0. 0. 0. 0. 0. 0. 0. 0. 0.
      0. 0. 0. 0. 0. 0. 0. 0. 0. 0. 0. 0. 0. 0. 0. 0. 0. 0. 0. 0. 0. 0.
      0. 0. 0. 0. 0. 0. 0. 0. 0. 0. 0. 0. 0. 0. 0. 0. 0. 0. 0. 0. 0. 0.
      0. 0. 0. 0. 0. 0. 0. 0. 0. 0. 0. 0. 0. 0. 0. 0. 0. 0. 0. 0. 0. 0.
      0. 0. 0. 0. 0. 0. 0. 0. 0. 0. 0. 0. 0. 0. 0. 0. 0. 0. 0. 0. 0. 0.
      0. 0. 0. 0. 0. 0. 0. 0. 0. 0. 0. 0. 0. 0. 0. 0. 0. 0. 0. 0. 0. 0.
      0. 0. 6. 1. 1. 0. 0. 0. 0. 0. 0. 0. 0. 0. 0. 0. 0. 1. 0. 0. 1. 0.
      0. 0. 0. 0. 0. 0. 0. 0. 0. 0. 0. 0. 0. 0. 0. 0. 0. 0. 0. 0. 0. 0.
      0. 0. 0. 0. 0. 0. 0. 7. 0. 0. 0. 0. 0. 0. 0. 0. 8. 0. 0. 0. 0. 0.
      0. 0. 1. 3. 4. 0. 1. 3. 1. 1. 1. 1. 0. 0. 0. 0. 0. 0. 0. 0. 1. 0.
      0. 0. 1. 0. 0. 0. 0. 0. 0. 0. 0. 0. 0. 0. 0. 0. 0. 0. 0. 0. 0. 0.
      0. 0. 0. 0. 0. 0. 0. 0. 0. 0. 0. 4. 0. 0. 0. 0. 0. 0. 0. 0. 8. 0.
      0. 0. 0. 0. 0. 0. 0. 0. 2. 1. 0. 0. 0. 0. 0. 0. 0. 0. 0. 0. 0. 0.
      0. 1. 0. 0. 1. 0. 0. 0. 0. 0. 0. 0. 0. 0. 0. 0. 0. 0. 0. 0. 0. 0.
      0. 0. 0. 0. 0. 0. 0. 0. 0. 0. 0. 0. 0. 0. 0. 2. 0. 0. 0. 0. 0. 0.
      0. 6. 2. 0. 0. 0. 0. 0. 0. 0. 5. 3. 0. 0. 0. 0. 0. 0. 0. 0. 3. 0.
      2. 2. 0. 0. 0. 0. 0. 0. 0. 0. 0. 0. 0. 0. 0. 0. 0. 0. 0. 0. 0. 0.
      0. 0. 0. 0. 0. 0. 0. 0. 0. 0. 0. 0. 0. 0. 0. 0. 0. 0. 0. 0. 0. 0.
      0. 0. 0. 0. 0. 2. 2. 2. 0. 0. 0. 2. 2. 1. 2. 1. 0. 0. 0. 2. 4. 2.
      0. 0. 0. 0. 0. 0. 0. 0. 1. 2. 0. 1. 1. 3. 0. 0. 0. 0. 0. 0. 0. 0.
      0. 0. 3. 0. 0. 0. 0. 0. 0. 0. 0. 0. 0. 0. 0. 0. 0. 0. 1. 0. 1. 0.
      1. 1. 0. 0. 0. 0. 0. 0. 0. 0. 0. 1. 0. 0. 0. 0. 0. 0. 0. 5. 2. 1.
      0. 0. 0. 1. 2. 1. 0. 4. 0. 0. 0. 0. 0. 0. 6. 2. 0. 0. 0. 0. 0. 0.
      0. 0. 0. 0. 5. 3. 0. 0. 0. 0. 0. 0. 0. 0. 0. 1. 1. 0. 0. 0. 0. 0.
      0. 0. 0. 0. 0. 0. 0. 0. 1. 1. 1. 2. 1. 0. 1. 1. 0. 0. 0. 0. 0. 0.
      0. 0. 0. 0. 0. 0. 0. 0. 0. 0. 0. 0. 0. 0. 0. 0. 0. 0. 0. 0. 0. 0.
      0. 0. 0. 0. 0. 0. 0. 0. 0. 0. 0. 3. 0. 0. 0. 0. 0. 0. 0. 0. 0. 0.
      0. 0. 0. 0. 0. 0. 0. 0. 0. 0. 0. 0. 0. 0. 0. 0. 0. 0. 0. 0. 0. 0.
      0. 1. 1. 0. 1. 2. 1. 0. 0. 0. 0. 0. 0. 0. 0. 0. 0. 0. 0. 0. 0. 0.
      0. 0. 0. 0. 0. 0. 0. 0. 0. 0. 0. 0. 0. 0. 0. 0. 0. 0. 0. 0. 0. 0.
      0. 0. 0. 0. 0. 0. 0. 0. 0. 0. 0. 0. 0. 0. 0. 0. 0. 0. 0. 0. 0. 0.
      0. 0. 0. 0. 0. 0. 0. 0. 0. 0. 0. 0. 0. 2. 2. 1. 1. 0. 1. 1. 0. 0.
      0. 0. 0. 0. 0. 0. 0. 0. 0. 1. 0. 0. 0. 0. 0. 0. 0. 0. 0. 0. 0. 0.
      0. 0. 0. 0. 0. 0. 0. 0. 0. 0. 0. 0. 0. 0. 0. 0. 0. 0. 0. 0. 0. 0.
      0. 0. 0. 0. 0. 0. 0. 0. 0. 0. 0. 0. 0. 0. 0. 0. 0. 0. 0. 0. 0. 0.
      0. 0. 0. 0.</_>
    <_>
      0. 0. 0. 0. 1. 1. 6. 0. 0. 0. 0. 0. 0. 0. 0. 0. 8. 0. 0. 0. 0. 0.
      0. 0. 0. 0. 0. 8. 0. 0. 0. 0. 0. 0. 0. 0. 0. 8. 0. 0. 0. 0. 0. 0.
      0. 0. 0. 1. 7. 0. 0. 0. 0. 0. 0. 0. 0. 0. 4. 4. 0. 0. 0. 0. 0. 0.
      1. 1. 0. 6. 0. 0. 0. 0. 2. 5. 1. 0. 0. 0. 0. 0. 0. 0. 1. 5. 2. 0.
      0. 0. 0. 0. 0. 0. 0. 0. 8. 0. 0. 0. 0. 0. 0. 0. 0. 0. 8. 0. 0. 0.
      0. 0. 0. 0. 0. 0. 4. 3. 1. 0. 0. 0. 0. 0. 0. 0. 0. 0. 4. 4. 0. 0.
      0. 0. 0. 0. 0. 0. 0. 1. 0. 0. 0. 0. 0. 0. 0. 0. 0. 0. 0. 0. 0. 0.
      3. 1. 0. 0. 1. 1. 0. 0. 0. 0. 5. 3. 0. 0. 0. 0. 0. 0. 0. 0. 0. 8.
      0. 0. 0. 0. 0. 0. 0. 0. 0. 1. 7. 0. 0. 0. 0. 0. 0. 0. 0. 0. 3. 5.
      0. 0. 0. 0. 0. 0. 0. 0. 0. 0. 3. 3. 0. 0. 0. 0. 0. 0. 0. 0. 0. 0.
      0. 0. 0. 0. 0. 0. 0. 0. 0. 0. 0. 0. 0. 0. 0. 1. 1. 0. 0. 0. 1. 1.
      6. 0. 0. 0. 0. 0. 0. 0. 0. 0. 2. 5. 1. 0. 0. 0. 0. 0. 0. 0. 0. 0.
      1. 2. 5. 0. 0. 0. 0. 0. 0. 0. 0. 0. 1. 6. 1. 0. 0. 0. 0. 0. 0. 0.
      0. 0. 1. 1. 0. 0. 0. 0. 0. 0. 0. 0. 0. 0. 0. 0. 0. 0. 0. 0. 0. 0.
      0. 0. 0. 0. 0. 0. 0. 0. 0. 0. 0. 0. 7. 0. 0. 0. 0. 0. 0. 0. 0. 0.
      3. 5. 0. 0. 0. 0. 0. 0. 0. 0. 0. 1. 1. 1. 0. 1. 1. 2. 1. 0. 0. 0.
      0. 0. 0. 0. 0. 0. 1. 2. 0. 0. 0. 0. 0. 0. 0. 0. 0. 0. 0. 0. 0. 0.
      0. 0. 0. 0. 0. 0. 0. 0. 0. 0. 0. 0. 0. 0. 0. 0. 0. 0. 0. 0. 0. 0.
      0. 0. 0. 0. 8. 0. 0. 0. 0. 0. 0. 0. 0. 0. 8. 0. 0. 0. 0. 0. 0. 0.
      0. 0. 1. 0. 0. 0. 0. 0. 0. 0. 0. 0. 0. 0. 0. 0. 0. 0. 0. 0. 0. 0.
      0. 0. 0. 0. 0. 0. 0. 0. 0. 0. 0. 0. 0. 0. 0. 0. 0. 0. 0. 0. 0. 0.
      0. 0. 0. 0. 0. 0. 0. 0. 0. 0. 0. 0. 0. 0. 0. 0. 0. 0. 0. 0. 0. 0.
      0. 0. 0. 0. 0. 0. 0. 0. 0. 0. 0. 0. 0. 0. 0. 0. 0. 0. 0. 0. 0. 0.
      0. 0. 0. 0. 0. 0. 0. 0. 0. 0. 0. 0. 0. 0. 0. 0. 0. 0. 0. 0. 0. 0.
      0. 0. 0. 0. 0. 0. 0. 0. 0. 0. 0. 0. 0. 0. 0. 0. 0. 0. 0. 0. 0. 0.
      0. 0. 0. 0. 0. 0. 0. 0. 0. 0. 0. 0. 0. 0. 0. 0. 0. 0. 0. 0. 0. 0.
      0. 0. 0. 0. 0. 0. 0. 0. 0. 0. 0. 0. 0. 0. 0. 0. 0. 0. 0. 0. 0. 0.
      0. 0. 0. 0. 0. 0. 0. 0. 0. 0. 0. 0. 0. 0. 0. 0. 0. 0. 0. 0. 0. 0.
      0. 0. 0. 0. 0. 0. 0. 0. 0. 0. 0. 0. 0. 0. 0. 0. 0. 0. 0. 0. 0. 0.
      0. 0. 5. 1. 1. 1. 0. 0. 0. 0. 0. 0. 0. 0. 0. 0. 0. 0. 1. 0. 1. 0.
      0. 0. 0. 0. 0. 0. 0. 0. 0. 0. 0. 0. 0. 0. 0. 0. 0. 0. 0. 0. 0. 0.
      0. 0. 0. 0. 0. 0. 1. 3. 0. 0. 0. 1. 1. 1. 2. 1. 2. 0. 0. 1. 2. 0.
      0. 1. 1. 0. 1. 0. 0. 0. 0. 0. 0. 0. 0. 0. 0. 0. 1. 1. 0. 0. 1. 0.
      0. 0. 1. 0. 0. 0. 0. 0. 0. 0. 0. 0. 0. 0. 0. 0. 0. 0. 0. 0. 0. 0.
      0. 0. 0. 0. 0. 0. 0. 0. 0. 0. 0. 0. 0. 0. 0. 0. 0. 0. 0. 0. 0. 0.
      0. 0. 0. 0. 0. 0. 0. 0. 6. 2. 0. 0. 0. 0. 0. 0. 0. 0. 0. 3. 0. 0.
      0. 0. 0. 0. 0. 0. 1. 1. 0. 0. 0. 0. 1. 0. 0. 0. 1. 0. 0. 0. 0. 0.
      0. 0. 0. 0. 0. 0. 0. 0. 0. 0. 0. 0. 0. 0. 0. 0. 0. 0. 0. 0. 0. 0.
      0. 0. 0. 0. 0. 0. 0. 0. 0. 0. 0. 0. 0. 0. 0. 0. 0. 0. 0. 0. 0. 0.
      0. 0. 0. 0. 0. 0. 0. 0. 0. 0. 0. 0. 0. 0. 3. 0. 0. 0. 1. 0. 1. 2.
      0. 0. 0. 0. 0. 1. 1. 1. 1. 4. 0. 0. 0. 0. 0. 0. 0. 3. 3. 2. 0. 0.
      0. 0. 0. 0. 0. 2. 1. 2. 0. 0. 0. 0. 0. 0. 0. 0. 2. 1. 0. 0. 0. 0.
      0. 0. 0. 0. 2. 1. 0. 0. 0. 0. 0. 0. 0. 0. 0. 0. 0. 0. 0. 0. 0. 0.
      0. 0. 0. 0. 0. 0. 1. 1. 0. 0. 0. 1. 0. 0. 0. 0. 0. 0. 0. 0. 0. 0.
      0. 0. 0. 0. 0. 0. 0. 0. 1. 1. 2. 1. 0. 0. 0. 5. 2. 1. 0. 0. 0. 0.
      0. 0. 0. 1. 3. 1. 2. 1. 0. 0. 0. 0. 0. 0. 0. 0. 0. 2. 2. 4. 0. 0.
      0. 0. 0. 0. 0. 0. 0. 2. 0. 0. 0. 0. 0. 0. 0. 0. 0. 0. 0. 0. 0. 0.
      0. 0. 0. 0. 0. 0. 0. 0. 0. 0. 0. 0. 0. 0. 0. 0. 0. 0. 0. 0. 0. 0.
      0. 0. 0. 0. 0. 0. 1. 4. 1. 1. 0. 0. 1. 0. 0. 0. 0. 1. 3. 2. 2. 0.
      0. 0. 0. 0. 0. 0. 0. 0. 2. 5. 1. 0. 0. 0. 0. 0. 0. 0. 0. 0. 5. 3.
      0. 0. 0. 0. 0. 0. 0. 0. 1. 3. 0. 0. 0. 0. 0. 0. 2. 2. 3. 0. 0. 0.
      0. 0. 0. 0. 0. 0. 0. 0. 0. 0. 0. 0. 0. 0. 0. 0. 0. 0. 0. 0. 0. 0.
      0. 0. 0. 0. 0. 0. 0. 0. 0. 0. 0. 0. 0. 0. 0. 0. 0. 0. 0. 0. 0. 0.
      0. 0. 0. 0. 0. 0. 0. 0. 0. 0. 0. 0. 0. 0. 0. 0. 0. 0. 0. 0. 0. 0.
      0. 0. 0. 0. 0. 0. 0. 0. 0. 1. 0. 0. 0. 0. 0. 0. 0. 0. 0. 0. 0. 0.
      0. 0. 0. 0. 0. 0. 0. 0. 0. 0. 0. 0. 0. 0. 0. 0. 0. 0. 0. 0. 0. 0.
      0. 0. 0. 0. 0. 0. 0. 0. 0. 0. 0. 0. 0. 0. 0. 0. 0. 0. 0. 0. 0. 0.
      0. 0. 0. 0. 0. 0. 0. 0. 0. 0. 0. 0. 0. 0. 0. 0. 1. 1. 0. 0. 0. 1.
      0. 0. 0. 0.</_>
    <_>
      0. 0. 0. 0. 0. 0. 0. 0. 0. 8. 0. 0. 0. 0. 0. 0. 0. 0. 0. 4. 0. 0.
      0. 0. 0. 0. 0. 0. 0. 0. 0. 0. 0. 0. 0. 0. 0. 0. 0. 0. 0. 0. 0. 0.
      0. 0. 0. 0. 0. 0. 0. 0. 0. 0. 0. 0. 0. 0. 0. 0. 0. 0. 0. 0. 0. 0.
      0. 0. 0. 0. 3. 0. 0. 0. 0. 0. 0. 0. 0. 0. 0. 0. 0. 0. 0. 0. 0. 0.
      0. 8. 0. 0. 0. 0. 0. 0. 0. 0. 0. 5. 0. 0. 0. 0. 0. 0. 0. 0. 0. 0.
      0. 0. 0. 0. 0. 0. 0. 0. 0. 0. 0. 0. 0. 0. 0. 0. 0. 0. 0. 0. 1. 0.
      0. 0. 0. 0. 0. 0. 0. 0. 5. 0. 0. 0. 0. 0. 0. 0. 0. 0. 0. 0. 0. 0.
      0. 0. 0. 0. 0. 0. 0. 0. 0. 0. 0. 0. 0. 0. 8. 0. 0. 0. 0. 0. 0. 0.
      0. 0. 1. 7. 0. 0. 0. 0. 0. 0. 0. 0. 0. 8. 0. 0. 0. 0. 0. 0. 0. 0.
      0. 2. 0. 0. 0. 0. 0. 0. 0. 0. 0. 0. 2. 0. 0. 0. 0. 0. 0. 0. 0. 0.
      4. 3. 0. 0. 0. 0. 0. 0. 0. 0. 0. 0. 0. 0. 0. 0. 0. 0. 0. 0. 0. 0.
      0. 0. 0. 0. 0. 0. 8. 0. 0. 0. 0. 0. 0. 0. 0. 0. 8. 0. 0. 0. 0. 0.
      0. 0. 0. 4. 4. 0. 0. 0. 0. 0. 0. 0. 0. 8. 0. 0. 0. 1. 2. 1. 0. 1.
      1. 2. 0. 0. 0. 8. 0. 0. 0. 0. 0. 0. 0. 0. 5. 3. 0. 0. 0. 0. 0. 0.
      0. 0. 8. 0. 0. 0. 0. 0. 0. 0. 0. 0. 0. 0. 0. 0. 0. 0. 0. 0. 7. 1.
      0. 0. 0. 0. 0. 0. 0. 0. 8. 0. 0. 0. 0. 0. 0. 0. 6. 2. 0. 0. 0. 0.
      0. 0. 0. 3. 5. 0. 0. 0. 0. 0. 2. 3. 2. 1. 0. 0. 0. 0. 0. 0. 8. 0.
      0. 0. 0. 0. 0. 0. 0. 3. 5. 0. 0. 0. 0. 0. 0. 0. 8. 0. 0. 0. 0. 0.
      0. 0. 0. 0. 0. 0. 0. 0. 0. 0. 0. 0. 0. 8. 0. 0. 0. 0. 0. 0. 0. 4.
      2. 2. 0. 0. 0. 0. 0. 6. 2. 0. 0. 0. 0. 0. 0. 0. 0. 8. 0. 0. 0. 0.
      0. 0. 0. 4. 1. 3. 0. 0. 0. 0. 0. 0. 6. 2. 0. 0. 0. 0. 0. 0. 0. 1.
      7. 0. 0. 0. 0. 0. 0. 0. 1. 7. 0. 0. 0. 0. 0. 0. 0. 0. 0. 0. 0. 0.
      0. 0. 0. 1. 3. 1. 0. 0. 0. 0. 0. 1. 4. 3. 0. 0. 0. 0. 0. 0. 0. 8.
      0. 0. 0. 0. 0. 0. 0. 0. 2. 6. 0. 0. 0. 0. 0. 0. 0. 5. 3. 0. 0. 0.
      0. 0. 0. 0. 0. 8. 0. 0. 0. 0. 0. 0. 0. 0. 5. 3. 0. 0. 0. 0. 0. 0.
      3. 2. 3. 0. 0. 0. 0. 0. 0. 0. 0. 0. 0. 0. 0. 0. 6. 2. 0. 0. 0. 0.
      0. 0. 0. 3. 5. 0. 0. 0. 0. 0. 0. 0. 0. 8. 0. 0. 0. 0. 0. 0. 0. 0.
      4. 4. 0. 0. 0. 0. 0. 0. 0. 7. 1. 0. 0. 0. 0. 0. 0. 0. 0. 8. 0. 0.
      0. 0. 0. 0. 0. 0. 7. 1. 0. 0. 0. 0. 0. 0. 0. 3. 5. 0. 0. 0. 0. 0.
      0. 0. 4. 3. 1. 0. 0. 0. 0. 0. 0. 0. 0. 0. 0. 0. 1. 0. 0. 0. 1. 0.
      0. 0. 0. 0. 0. 0. 0. 0. 0. 0. 0. 0. 0. 0. 0. 0. 0. 0. 1. 3. 0. 0.
      0. 0. 0. 0. 0. 0. 2. 2. 0. 0. 0. 0. 0. 0. 0. 0. 0. 0. 0. 0. 0. 0.
      0. 0. 0. 0. 0. 0. 0. 0. 0. 0. 0. 0. 0. 0. 0. 0. 0. 1. 0. 1. 0. 0.
      0. 1. 0. 0. 0. 0. 0. 0. 0. 0. 0. 0. 0. 0. 0. 0. 0. 0. 0. 0. 0. 0.
      0. 0. 0. 0. 0. 0. 0. 0. 1. 2. 1. 1. 0. 0. 0. 0. 2. 2. 2. 2. 0. 0.
      0. 0. 0. 0. 0. 0. 0. 5. 1. 1. 0. 0. 0. 0. 0. 0. 0. 0. 0. 0. 0. 0.
      0. 0. 0. 0. 0. 0. 0. 0. 0. 0. 0. 0. 0. 0. 0. 0. 0. 1. 0. 0. 0. 0.
      0. 0. 0. 0. 0. 0. 0. 0. 0. 0. 0. 0. 0. 0. 0. 1. 0. 0. 0. 2. 3. 0.
      1. 1. 1. 0. 0. 0. 3. 4. 1. 0. 0. 0. 0. 0. 0. 0. 0. 0. 2. 2. 2. 0.
      1. 0. 0. 0. 0. 0. 0. 0. 0. 0. 0. 0. 0. 0. 0. 0. 0. 0. 0. 0. 0. 0.
      0. 0. 0. 0. 0. 0. 0. 0. 0. 0. 0. 0. 0. 0. 0. 0. 0. 0. 0. 0. 0. 0.
      0. 0. 0. 0. 0. 0. 2. 1. 0. 0. 2. 1. 1. 1. 1. 2. 0. 0. 0. 6. 2. 0.
      0. 0. 0. 0. 0. 0. 0. 0. 1. 2. 1. 0. 1. 0. 0. 1. 0. 0. 0. 0. 0. 0.
      0. 0. 0. 0. 0. 0. 0. 0. 0. 0. 0. 0. 0. 0. 0. 0. 0. 0. 0. 0. 0. 0.
      0. 0. 0. 0. 0. 0. 0. 0. 0. 0. 0. 0. 0. 0. 0. 0. 0. 0. 0. 0. 0. 2.
      0. 0. 0. 0. 0. 0. 0. 0. 0. 1. 0. 0. 0. 0. 0. 0. 0. 0. 3. 3. 0. 0.
      0. 0. 0. 0. 0. 0. 0. 0. 0. 0. 0. 0. 0. 0. 0. 0. 0. 0. 0. 0. 0. 0.
      0. 0. 0. 0. 0. 0. 0. 0. 0. 0. 0. 0. 0. 0. 0. 0. 0. 0. 0. 0. 0. 0.
      0. 0. 0. 0. 0. 0. 0. 0. 0. 0. 0. 0. 0. 0. 0. 0. 0. 0. 0. 0. 0. 0.
      0. 0. 0. 0. 0. 0. 0. 0. 0. 0. 0. 0. 0. 0. 0. 0. 0. 0. 0. 0. 0. 0.
      0. 0. 0. 0. 0. 0. 0. 0. 0. 0. 0. 0. 0. 0. 0. 0. 0. 0. 0. 0. 0. 0.
      0. 0. 0. 0. 1. 3. 1. 1. 0. 0. 0. 0. 0. 0. 0. 0. 0. 0. 0. 0. 0. 0.
      0. 0. 0. 0. 0. 0. 0. 0. 0. 0. 0. 0. 0. 0. 0. 0. 0. 0. 0. 0. 0. 0.
      0. 0. 0. 0. 0. 0. 0. 0. 0. 0. 0. 0. 0. 0. 0. 0. 0. 0. 0. 0. 0. 0.
      0. 0. 0. 0. 0. 0. 0. 1. 0. 0. 0. 1. 0. 1. 1. 1. 1. 1. 1. 2. 0. 0.
      0. 0. 0. 0. 0. 0. 0. 0. 1. 0. 0. 0. 0. 0. 0. 0. 0. 0. 0. 0. 0. 0.
      0. 0. 0. 0. 0. 0. 0. 0. 0. 0. 0. 0. 0. 0. 0. 0. 0. 0. 0. 0. 0. 0.
      0. 0. 0. 0. 0. 0. 0. 0. 0. 0. 0. 0. 0. 0. 0. 0. 0. 0. 0. 1. 0. 0.
      1. 0. 0. 0.</_>
    <_>
      0. 2. 6. 0. 0. 0. 0. 0. 0. 0. 0. 8. 0. 0. 0. 0. 0. 0. 0. 0. 0. 8.
      0. 0. 0. 0. 0. 0. 0. 0. 0. 8. 0. 0. 0. 0. 0. 0. 0. 0. 0. 0. 8. 0.
      0. 0. 0. 0. 0. 0. 0. 0. 2. 4. 1. 1. 0. 0. 0. 0. 0. 0. 0. 0. 4. 4.
      0. 0. 0. 0. 0. 0. 0. 0. 8. 0. 0. 0. 0. 0. 8. 0. 0. 0. 0. 0. 0. 0.
      0. 0. 8. 0. 0. 0. 0. 0. 0. 0. 0. 0. 6. 2. 0. 0. 0. 0. 0. 0. 0. 0.
      0. 8. 0. 0. 0. 0. 0. 0. 0. 0. 0. 6. 2. 0. 0. 0. 0. 0. 0. 0. 0. 0.
      3. 1. 1. 2. 1. 0. 0. 0. 0. 0. 0. 0. 0. 1. 7. 0. 0. 0. 0. 0. 0. 0.
      0. 7. 1. 0. 0. 0. 7. 1. 0. 0. 0. 0. 0. 0. 0. 0. 8. 0. 0. 0. 0. 0.
      0. 0. 0. 0. 3. 0. 0. 0. 0. 0. 0. 0. 0. 0. 6. 2. 0. 0. 0. 0. 0. 0.
      0. 0. 0. 6. 2. 0. 0. 0. 0. 0. 0. 0. 0. 0. 3. 1. 1. 2. 1. 0. 0. 0.
      0. 0. 0. 0. 0. 0. 8. 0. 0. 0. 0. 0. 0. 0. 0. 0. 7. 1. 0. 0. 4. 2.
      0. 0. 0. 0. 0. 0. 0. 0. 0. 0. 0. 0. 0. 0. 0. 0. 0. 0. 0. 0. 0. 0.
      0. 0. 0. 0. 0. 0. 0. 0. 0. 0. 0. 0. 0. 0. 0. 0. 5. 3. 0. 0. 0. 0.
      0. 0. 0. 0. 1. 0. 0. 0. 0. 0. 0. 0. 7. 0. 0. 0. 0. 0. 0. 0. 0. 0.
      8. 0. 0. 0. 0. 0. 0. 0. 0. 0. 2. 1. 0. 0. 0. 0. 0. 0. 0. 0. 0. 0.
      0. 0. 0. 0. 0. 0. 0. 0. 0. 0. 0. 0. 0. 0. 0. 0. 0. 0. 0. 0. 0. 0.
      0. 0. 0. 0. 0. 0. 0. 0. 0. 0. 0. 0. 0. 0. 0. 0. 0. 0. 0. 0. 0. 0.
      0. 0. 0. 0. 0. 0. 0. 0. 0. 0. 0. 0. 0. 0. 0. 3. 0. 0. 0. 0. 0. 0.
      0. 0. 0. 0. 0. 0. 0. 0. 0. 0. 0. 0. 0. 0. 0. 0. 0. 0. 0. 0. 0. 0.
      0. 0. 0. 0. 0. 0. 0. 0. 0. 0. 0. 0. 0. 0. 0. 0. 0. 0. 0. 0. 0. 0.
      0. 0. 0. 0. 0. 0. 0. 0. 0. 0. 0. 0. 0. 0. 0. 0. 0. 0. 0. 0. 0. 0.
      0. 0. 0. 0. 0. 4. 2. 0. 0. 0. 0. 0. 0. 0. 0. 0. 1. 1. 0. 0. 0. 0.
      0. 0. 0. 0. 0. 0. 0. 0. 0. 0. 0. 0. 0. 0. 0. 0. 0. 0. 0. 0. 0. 0.
      0. 0. 0. 0. 0. 0. 0. 0. 0. 0. 0. 0. 0. 0. 0. 0. 0. 0. 0. 0. 0. 0.
      0. 0. 0. 0. 0. 0. 0. 0. 0. 0. 0. 0. 0. 0. 0. 0. 0. 0. 0. 0. 0. 0.
      0. 0. 0. 0. 0. 0. 0. 0. 0. 0. 0. 0. 0. 0. 0. 0. 0. 0. 0. 0. 0. 0.
      0. 0. 0. 0. 0. 0. 0. 0. 0. 0. 0. 0. 0. 0. 0. 0. 0. 0. 0. 0. 0. 0.
      0. 0. 0. 0. 0. 0. 0. 0. 0. 0. 0. 0. 0. 0. 0. 0. 0. 0. 0. 0. 0. 0.
      0. 0. 0. 0. 0. 0. 0. 0. 0. 0. 0. 0. 0. 0. 0. 0. 0. 0. 0. 0. 0. 0.
      0. 0. 5. 1. 1. 0. 1. 0. 0. 0. 0. 0. 0. 0. 0. 0. 0. 1. 1. 1. 1. 1.
      0. 0. 0. 0. 0. 0. 0. 0. 0. 0. 0. 0. 0. 0. 0. 0. 0. 3. 1. 3. 0. 0.
      0. 0. 0. 0. 2. 6. 0. 0. 0. 0. 0. 0. 2. 1. 5. 0. 0. 0. 0. 0. 0. 1.
      5. 2. 0. 0. 0. 0. 4. 1. 2. 1. 0. 0. 0. 0. 0. 0. 0. 0. 0. 0. 1. 0.
      1. 0. 1. 0. 0. 0. 0. 0. 0. 0. 0. 0. 0. 0. 0. 0. 0. 0. 0. 0. 0. 0.
      0. 0. 0. 0. 0. 0. 0. 0. 5. 1. 1. 1. 0. 0. 0. 0. 0. 4. 4. 0. 0. 0.
      0. 0. 0. 0. 5. 3. 0. 0. 0. 0. 0. 0. 0. 0. 0. 8. 0. 0. 0. 0. 0. 0.
      0. 0. 1. 3. 4. 0. 0. 0. 0. 0. 0. 0. 0. 0. 0. 1. 1. 1. 0. 0. 0. 0.
      0. 0. 0. 0. 0. 1. 0. 0. 0. 0. 1. 3. 1. 1. 1. 1. 0. 0. 4. 4. 0. 0.
      0. 0. 0. 0. 0. 0. 0. 8. 0. 0. 0. 0. 0. 0. 0. 0. 1. 7. 0. 0. 0. 0.
      0. 0. 0. 0. 0. 1. 6. 1. 0. 0. 0. 0. 0. 0. 1. 0. 1. 6. 0. 0. 0. 0.
      0. 0. 0. 0. 0. 0. 1. 2. 5. 0. 0. 0. 0. 0. 0. 0. 0. 1. 7. 0. 0. 0.
      0. 0. 0. 6. 2. 0. 0. 0. 0. 0. 4. 1. 3. 0. 0. 0. 0. 0. 0. 4. 4. 0.
      0. 0. 0. 0. 0. 0. 4. 1. 2. 1. 0. 0. 0. 0. 0. 0. 0. 0. 0. 4. 4. 0.
      0. 0. 0. 0. 0. 0. 0. 0. 1. 2. 1. 0. 1. 0. 1. 2. 1. 2. 2. 0. 0. 0.
      0. 0. 0. 0. 0. 0. 0. 5. 3. 0. 0. 0. 0. 0. 0. 0. 3. 5. 0. 0. 0. 0.
      0. 0. 3. 1. 4. 0. 0. 0. 0. 0. 0. 0. 8. 0. 0. 0. 0. 0. 0. 0. 0. 0.
      0. 8. 0. 0. 0. 0. 0. 0. 0. 0. 0. 2. 2. 2. 2. 0. 0. 0. 0. 0. 0. 0.
      0. 0. 0. 1. 0. 1. 2. 3. 1. 1. 1. 0. 0. 0. 0. 0. 0. 0. 0. 0. 1. 1.
      2. 4. 0. 0. 0. 0. 0. 0. 0. 0. 3. 5. 0. 0. 0. 0. 0. 0. 0. 2. 6. 0.
      0. 0. 0. 0. 0. 0. 8. 0. 0. 0. 0. 0. 0. 0. 0. 0. 7. 1. 0. 0. 0. 0.
      0. 0. 0. 0. 2. 0. 0. 1. 0. 1. 0. 0. 0. 0. 0. 0. 0. 0. 0. 2. 0. 0.
      1. 3. 1. 1. 1. 0. 1. 0. 0. 0. 0. 0. 0. 0. 0. 0. 0. 0. 0. 0. 0. 0.
      0. 0. 0. 0. 0. 0. 0. 0. 0. 0. 0. 0. 0. 1. 3. 3. 0. 0. 0. 0. 0. 0.
      5. 3. 0. 0. 0. 0. 0. 0. 0. 0. 7. 1. 0. 0. 0. 0. 0. 0. 0. 0. 0. 0.
      0. 1. 0. 0. 0. 0. 0. 0. 0. 0. 0. 0. 0. 3. 1. 1. 1. 0. 1. 0. 1. 0.
      0. 0. 0. 0. 0. 0. 0. 0. 0. 0. 0. 0. 0. 0. 0. 0. 0. 0. 0. 0. 0. 0.
      0. 0. 0. 0. 0. 0. 3. 2. 0. 0. 0. 0. 0. 0. 0. 0. 8. 0. 0. 0. 0. 0.
      0. 0. 0. 0. 6. 1. 0. 0. 0. 0. 0. 0. 0. 0. 0. 0. 0. 0. 0. 0. 0. 0.
      0. 0. 0. 0.</_>
    <_>
      1. 7. 0. 0. 0. 0. 0. 0. 0. 0. 0. 4. 4. 0. 0. 0. 0. 0. 0. 0. 0. 0.
      8. 0. 0. 0. 0. 0. 0. 0. 0. 0. 8. 0. 0. 0. 0. 0. 0. 0. 0. 0. 2. 6.
      0. 0. 0. 0. 0. 0. 0. 0. 0. 8. 0. 0. 0. 0. 0. 0. 0. 0. 0. 0. 3. 1.
      1. 2. 1. 0. 0. 0. 0. 0. 0. 0. 0. 6. 2. 0. 1. 7. 0. 0. 0. 0. 0. 0.
      0. 0. 0. 8. 0. 0. 0. 0. 0. 0. 0. 0. 0. 8. 0. 0. 0. 0. 0. 0. 0. 0.
      0. 1. 7. 0. 0. 0. 0. 0. 0. 0. 0. 0. 4. 3. 1. 0. 0. 0. 0. 0. 0. 0.
      0. 0. 3. 5. 0. 0. 0. 0. 0. 0. 0. 0. 0. 3. 1. 1. 0. 1. 0. 0. 0. 0.
      0. 0. 0. 0. 0. 3. 8. 0. 0. 0. 0. 0. 0. 0. 0. 0. 3. 0. 0. 0. 0. 0.
      0. 0. 0. 0. 5. 0. 0. 0. 0. 0. 0. 0. 0. 0. 3. 3. 2. 0. 0. 0. 0. 0.
      0. 0. 0. 4. 4. 0. 0. 0. 0. 0. 0. 0. 0. 0. 1. 1. 0. 1. 0. 3. 2. 0.
      0. 0. 0. 0. 0. 0. 0. 0. 1. 2. 0. 0. 0. 0. 0. 0. 0. 0. 0. 0. 5. 0.
      0. 0. 0. 0. 0. 0. 0. 0. 0. 0. 0. 0. 0. 0. 0. 0. 0. 0. 0. 0. 0. 0.
      0. 0. 0. 0. 0. 0. 0. 0. 0. 0. 0. 0. 0. 0. 0. 0. 0. 0. 0. 0. 0. 0.
      0. 0. 0. 0. 0. 0. 0. 0. 0. 0. 0. 0. 0. 0. 0. 0. 0. 0. 0. 0. 0. 0.
      0. 0. 0. 0. 0. 0. 0. 0. 0. 0. 0. 0. 0. 0. 0. 0. 0. 0. 0. 0. 0. 0.
      0. 0. 0. 0. 0. 0. 0. 0. 0. 0. 0. 0. 0. 0. 0. 0. 0. 0. 0. 0. 0. 0.
      0. 0. 0. 0. 0. 0. 0. 0. 0. 0. 0. 0. 0. 0. 0. 0. 0. 0. 0. 0. 0. 0.
      0. 0. 0. 0. 0. 0. 0. 0. 0. 0. 0. 0. 0. 0. 0. 0. 0. 0. 0. 0. 0. 0.
      0. 0. 0. 0. 0. 0. 0. 0. 0. 0. 0. 0. 0. 0. 0. 0. 0. 0. 0. 0. 0. 0.
      0. 0. 0. 0. 0. 0. 0. 0. 0. 0. 0. 0. 0. 0. 0. 0. 0. 0. 0. 0. 0. 0.
      0. 0. 0. 0. 0. 0. 0. 0. 0. 0. 0. 0. 0. 0. 0. 0. 0. 0. 0. 0. 0. 0.
      0. 0. 0. 0. 0. 0. 0. 0. 0. 0. 0. 0. 0. 0. 0. 0. 0. 0. 0. 0. 0. 0.
      0. 0. 0. 0. 0. 0. 0. 0. 0. 0. 0. 0. 0. 0. 0. 0. 0. 0. 0. 0. 0. 0.
      0. 0. 0. 0. 0. 0. 0. 0. 0. 0. 0. 0. 0. 0. 0. 0. 0. 0. 0. 0. 0. 0.
      0. 0. 0. 0. 0. 0. 0. 0. 0. 0. 0. 0. 0. 0. 0. 0. 0. 0. 0. 0. 0. 0.
      0. 0. 0. 0. 0. 0. 0. 0. 0. 0. 0. 0. 0. 0. 0. 0. 0. 0. 0. 0. 0. 0.
      0. 0. 0. 0. 0. 0. 0. 0. 0. 0. 0. 0. 0. 0. 0. 0. 0. 0. 0. 0. 0. 0.
      0. 0. 0. 0. 0. 0. 0. 0. 0. 0. 0. 0. 0. 0. 0. 0. 0. 0. 0. 0. 0. 0.
      0. 0. 0. 0. 0. 0. 0. 0. 0. 0. 0. 0. 0. 0. 0. 0. 0. 0. 0. 0. 0. 0.
      0. 0. 4. 2. 0. 1. 1. 0. 0. 0. 0. 0. 0. 0. 0. 0. 0. 1. 1. 0. 2. 1.
      0. 0. 0. 0. 0. 0. 0. 0. 0. 0. 0. 0. 0. 0. 0. 0. 0. 2. 4. 2. 0. 0.
      0. 0. 0. 0. 0. 0. 0. 6. 0. 0. 0. 0. 0. 0. 0. 1. 3. 1. 0. 0. 0. 0.
      0. 2. 2. 1. 1. 0. 0. 0. 0. 0. 0. 1. 1. 1. 1. 1. 0. 0. 0. 0. 0. 0.
      0. 0. 0. 1. 0. 0. 0. 0. 0. 0. 0. 0. 0. 0. 0. 0. 0. 0. 0. 0. 0. 0.
      0. 0. 0. 0. 0. 0. 0. 0. 0. 0. 2. 3. 0. 0. 0. 0. 1. 3. 1. 3. 0. 0.
      0. 0. 0. 2. 6. 0. 0. 0. 0. 0. 0. 0. 0. 5. 0. 0. 1. 0. 0. 1. 0. 0.
      0. 0. 0. 0. 0. 4. 2. 1. 0. 0. 0. 0. 0. 0. 0. 0. 0. 0. 0. 0. 0. 0.
      0. 0. 0. 0. 0. 0. 0. 0. 0. 0. 0. 0. 0. 0. 0. 0. 0. 0. 0. 0. 1. 4.
      0. 1. 0. 1. 0. 0. 2. 2. 2. 2. 0. 0. 0. 0. 0. 6. 2. 0. 0. 0. 0. 0.
      0. 0. 0. 0. 2. 1. 0. 1. 1. 1. 1. 1. 0. 0. 0. 0. 0. 0. 0. 0. 0. 0.
      0. 0. 0. 0. 0. 0. 0. 0. 0. 0. 0. 0. 0. 0. 0. 0. 0. 0. 0. 0. 0. 0.
      0. 0. 0. 0. 0. 0. 0. 0. 0. 0. 0. 0. 1. 3. 1. 0. 0. 1. 0. 0. 0. 0.
      6. 2. 0. 0. 0. 0. 0. 0. 0. 0. 8. 0. 0. 0. 0. 0. 0. 0. 0. 0. 0. 0.
      1. 1. 2. 2. 0. 0. 0. 0. 0. 0. 0. 0. 0. 0. 0. 0. 0. 0. 0. 0. 0. 0.
      1. 1. 0. 0. 0. 0. 0. 0. 0. 0. 0. 0. 0. 0. 0. 0. 0. 0. 0. 0. 5. 2.
      0. 0. 0. 0. 0. 0. 3. 2. 3. 0. 0. 0. 0. 0. 0. 3. 3. 1. 1. 0. 0. 0.
      0. 0. 0. 0. 0. 0. 1. 4. 0. 0. 0. 0. 0. 0. 0. 0. 0. 0. 0. 0. 0. 0.
      0. 0. 0. 0. 0. 0. 0. 1. 1. 1. 1. 1. 0. 1. 1. 1. 0. 0. 0. 0. 0. 0.
      0. 0. 0. 0. 0. 0. 0. 0. 0. 0. 0. 0. 0. 0. 0. 0. 0. 0. 0. 0. 0. 0.
      0. 2. 0. 0. 0. 0. 1. 2. 3. 1. 1. 0. 0. 0. 0. 0. 0. 0. 1. 4. 2. 1.
      0. 0. 0. 0. 0. 0. 0. 0. 0. 0. 0. 0. 0. 0. 0. 0. 0. 0. 0. 0. 0. 0.
      0. 1. 0. 0. 1. 0. 1. 0. 0. 0. 0. 0. 0. 0. 0. 0. 0. 0. 0. 0. 0. 0.
      0. 0. 0. 0. 0. 0. 0. 0. 0. 0. 0. 0. 0. 0. 0. 0. 0. 0. 0. 0. 0. 0.
      0. 0. 0. 2. 0. 0. 0. 0. 0. 0. 0. 0. 0. 0. 0. 0. 0. 0. 0. 0. 0. 0.
      0. 0. 0. 0. 0. 0. 0. 0. 0. 0. 0. 0. 0. 0. 1. 1. 0. 1. 1. 1. 1. 0.
      0. 0. 0. 0. 0. 0. 0. 0. 0. 0. 0. 0. 0. 0. 0. 0. 0. 0. 0. 0. 0. 0.
      0. 0. 0. 0. 0. 0. 0. 0. 0. 0. 0. 0. 0. 0. 0. 0. 0. 0. 0. 0. 0. 0.
      0. 0. 0. 0. 0. 0. 0. 0. 0. 0. 0. 0. 0. 0. 0. 0. 0. 0. 0. 0. 0. 0.
      0. 0. 0. 1.</_>
    <_>
      0. 0. 0. 0. 0. 0. 5. 3. 0. 0. 0. 0. 0. 0. 0. 4. 4. 0. 0. 0. 0. 0.
      0. 0. 2. 6. 0. 0. 0. 0. 0. 0. 0. 0. 8. 0. 0. 0. 0. 0. 0. 0. 5. 2.
      1. 0. 0. 0. 0. 0. 0. 0. 8. 0. 0. 0. 0. 0. 0. 0. 2. 3. 3. 0. 0. 0.
      0. 0. 0. 0. 5. 0. 0. 0. 0. 0. 0. 0. 0. 0. 0. 0. 0. 0. 0. 0. 7. 1.
      0. 0. 0. 0. 0. 0. 0. 4. 4. 0. 0. 0. 0. 0. 0. 0. 5. 3. 0. 0. 0. 0.
      0. 0. 0. 0. 8. 0. 0. 0. 0. 0. 0. 0. 4. 4. 0. 0. 0. 0. 0. 0. 0. 0.
      8. 0. 0. 0. 0. 0. 0. 0. 0. 0. 8. 0. 0. 0. 0. 0. 0. 0. 0. 8. 0. 0.
      0. 0. 0. 0. 0. 0. 0. 0. 0. 0. 0. 0. 8. 0. 0. 0. 0. 0. 0. 0. 0. 3.
      5. 0. 0. 0. 0. 0. 0. 0. 0. 8. 0. 0. 0. 0. 0. 0. 0. 4. 2. 2. 0. 0.
      0. 0. 0. 0. 2. 6. 0. 0. 0. 0. 0. 0. 0. 0. 8. 0. 0. 0. 0. 0. 0. 0.
      0. 0. 8. 0. 0. 0. 0. 0. 0. 0. 0. 5. 3. 0. 0. 0. 0. 0. 0. 0. 0. 0.
      0. 0. 0. 0. 8. 0. 0. 0. 0. 0. 0. 0. 0. 2. 6. 0. 0. 0. 0. 0. 0. 0.
      1. 7. 0. 0. 0. 0. 0. 0. 0. 5. 3. 0. 0. 0. 0. 0. 0. 0. 0. 8. 0. 0.
      0. 0. 0. 0. 0. 0. 8. 0. 0. 0. 0. 0. 0. 0. 0. 2. 6. 0. 0. 0. 0. 0.
      0. 0. 0. 5. 3. 0. 0. 0. 0. 0. 0. 0. 0. 0. 0. 0. 0. 0. 8. 0. 0. 0.
      0. 0. 0. 0. 1. 1. 6. 0. 0. 0. 0. 0. 0. 0. 8. 0. 0. 0. 0. 0. 0. 0.
      0. 1. 7. 0. 0. 0. 0. 0. 0. 0. 0. 8. 0. 0. 0. 0. 0. 0. 0. 0. 4. 4.
      0. 0. 0. 0. 0. 0. 0. 0. 8. 0. 0. 0. 0. 0. 0. 0. 0. 0. 8. 0. 0. 0.
      0. 0. 0. 0. 0. 0. 0. 0. 0. 0. 0. 0. 2. 0. 0. 0. 0. 0. 2. 1. 3. 2.
      0. 0. 0. 0. 0. 0. 8. 0. 0. 0. 0. 0. 0. 0. 0. 0. 8. 0. 0. 0. 0. 0.
      0. 0. 0. 2. 6. 0. 0. 0. 0. 0. 0. 0. 0. 8. 0. 0. 0. 0. 0. 0. 0. 0.
      3. 5. 0. 0. 0. 0. 0. 0. 0. 0. 8. 0. 0. 0. 0. 0. 0. 0. 0. 1. 0. 0.
      2. 3. 0. 0. 0. 0. 0. 0. 0. 0. 0. 3. 3. 2. 0. 0. 0. 0. 0. 0. 0. 0.
      7. 1. 0. 0. 0. 0. 0. 0. 0. 8. 0. 0. 0. 0. 0. 0. 0. 0. 8. 0. 0. 0.
      0. 0. 0. 0. 0. 4. 4. 0. 0. 0. 0. 0. 0. 0. 3. 5. 0. 0. 0. 0. 0. 0.
      0. 0. 7. 1. 0. 0. 0. 0. 0. 0. 0. 0. 1. 0. 2. 4. 0. 0. 0. 0. 0. 0.
      0. 0. 0. 2. 1. 1. 4. 0. 0. 0. 0. 0. 0. 0. 1. 7. 0. 0. 0. 0. 0. 0.
      0. 1. 7. 0. 0. 0. 0. 0. 0. 0. 7. 1. 0. 0. 0. 0. 0. 0. 0. 3. 5. 0.
      0. 0. 0. 0. 0. 0. 3. 5. 0. 0. 0. 0. 0. 0. 0. 0. 5. 3. 0. 0. 0. 0.
      0. 0. 6. 1. 1. 0. 0. 0. 0. 0. 0. 0. 0. 0. 1. 1. 2. 4. 0. 0. 0. 0.
      0. 0. 0. 0. 0. 8. 0. 0. 0. 0. 0. 0. 0. 0. 1. 7. 0. 0. 0. 0. 0. 0.
      0. 0. 0. 3. 4. 1. 0. 0. 0. 0. 0. 0. 0. 0. 0. 3. 5. 0. 0. 0. 0. 0.
      0. 0. 0. 0. 2. 3. 0. 0. 0. 0. 0. 0. 3. 3. 2. 0. 0. 0. 1. 1. 0. 1.
      0. 0. 1. 4. 0. 0. 0. 0. 0. 1. 3. 1. 2. 1. 0. 0. 0. 0. 0. 2. 6. 0.
      0. 0. 0. 0. 0. 0. 0. 0. 6. 2. 0. 0. 0. 0. 0. 0. 0. 0. 0. 4. 2. 2.
      0. 0. 0. 0. 0. 0. 0. 0. 0. 8. 0. 0. 0. 0. 0. 0. 0. 0. 0. 2. 0. 0.
      0. 0. 0. 0. 0. 4. 3. 0. 0. 0. 0. 0. 0. 0. 0. 1. 5. 2. 0. 0. 0. 0.
      2. 1. 2. 2. 1. 0. 0. 0. 0. 0. 5. 3. 0. 0. 0. 0. 0. 0. 0. 0. 0. 3.
      2. 2. 1. 0. 0. 0. 0. 0. 0. 0. 0. 0. 8. 0. 0. 0. 0. 0. 0. 0. 0. 0.
      2. 6. 0. 0. 0. 0. 0. 0. 0. 0. 0. 3. 0. 0. 0. 0. 0. 0. 0. 0. 0. 7.
      0. 0. 0. 0. 0. 0. 0. 0. 3. 2. 0. 0. 0. 0. 0. 2. 2. 2. 2. 0. 0. 0.
      0. 0. 8. 0. 0. 0. 0. 0. 0. 0. 0. 0. 1. 3. 1. 1. 2. 0. 0. 0. 0. 0.
      0. 0. 0. 3. 2. 3. 0. 0. 0. 0. 0. 0. 0. 6. 2. 0. 0. 0. 0. 0. 0. 0.
      0. 0. 2. 6. 0. 0. 0. 0. 0. 0. 0. 0. 0. 8. 0. 0. 0. 0. 0. 0. 0. 0.
      5. 3. 0. 0. 0. 0. 0. 0. 0. 0. 6. 2. 0. 0. 0. 0. 0. 0. 0. 0. 2. 4.
      0. 0. 0. 0. 0. 0. 0. 0. 0. 0. 0. 0. 0. 0. 0. 0. 0. 0. 0. 0. 0. 0.
      0. 0. 0. 0. 0. 0. 0. 6. 0. 0. 0. 0. 0. 0. 0. 0. 0. 1. 0. 0. 0. 0.
      0. 0. 0. 0. 0. 7. 0. 0. 4. 2. 0. 1. 0. 1. 0. 0. 0. 0. 0. 1. 1. 1.
      2. 2. 0. 1. 0. 0. 0. 0. 0. 0. 0. 0. 0. 0. 0. 0. 0. 0. 0. 0. 0. 0.
      0. 0. 0. 0. 0. 0. 0. 0. 0. 0. 0. 0. 0. 0. 0. 0. 0. 0. 0. 0. 0. 0.
      0. 0. 0. 0. 0. 0. 0. 0. 0. 0. 0. 0. 0. 0. 0. 0. 0. 0. 0. 6. 1. 2.
      0. 2. 2. 1. 0. 0. 0. 0. 0. 0. 0. 0. 0. 1. 2. 2. 1. 2. 0. 0. 0. 0.
      0. 0. 0. 0. 0. 0. 0. 0. 0. 0. 0. 0. 0. 0. 0. 0. 0. 0. 0. 0. 0. 0.
      0. 0. 0. 0. 0. 0. 0. 0. 0. 0. 0. 0. 0. 0. 0. 0. 0. 0. 0. 0. 0. 0.
      0. 1. 0. 0. 0. 0. 0. 0. 0. 0. 0. 0. 3. 2. 2. 1. 0. 0. 0. 0. 0. 0.
      0. 0. 0. 2. 1. 1. 0. 1. 0. 1. 0. 0. 0. 0. 0. 0. 0. 0. 0. 0. 0. 0.
      0. 0. 0. 0. 0. 0. 0. 0. 0. 0. 0. 0. 0. 0. 0. 0. 0. 0. 0. 0. 0. 0.
      0. 0. 0. 0. 0. 0. 0. 0. 0. 0. 0. 0. 0. 0. 0. 0. 0. 0. 0. 0. 0. 0.
      0. 0. 0. 0.</_>
    <_>
      0. 0. 0. 0. 0. 0. 0. 0. 0. 0. 0. 0. 0. 0. 0. 0. 0. 0. 0. 0. 0. 0.
      0. 0. 0. 0. 0. 0. 0. 0. 0. 0. 0. 0. 0. 0. 0. 0. 0. 0. 0. 0. 0. 0.
      0. 0. 0. 0. 0. 0. 0. 0. 0. 0. 0. 0. 0. 0. 0. 0. 0. 0. 0. 0. 0. 0.
      0. 0. 0. 0. 0. 0. 0. 0. 0. 0. 0. 0. 0. 0. 0. 0. 0. 0. 0. 0. 0. 0.
      0. 0. 0. 0. 0. 0. 0. 0. 0. 0. 0. 0. 0. 0. 0. 0. 0. 0. 0. 0. 0. 0.
      0. 0. 0. 0. 0. 0. 0. 0. 0. 0. 0. 0. 0. 0. 0. 0. 0. 0. 0. 0. 0. 0.
      0. 0. 0. 0. 0. 0. 0. 0. 0. 0. 0. 0. 0. 0. 0. 0. 0. 0. 0. 0. 0. 0.
      0. 0. 0. 0. 0. 0. 0. 0. 0. 0. 0. 0. 0. 0. 0. 0. 0. 0. 0. 0. 0. 0.
      0. 0. 0. 0. 0. 0. 0. 0. 0. 0. 0. 0. 0. 0. 0. 0. 0. 0. 0. 0. 0. 0.
      0. 0. 0. 0. 0. 0. 0. 0. 0. 0. 0. 0. 0. 0. 0. 0. 0. 0. 0. 0. 0. 0.
      0. 0. 0. 0. 0. 0. 0. 0. 0. 0. 1. 1. 1. 1. 4. 0. 0. 0. 0. 0. 0. 0.
      0. 0. 0. 0. 0. 0. 0. 0. 0. 0. 0. 0. 0. 0. 0. 0. 0. 0. 0. 0. 0. 0.
      0. 0. 0. 0. 0. 0. 0. 0. 0. 0. 0. 0. 0. 0. 0. 0. 0. 0. 0. 0. 0. 0.
      0. 0. 0. 0. 0. 0. 0. 0. 0. 0. 0. 0. 0. 0. 0. 0. 0. 0. 0. 0. 0. 0.
      0. 0. 2. 4. 2. 0. 0. 0. 0. 0. 0. 0. 0. 0. 0. 0. 0. 0. 0. 0. 0. 2.
      0. 0. 0. 0. 0. 0. 0. 0. 0. 0. 0. 0. 0. 0. 0. 0. 0. 0. 0. 0. 0. 0.
      0. 0. 0. 0. 0. 0. 0. 2. 0. 0. 0. 0. 0. 0. 0. 0. 0. 0. 0. 0. 0. 0.
      0. 0. 0. 0. 0. 0. 0. 0. 0. 0. 0. 0. 0. 0. 0. 0. 0. 0. 0. 0. 0. 0.
      0. 0. 0. 0. 0. 0. 0. 0. 0. 0. 0. 0. 0. 3. 0. 0. 0. 0. 0. 0. 0. 0.
      5. 3. 0. 0. 0. 0. 0. 0. 0. 7. 1. 0. 0. 0. 0. 0. 0. 1. 6. 1. 0. 0.
      0. 1. 3. 1. 2. 1. 0. 0. 0. 0. 3. 4. 0. 0. 0. 0. 0. 0. 0. 0. 0. 0.
      0. 0. 0. 0. 0. 0. 0. 0. 0. 0. 0. 0. 0. 0. 0. 0. 0. 0. 0. 0. 0. 0.
      0. 0. 2. 4. 2. 0. 0. 0. 0. 0. 0. 0. 5. 3. 0. 0. 0. 0. 0. 0. 1. 4.
      3. 0. 0. 0. 0. 0. 0. 5. 3. 0. 0. 0. 0. 0. 0. 0. 4. 4. 0. 0. 0. 0.
      0. 0. 0. 4. 4. 0. 0. 0. 0. 0. 0. 0. 1. 0. 0. 0. 0. 0. 0. 0. 0. 0.
      0. 0. 0. 0. 0. 0. 0. 0. 0. 0. 0. 0. 0. 0. 0. 2. 2. 4. 0. 0. 0. 0.
      0. 0. 0. 0. 6. 2. 0. 0. 0. 0. 0. 0. 3. 3. 2. 0. 0. 0. 0. 0. 2. 6.
      0. 0. 0. 0. 0. 0. 0. 0. 6. 2. 0. 0. 0. 0. 0. 0. 0. 6. 2. 0. 0. 0.
      0. 0. 0. 0. 3. 0. 0. 0. 0. 0. 0. 0. 0. 0. 0. 0. 0. 0. 0. 0. 0. 0.
      0. 0. 7. 1. 0. 0. 0. 0. 0. 0. 0. 0. 0. 0. 1. 0. 1. 0. 0. 1. 0. 1.
      0. 0. 0. 0. 0. 0. 0. 0. 0. 0. 0. 0. 0. 0. 0. 0. 0. 0. 0. 6. 0. 0.
      0. 0. 0. 0. 0. 0. 0. 6. 0. 0. 0. 0. 0. 0. 0. 0. 0. 8. 0. 0. 0. 0.
      0. 0. 0. 0. 0. 5. 0. 0. 0. 0. 0. 0. 0. 0. 0. 0. 0. 0. 0. 1. 0. 0.
      1. 0. 0. 1. 0. 0. 0. 0. 0. 0. 0. 0. 0. 0. 0. 0. 0. 0. 0. 0. 0. 0.
      0. 2. 0. 0. 0. 0. 0. 0. 0. 5. 3. 0. 0. 0. 0. 0. 0. 0. 0. 1. 3. 3.
      0. 0. 0. 0. 0. 0. 0. 0. 0. 0. 0. 0. 0. 0. 0. 0. 0. 0. 0. 0. 0. 0.
      0. 0. 0. 1. 0. 1. 0. 1. 0. 0. 0. 0. 0. 0. 0. 0. 0. 0. 0. 0. 0. 0.
      0. 0. 0. 0. 0. 2. 0. 0. 0. 0. 0. 0. 0. 2. 5. 1. 0. 0. 0. 0. 0. 0.
      6. 2. 0. 0. 0. 0. 0. 0. 0. 0. 2. 3. 3. 0. 0. 0. 0. 0. 0. 0. 0. 0.
      0. 2. 0. 0. 0. 0. 0. 0. 0. 0. 0. 0. 0. 0. 0. 0. 0. 0. 0. 0. 0. 0.
      0. 0. 0. 0. 0. 0. 0. 0. 0. 0. 0. 0. 0. 0. 0. 0. 0. 0. 2. 3. 0. 0.
      0. 0. 0. 1. 5. 2. 0. 0. 0. 0. 0. 0. 5. 3. 0. 0. 0. 0. 0. 0. 0. 0.
      0. 4. 4. 0. 0. 0. 0. 0. 0. 0. 0. 0. 2. 2. 1. 3. 0. 0. 0. 0. 0. 0.
      0. 0. 0. 0. 0. 0. 0. 0. 0. 0. 0. 0. 0. 0. 0. 1. 1. 1. 0. 1. 1. 1.
      2. 0. 0. 0. 0. 0. 1. 1. 1. 1. 4. 0. 0. 0. 0. 5. 3. 0. 0. 0. 0. 0.
      0. 0. 7. 1. 0. 0. 0. 0. 0. 0. 0. 0. 3. 3. 2. 0. 0. 0. 0. 0. 0. 0.
      0. 0. 0. 2. 2. 2. 2. 0. 0. 0. 0. 0. 0. 0. 0. 0. 0. 1. 0. 0. 0. 0.
      0. 0. 0. 0. 0. 0. 0. 2. 2. 1. 1. 1. 1. 0. 0. 0. 0. 0. 0. 0. 3. 1.
      4. 0. 0. 0. 0. 0. 0. 0. 7. 1. 0. 0. 0. 0. 0. 0. 0. 0. 0. 5. 3. 0.
      0. 0. 0. 0. 0. 0. 3. 3. 2. 0. 0. 0. 0. 0. 0. 0. 0. 0. 7. 1. 0. 0.
      0. 0. 0. 0. 0. 0. 0. 0. 0. 1. 0. 0. 0. 0. 0. 0. 0. 0. 0. 0. 0. 1.
      3. 2. 1. 1. 0. 0. 0. 0. 0. 0. 0. 0. 0. 1. 3. 3. 1. 0. 0. 0. 0. 0.
      0. 3. 5. 0. 0. 0. 0. 0. 0. 0. 0. 0. 2. 6. 0. 0. 0. 0. 0. 0. 0. 0.
      0. 8. 0. 0. 0. 0. 0. 0. 0. 0. 0. 6. 2. 0. 0. 0. 0. 0. 0. 0. 0. 0.
      0. 1. 0. 0. 0. 0. 0. 0. 0. 0. 0. 0. 0. 0. 7. 1. 0. 0. 0. 0. 0. 0.
      0. 0. 0. 0. 1. 1. 3. 3. 0. 0. 0. 0. 0. 0. 0. 6. 2. 0. 0. 0. 0. 0.
      0. 0. 0. 0. 5. 3. 0. 0. 0. 0. 0. 0. 0. 0. 0. 8. 0. 0. 0. 0. 0. 0.
      0. 0. 0. 4. 3. 1. 0. 0. 0. 0. 0. 0. 0. 0. 0. 2. 0. 0. 0. 0. 0. 0.
      0. 0. 0. 0.</_>
    <_>
      0. 0. 0. 8. 0. 0. 0. 0. 0. 0. 0. 0. 0. 4. 4. 0. 0. 0. 0. 0. 0. 0.
      0. 0. 8. 0. 0. 0. 0. 0. 0. 0. 0. 0. 8. 0. 0. 0. 0. 0. 0. 0. 0. 0.
      3. 5. 0. 0. 0. 0. 0. 0. 0. 0. 0. 8. 0. 0. 0. 0. 0. 0. 0. 0. 0. 8.
      0. 0. 0. 0. 0. 0. 0. 0. 0. 8. 0. 0. 0. 0. 0. 0. 0. 6. 2. 0. 0. 0.
      0. 0. 0. 0. 0. 0. 8. 0. 0. 0. 0. 0. 0. 0. 0. 0. 8. 0. 0. 0. 0. 0.
      0. 0. 0. 0. 8. 0. 0. 0. 0. 0. 0. 0. 0. 0. 0. 8. 0. 0. 0. 0. 0. 0.
      0. 0. 0. 8. 0. 0. 0. 0. 0. 0. 0. 0. 0. 8. 0. 0. 0. 0. 0. 0. 0. 0.
      0. 8. 0. 0. 0. 0. 0. 0. 0. 7. 1. 0. 0. 0. 0. 0. 0. 0. 0. 0. 8. 0.
      0. 0. 0. 0. 0. 0. 0. 0. 8. 0. 0. 0. 0. 0. 0. 0. 0. 0. 8. 0. 0. 0.
      0. 0. 0. 0. 0. 0. 3. 5. 0. 0. 0. 0. 0. 0. 0. 0. 0. 8. 0. 0. 0. 0.
      0. 0. 0. 0. 0. 8. 0. 0. 0. 0. 0. 0. 1. 0. 1. 5. 1. 0. 0. 0. 0. 0.
      0. 8. 0. 0. 0. 0. 0. 0. 0. 0. 0. 4. 4. 0. 0. 0. 0. 0. 0. 0. 0. 0.
      8. 0. 0. 0. 0. 0. 0. 0. 0. 0. 8. 0. 0. 0. 0. 0. 0. 0. 0. 0. 3. 5.
      0. 0. 0. 0. 0. 0. 0. 0. 0. 8. 0. 0. 0. 0. 0. 0. 0. 0. 0. 8. 0. 0.
      0. 0. 0. 0. 0. 0. 0. 6. 2. 0. 0. 0. 0. 0. 0. 8. 0. 0. 0. 0. 0. 0.
      0. 0. 0. 8. 0. 0. 0. 0. 0. 0. 0. 0. 0. 0. 8. 0. 0. 0. 0. 0. 0. 0.
      0. 0. 8. 0. 0. 0. 0. 0. 0. 0. 0. 0. 3. 5. 0. 0. 0. 0. 0. 0. 0. 0.
      0. 8. 0. 0. 0. 0. 0. 0. 0. 0. 0. 8. 0. 0. 0. 0. 0. 0. 0. 0. 0. 8.
      0. 0. 0. 0. 0. 0. 0. 8. 0. 0. 0. 0. 0. 0. 0. 0. 0. 8. 0. 0. 0. 0.
      0. 0. 0. 0. 0. 5. 3. 0. 0. 0. 0. 0. 0. 0. 0. 0. 8. 0. 0. 0. 0. 0.
      0. 0. 0. 0. 4. 4. 0. 0. 0. 0. 0. 0. 0. 0. 3. 5. 0. 0. 0. 0. 0. 0.
      0. 0. 0. 8. 0. 0. 0. 0. 0. 0. 0. 0. 0. 8. 0. 0. 0. 0. 0. 0. 8. 0.
      0. 0. 0. 0. 0. 0. 0. 0. 6. 2. 0. 0. 0. 0. 0. 0. 0. 0. 0. 8. 0. 0.
      0. 0. 0. 0. 0. 0. 0. 2. 6. 0. 0. 0. 0. 0. 0. 0. 0. 0. 3. 5. 0. 0.
      0. 0. 0. 0. 0. 0. 0. 8. 0. 0. 0. 0. 0. 0. 0. 0. 0. 7. 1. 0. 0. 0.
      0. 0. 0. 0. 0. 0. 8. 0. 0. 0. 3. 4. 1. 0. 0. 0. 0. 0. 0. 0. 0. 0.
      7. 1. 0. 0. 0. 0. 0. 0. 0. 0. 3. 4. 1. 0. 0. 0. 0. 0. 0. 0. 0. 0.
      8. 0. 0. 0. 0. 0. 0. 0. 0. 0. 5. 3. 0. 0. 0. 0. 0. 0. 0. 0. 0. 8.
      0. 0. 0. 0. 0. 0. 0. 0. 0. 4. 4. 0. 0. 0. 0. 0. 0. 0. 0. 0. 8. 0.
      0. 0. 3. 2. 0. 1. 1. 0. 1. 0. 0. 0. 0. 0. 0. 0. 0. 0. 0. 0. 1. 0.
      0. 0. 0. 0. 0. 0. 0. 0. 0. 0. 0. 0. 0. 0. 0. 0. 0. 0. 0. 0. 0. 0.
      0. 0. 0. 0. 0. 0. 0. 0. 0. 0. 0. 0. 0. 0. 0. 0. 0. 0. 0. 0. 0. 0.
      0. 0. 0. 0. 0. 0. 0. 1. 2. 1. 1. 1. 0. 0. 1. 0. 0. 0. 0. 0. 1. 0.
      0. 0. 1. 0. 0. 0. 0. 0. 0. 0. 0. 0. 0. 0. 0. 0. 0. 0. 0. 0. 0. 0.
      0. 0. 0. 0. 0. 0. 0. 0. 0. 0. 0. 0. 0. 0. 0. 0. 0. 0. 0. 0. 0. 0.
      0. 0. 0. 0. 0. 0. 0. 0. 0. 0. 0. 0. 0. 0. 0. 0. 0. 0. 0. 0. 0. 0.
      0. 0. 1. 1. 0. 0. 1. 0. 0. 0. 0. 0. 0. 0. 0. 0. 0. 0. 0. 0. 0. 0.
      0. 0. 0. 0. 0. 0. 0. 0. 0. 0. 0. 0. 0. 0. 0. 0. 0. 0. 0. 0. 0. 0.
      0. 0. 0. 0. 0. 0. 0. 0. 0. 0. 0. 0. 0. 0. 0. 0. 0. 0. 0. 0. 0. 0.
      0. 0. 0. 0. 0. 0. 0. 0. 0. 0. 0. 0. 1. 1. 0. 1. 0. 0. 1. 0. 0. 0.
      0. 0. 0. 0. 0. 0. 0. 0. 1. 0. 0. 0. 0. 0. 0. 0. 0. 0. 0. 0. 0. 0.
      0. 0. 0. 0. 0. 0. 0. 0. 0. 0. 0. 0. 0. 0. 0. 0. 0. 0. 0. 0. 0. 0.
      0. 0. 0. 0. 0. 0. 0. 0. 0. 0. 0. 0. 0. 0. 0. 0. 0. 0. 0. 0. 0. 0.
      0. 0. 0. 0. 0. 0. 0. 0. 0. 1. 2. 1. 1. 0. 0. 0. 0. 0. 1. 0. 1. 0.
      1. 1. 0. 0. 0. 0. 0. 0. 0. 0. 0. 0. 0. 0. 0. 0. 0. 0. 0. 0. 0. 0.
      0. 0. 0. 0. 0. 0. 0. 0. 0. 0. 0. 0. 0. 0. 0. 0. 0. 0. 0. 0. 0. 0.
      0. 0. 0. 0. 0. 0. 0. 0. 0. 0. 0. 0. 0. 0. 0. 0. 0. 0. 0. 0. 0. 0.
      0. 0. 0. 0. 0. 0. 0. 0. 0. 0. 1. 1. 1. 1. 2. 0. 0. 0. 0. 0. 0. 0.
      0. 0. 0. 0. 0. 0. 0. 0. 0. 0. 0. 0. 0. 0. 0. 0. 0. 0. 0. 0. 0. 0.
      0. 0. 0. 0. 0. 0. 0. 0. 0. 0. 0. 0. 0. 0. 0. 0. 0. 0. 0. 0. 0. 0.
      0. 0. 0. 0. 0. 0. 0. 0. 0. 0. 0. 0. 0. 0. 0. 0. 0. 0. 0. 0. 0. 0.
      0. 0. 1. 1. 1. 1. 2. 0. 0. 0. 0. 0. 0. 0. 0. 0. 0. 0. 0. 0. 0. 0.
      0. 0. 0. 0. 0. 0. 0. 0. 0. 0. 0. 0. 0. 0. 0. 0. 0. 0. 0. 0. 0. 0.
      0. 0. 0. 0. 0. 0. 0. 0. 0. 0. 0. 0. 0. 0. 0. 0. 0. 0. 0. 0. 0. 0.
      0. 0. 0. 0. 0. 0. 0. 0. 0. 0. 0. 8. 0. 1. 4. 1. 0. 1. 0. 0. 1. 0.
      0. 0. 0. 0. 0. 0. 0. 0. 0. 0. 0. 0. 0. 0. 0. 0. 0. 0. 0. 0. 0. 0.
      0. 0. 0. 0. 0. 0. 0. 0. 0. 0. 0. 0. 0. 0. 0. 0. 0. 0. 0. 0. 0. 0.
      0. 0. 0. 0. 0. 0. 0. 0. 0. 0. 0. 0. 0. 0. 2. 1. 0. 0. 0. 0. 0. 0.
      0. 1. 7. 0.</_>
    <_>
      4. 0. 0. 0. 0. 0. 0. 0. 0. 0. 3. 5. 0. 0. 0. 0. 0. 0. 0. 0. 2. 0.
      0. 0. 0. 0. 0. 0. 0. 0. 0. 0. 0. 0. 0. 0. 0. 0. 0. 0. 1. 0. 0. 1.
      0. 2. 3. 0. 0. 0. 0. 0. 0. 0. 0. 0. 2. 6. 0. 0. 0. 0. 0. 0. 0. 0.
      7. 1. 0. 0. 0. 0. 0. 0. 0. 0. 8. 0. 0. 0. 0. 0. 0. 0. 0. 0. 0. 0.
      0. 0. 0. 0. 0. 0. 0. 0. 0. 0. 0. 0. 0. 0. 0. 0. 0. 0. 0. 0. 0. 0.
      0. 0. 0. 0. 0. 0. 0. 0. 0. 0. 0. 0. 0. 0. 0. 0. 0. 0. 0. 0. 0. 0.
      0. 0. 0. 0. 0. 0. 0. 0. 0. 0. 0. 0. 0. 0. 0. 0. 1. 3. 0. 0. 0. 0.
      0. 0. 3. 2. 3. 0. 0. 0. 0. 0. 0. 0. 0. 0. 0. 0. 0. 0. 0. 0. 0. 0.
      0. 0. 0. 0. 0. 0. 0. 0. 0. 0. 0. 0. 0. 0. 0. 0. 0. 0. 0. 0. 0. 0.
      0. 0. 0. 0. 0. 0. 0. 0. 0. 0. 0. 0. 0. 0. 0. 0. 0. 0. 0. 0. 0. 0.
      0. 0. 0. 0. 0. 0. 0. 0. 0. 0. 0. 0. 0. 0. 0. 0. 0. 0. 0. 1. 0. 0.
      0. 0. 0. 0. 0. 0. 0. 0. 0. 0. 0. 0. 0. 0. 0. 0. 0. 0. 0. 0. 0. 0.
      0. 0. 0. 0. 0. 0. 0. 0. 0. 0. 0. 0. 0. 0. 0. 0. 0. 0. 0. 0. 0. 0.
      0. 0. 0. 0. 0. 0. 0. 0. 0. 0. 0. 0. 0. 0. 0. 0. 0. 0. 0. 0. 0. 0.
      0. 0. 0. 0. 0. 0. 0. 0. 0. 0. 0. 0. 0. 0. 0. 0. 0. 0. 0. 0. 0. 0.
      0. 0. 0. 0. 0. 0. 0. 0. 0. 0. 0. 0. 0. 0. 0. 0. 0. 0. 0. 0. 0. 0.
      0. 0. 0. 0. 0. 0. 0. 0. 0. 0. 0. 0. 0. 0. 0. 0. 0. 0. 0. 0. 0. 0.
      0. 0. 0. 0. 0. 0. 0. 0. 0. 0. 0. 0. 0. 0. 3. 4. 0. 0. 0. 0. 0. 0.
      0. 0. 0. 0. 0. 0. 0. 0. 0. 0. 0. 0. 0. 0. 0. 0. 0. 0. 0. 0. 0. 0.
      0. 0. 0. 0. 0. 0. 0. 0. 0. 0. 0. 0. 0. 0. 0. 0. 0. 0. 0. 0. 0. 0.
      0. 0. 0. 0. 0. 0. 0. 0. 0. 0. 0. 0. 0. 0. 0. 0. 0. 0. 0. 0. 0. 0.
      0. 0. 0. 0. 3. 1. 1. 0. 0. 0. 0. 0. 0. 0. 2. 1. 0. 0. 0. 0. 0. 0.
      0. 0. 0. 0. 0. 0. 0. 0. 0. 0. 0. 0. 0. 0. 0. 0. 0. 0. 0. 0. 0. 0.
      0. 0. 0. 0. 0. 0. 0. 0. 0. 0. 0. 0. 0. 0. 0. 0. 0. 0. 0. 0. 0. 0.
      0. 0. 0. 0. 0. 0. 0. 0. 0. 0. 0. 0. 0. 0. 0. 0. 0. 0. 0. 0. 3. 1.
      0. 0. 0. 0. 0. 0. 0. 0. 8. 0. 0. 0. 0. 0. 0. 0. 0. 0. 0. 0. 0. 0.
      0. 0. 0. 0. 0. 0. 0. 0. 0. 0. 0. 0. 0. 0. 0. 0. 0. 0. 0. 0. 0. 0.
      0. 0. 0. 0. 0. 0. 0. 0. 0. 0. 0. 0. 0. 0. 0. 0. 0. 0. 0. 0. 0. 0.
      0. 0. 0. 0. 0. 0. 0. 0. 0. 0. 0. 0. 0. 0. 0. 0. 0. 0. 0. 0. 0. 0.
      0. 0. 4. 4. 0. 0. 0. 0. 0. 0. 0. 0. 0. 8. 0. 0. 0. 0. 0. 0. 0. 0.
      4. 4. 0. 0. 0. 0. 0. 0. 0. 0. 2. 6. 0. 0. 0. 0. 0. 0. 0. 0. 4. 2.
      2. 0. 0. 0. 0. 0. 0. 0. 0. 0. 2. 6. 0. 0. 0. 0. 0. 0. 0. 0. 0. 8.
      0. 0. 0. 0. 0. 0. 4. 1. 3. 0. 0. 0. 0. 0. 0. 0. 0. 0. 0. 1. 7. 0.
      0. 0. 0. 0. 0. 0. 0. 0. 0. 3. 3. 2. 0. 0. 0. 0. 0. 0. 0. 0. 0. 0.
      1. 1. 0. 0. 0. 0. 4. 1. 1. 0. 1. 1. 0. 0. 5. 3. 0. 0. 0. 0. 0. 0.
      0. 0. 5. 3. 0. 0. 0. 0. 0. 0. 0. 0. 4. 4. 0. 0. 0. 0. 0. 0. 2. 0.
      5. 1. 0. 0. 0. 0. 0. 0. 0. 0. 0. 0. 0. 8. 0. 0. 0. 0. 0. 0. 0. 0.
      0. 1. 3. 3. 1. 0. 0. 0. 0. 0. 0. 0. 0. 4. 4. 0. 0. 0. 0. 3. 2. 1.
      2. 0. 0. 0. 0. 0. 0. 8. 0. 0. 0. 0. 0. 0. 0. 0. 0. 2. 3. 3. 0. 0.
      0. 0. 0. 0. 0. 0. 1. 7. 0. 0. 0. 0. 0. 0. 0. 4. 1. 2. 0. 1. 0. 0.
      0. 0. 0. 0. 0. 1. 1. 6. 0. 0. 0. 0. 0. 0. 0. 1. 2. 5. 0. 0. 0. 0.
      0. 4. 3. 1. 0. 0. 0. 0. 0. 0. 5. 3. 0. 0. 0. 0. 0. 0. 0. 0. 4. 4.
      0. 0. 0. 0. 0. 0. 0. 0. 0. 2. 6. 0. 0. 0. 0. 0. 0. 0. 0. 0. 6. 2.
      0. 0. 0. 0. 0. 0. 0. 0. 0. 0. 1. 0. 1. 0. 0. 0. 1. 1. 1. 2. 3. 0.
      0. 0. 0. 0. 0. 0. 2. 6. 0. 0. 0. 0. 0. 0. 0. 8. 0. 0. 0. 0. 0. 0.
      0. 0. 0. 8. 0. 0. 0. 0. 0. 0. 0. 0. 1. 7. 0. 0. 0. 0. 0. 0. 0. 0.
      3. 5. 0. 0. 0. 0. 0. 0. 0. 0. 5. 2. 1. 0. 0. 0. 0. 0. 0. 0. 0. 0.
      0. 1. 0. 1. 0. 0. 2. 3. 3. 0. 0. 0. 0. 0. 0. 0. 0. 0. 1. 7. 0. 0.
      0. 0. 0. 0. 0. 0. 0. 0. 3. 5. 0. 0. 0. 0. 0. 0. 0. 0. 0. 2. 3. 3.
      0. 0. 0. 0. 0. 0. 0. 0. 8. 0. 0. 0. 0. 0. 0. 0. 0. 4. 4. 0. 0. 0.
      0. 0. 2. 1. 2. 0. 0. 1. 2. 0. 0. 0. 0. 0. 0. 1. 1. 2. 4. 0. 0. 3.
      4. 1. 0. 0. 0. 0. 0. 0. 0. 0. 0. 0. 2. 1. 0. 1. 1. 3. 0. 0. 0. 0.
      0. 0. 0. 0. 0. 8. 0. 0. 0. 0. 0. 0. 0. 0. 0. 8. 0. 0. 0. 0. 0. 0.
      0. 4. 4. 0. 0. 0. 0. 0. 0. 2. 2. 4. 0. 0. 0. 0. 0. 2. 4. 2. 0. 0.
      0. 0. 0. 0. 0. 0. 0. 8. 0. 0. 0. 0. 0. 6. 1. 1. 0. 0. 0. 0. 0. 0.
      0. 0. 0. 1. 1. 1. 0. 1. 0. 1. 0. 0. 0. 0. 0. 0. 0. 0. 0. 0. 0. 0.
      0. 0. 0. 0. 0. 0. 0. 0. 0. 0. 0. 0. 0. 0. 0. 0. 3. 4. 0. 0. 0. 0.
      2. 1. 2. 2. 1. 0. 0. 0. 0. 0. 7. 1. 0. 0. 0. 0. 0. 0. 0. 0. 8. 0.
      0. 0. 0. 0.</_>
    <_>
      0. 0. 2. 6. 0. 0. 0. 0. 0. 0. 0. 1. 1. 6. 0. 0. 0. 0. 0. 0. 1. 0.
      0. 0. 0. 0. 0. 0. 0. 0. 1. 0. 1. 1. 2. 0. 0. 0. 0. 0. 0. 0. 0. 0.
      1. 7. 0. 0. 0. 0. 0. 0. 0. 0. 4. 2. 2. 0. 0. 0. 0. 0. 0. 8. 0. 0.
      0. 0. 0. 0. 0. 0. 0. 5. 3. 0. 0. 0. 0. 0. 6. 2. 0. 0. 0. 0. 0. 0.
      0. 0. 0. 1. 5. 2. 0. 0. 0. 0. 0. 0. 0. 1. 3. 4. 0. 0. 0. 0. 0. 0.
      0. 3. 1. 4. 0. 0. 0. 0. 0. 0. 0. 0. 0. 3. 1. 1. 3. 0. 0. 0. 0. 0.
      0. 0. 0. 0. 1. 7. 0. 0. 0. 0. 0. 0. 7. 1. 0. 0. 0. 0. 0. 0. 0. 0.
      8. 0. 0. 0. 0. 0. 1. 0. 0. 0. 0. 0. 0. 0. 0. 0. 2. 6. 0. 0. 0. 0.
      0. 0. 0. 0. 0. 8. 0. 0. 0. 0. 0. 0. 0. 0. 0. 2. 1. 0. 0. 3. 1. 1.
      0. 0. 0. 0. 0. 0. 0. 0. 0. 8. 0. 0. 0. 0. 0. 0. 0. 0. 0. 8. 0. 0.
      0. 0. 0. 0. 0. 5. 1. 2. 0. 0. 0. 0. 0. 0. 0. 8. 0. 0. 0. 0. 0. 0.
      0. 0. 0. 0. 0. 0. 0. 0. 5. 0. 0. 0. 0. 0. 0. 0. 0. 0. 0. 0. 0. 0.
      0. 0. 0. 0. 0. 0. 0. 0. 0. 0. 0. 0. 0. 0. 0. 1. 0. 0. 0. 0. 0. 0.
      0. 2. 3. 3. 0. 0. 0. 0. 0. 0. 2. 6. 0. 0. 0. 0. 0. 0. 0. 0. 5. 3.
      0. 0. 0. 0. 0. 0. 0. 5. 3. 0. 0. 0. 0. 0. 0. 0. 0. 0. 0. 0. 0. 0.
      2. 0. 0. 0. 0. 0. 0. 0. 0. 0. 0. 0. 0. 0. 0. 0. 0. 0. 0. 0. 0. 0.
      0. 0. 0. 0. 0. 0. 0. 0. 0. 0. 0. 0. 0. 0. 0. 0. 0. 0. 0. 0. 0. 0.
      0. 0. 0. 5. 2. 1. 0. 0. 0. 0. 0. 0. 0. 8. 0. 0. 0. 0. 0. 0. 0. 0.
      5. 3. 0. 0. 0. 0. 0. 0. 0. 0. 0. 0. 0. 0. 3. 5. 0. 0. 0. 0. 0. 0.
      0. 0. 0. 8. 0. 0. 0. 0. 0. 0. 0. 0. 0. 1. 4. 3. 0. 0. 0. 0. 0. 0.
      1. 1. 1. 0. 1. 1. 2. 1. 0. 0. 0. 0. 0. 1. 0. 1. 1. 0. 1. 1. 0. 0.
      0. 0. 0. 6. 1. 0. 0. 0. 0. 0. 0. 0. 0. 8. 0. 0. 0. 0. 0. 6. 2. 0.
      0. 0. 0. 0. 0. 0. 0. 0. 8. 0. 0. 0. 0. 0. 0. 0. 0. 0. 7. 1. 0. 0.
      0. 0. 0. 0. 0. 0. 2. 4. 2. 0. 0. 0. 0. 0. 0. 0. 5. 2. 1. 0. 0. 0.
      0. 0. 0. 0. 0. 3. 5. 0. 0. 0. 0. 0. 0. 0. 0. 0. 2. 6. 0. 0. 0. 0.
      0. 0. 0. 0. 0. 8. 0. 0. 0. 0. 0. 3. 5. 0. 0. 0. 0. 0. 0. 0. 0. 8.
      0. 0. 0. 0. 0. 0. 0. 0. 0. 3. 2. 3. 0. 0. 0. 0. 0. 0. 0. 0. 0. 8.
      0. 0. 0. 0. 0. 0. 0. 0. 4. 3. 1. 0. 0. 0. 0. 0. 0. 0. 0. 0. 8. 0.
      0. 0. 0. 0. 0. 0. 0. 0. 2. 6. 0. 0. 0. 0. 0. 0. 0. 0. 0. 8. 0. 0.
      0. 0. 8. 0. 0. 0. 0. 0. 0. 0. 0. 0. 8. 0. 0. 0. 0. 0. 0. 0. 0. 0.
      8. 0. 0. 0. 0. 0. 0. 0. 0. 0. 6. 2. 0. 0. 0. 0. 0. 0. 0. 0. 0. 2.
      6. 0. 0. 0. 0. 0. 0. 0. 0. 0. 1. 4. 1. 1. 1. 0. 0. 0. 0. 0. 0. 0.
      0. 0. 0. 0. 0. 0. 0. 0. 0. 0. 0. 0. 0. 0. 0. 0. 8. 0. 0. 0. 0. 0.
      0. 0. 0. 0. 8. 0. 0. 0. 0. 0. 0. 0. 0. 0. 8. 0. 0. 0. 0. 0. 0. 0.
      0. 0. 8. 0. 0. 0. 0. 0. 0. 0. 0. 0. 1. 7. 0. 0. 0. 0. 0. 0. 0. 0.
      0. 3. 5. 0. 0. 0. 0. 0. 0. 0. 0. 1. 1. 1. 0. 1. 0. 1. 0. 0. 0. 0.
      0. 0. 0. 0. 0. 0. 0. 0. 0. 8. 0. 0. 0. 0. 0. 0. 0. 0. 4. 4. 0. 0.
      0. 0. 0. 0. 0. 0. 4. 4. 0. 0. 0. 0. 0. 0. 0. 0. 6. 2. 0. 0. 0. 0.
      0. 0. 0. 0. 0. 8. 0. 0. 0. 0. 0. 0. 0. 0. 0. 8. 0. 0. 0. 0. 0. 0.
      0. 0. 0. 4. 2. 1. 1. 0. 0. 0. 0. 0. 0. 0. 0. 8. 0. 0. 0. 0. 0. 0.
      0. 2. 6. 0. 0. 0. 0. 0. 0. 0. 3. 5. 0. 0. 0. 0. 0. 0. 0. 0. 8. 0.
      0. 0. 0. 0. 0. 0. 0. 0. 8. 0. 0. 0. 0. 0. 0. 0. 0. 0. 5. 3. 0. 0.
      0. 0. 0. 0. 0. 0. 3. 5. 0. 0. 0. 0. 0. 0. 0. 0. 0. 5. 3. 0. 0. 0.
      0. 0. 0. 0. 0. 0. 3. 2. 3. 0. 0. 0. 0. 0. 0. 3. 5. 0. 0. 0. 0. 0.
      0. 0. 0. 8. 0. 0. 0. 0. 0. 0. 0. 0. 6. 2. 0. 0. 0. 0. 0. 0. 0. 0.
      1. 7. 0. 0. 0. 0. 0. 0. 0. 0. 8. 0. 0. 0. 0. 0. 0. 0. 0. 0. 8. 0.
      0. 0. 0. 0. 0. 0. 0. 0. 0. 6. 2. 0. 0. 0. 0. 0. 0. 0. 0. 0. 3. 5.
      0. 0. 0. 0. 0. 0. 3. 5. 0. 0. 0. 0. 0. 0. 0. 0. 0. 8. 0. 0. 0. 0.
      0. 0. 0. 0. 4. 4. 0. 0. 0. 0. 0. 0. 0. 0. 8. 0. 0. 0. 0. 0. 0. 0.
      0. 0. 7. 1. 0. 0. 0. 0. 0. 0. 0. 0. 8. 0. 0. 0. 0. 0. 0. 0. 0. 0.
      1. 1. 1. 1. 1. 3. 0. 0. 0. 0. 0. 0. 0. 0. 4. 2. 2. 0. 0. 0. 3. 5.
      0. 0. 0. 0. 0. 0. 0. 0. 0. 8. 0. 0. 0. 0. 0. 0. 0. 0. 0. 8. 0. 0.
      0. 0. 0. 0. 0. 0. 0. 8. 0. 0. 0. 0. 0. 0. 0. 0. 0. 8. 0. 0. 0. 0.
      0. 0. 0. 0. 0. 8. 0. 0. 0. 0. 0. 0. 0. 0. 0. 0. 1. 1. 2. 4. 0. 0.
      0. 0. 0. 0. 0. 0. 4. 4. 0. 0. 0. 0. 2. 6. 0. 0. 0. 0. 0. 0. 0. 0.
      0. 8. 0. 0. 0. 0. 0. 0. 0. 0. 0. 8. 0. 0. 0. 0. 0. 0. 0. 0. 0. 3.
      5. 0. 0. 0. 0. 0. 0. 0. 0. 0. 4. 4. 0. 0. 0. 0. 0. 0. 0. 0. 0. 4.
      3. 1. 0. 0. 0. 0. 0. 0. 0. 0. 3. 3. 2. 0. 0. 0. 0. 0. 0. 0. 8. 0.
      0. 0. 0. 0.</_>
    <_>
      0. 0. 0. 0. 0. 0. 5. 3. 0. 0. 0. 0. 0. 0. 0. 4. 4. 0. 0. 0. 0. 0.
      0. 0. 2. 6. 0. 0. 0. 0. 0. 0. 0. 0. 8. 0. 0. 0. 0. 0. 0. 0. 5. 2.
      1. 0. 0. 0. 0. 0. 0. 0. 8. 0. 0. 0. 0. 0. 0. 0. 2. 3. 3. 0. 0. 0.
      0. 0. 0. 0. 5. 0. 0. 0. 0. 0. 0. 0. 0. 0. 0. 0. 0. 0. 0. 0. 7. 1.
      0. 0. 0. 0. 0. 0. 0. 4. 4. 0. 0. 0. 0. 0. 0. 0. 5. 3. 0. 0. 0. 0.
      0. 0. 0. 0. 8. 0. 0. 0. 0. 0. 0. 0. 4. 4. 0. 0. 0. 0. 0. 0. 0. 0.
      8. 0. 0. 0. 0. 0. 0. 0. 0. 0. 8. 0. 0. 0. 0. 0. 0. 0. 0. 8. 0. 0.
      0. 0. 0. 0. 0. 0. 0. 0. 0. 0. 0. 0. 8. 0. 0. 0. 0. 0. 0. 0. 0. 3.
      5. 0. 0. 0. 0. 0. 0. 0. 0. 8. 0. 0. 0. 0. 0. 0. 0. 4. 2. 2. 0. 0.
      0. 0. 0. 0. 2. 6. 0. 0. 0. 0. 0. 0. 0. 0. 8. 0. 0. 0. 0. 0. 0. 0.
      0. 0. 8. 0. 0. 0. 0. 0. 0. 0. 0. 5. 3. 0. 0. 0. 0. 0. 0. 0. 0. 0.
      0. 0. 0. 0. 8. 0. 0. 0. 0. 0. 0. 0. 0. 2. 6. 0. 0. 0. 0. 0. 0. 0.
      1. 7. 0. 0. 0. 0. 0. 0. 0. 5. 3. 0. 0. 0. 0. 0. 0. 0. 0. 8. 0. 0.
      0. 0. 0. 0. 0. 0. 8. 0. 0. 0. 0. 0. 0. 0. 0. 2. 6. 0. 0. 0. 0. 0.
      0. 0. 0. 5. 3. 0. 0. 0. 0. 0. 0. 0. 0. 0. 0. 0. 0. 0. 8. 0. 0. 0.
      0. 0. 0. 0. 1. 1. 6. 0. 0. 0. 0. 0. 0. 0. 8. 0. 0. 0. 0. 0. 0. 0.
      0. 1. 7. 0. 0. 0. 0. 0. 0. 0. 0. 8. 0. 0. 0. 0. 0. 0. 0. 0. 4. 4.
      0. 0. 0. 0. 0. 0. 0. 0. 8. 0. 0. 0. 0. 0. 0. 0. 0. 0. 8. 0. 0. 0.
      0. 0. 0. 0. 0. 0. 0. 0. 0. 0. 0. 0. 2. 0. 0. 0. 0. 0. 2. 1. 3. 2.
      0. 0. 0. 0. 0. 0. 8. 0. 0. 0. 0. 0. 0. 0. 0. 0. 8. 0. 0. 0. 0. 0.
      0. 0. 0. 2. 6. 0. 0. 0. 0. 0. 0. 0. 0. 8. 0. 0. 0. 0. 0. 0. 0. 0.
      3. 5. 0. 0. 0. 0. 0. 0. 0. 0. 8. 0. 0. 0. 0. 0. 0. 0. 0. 1. 0. 0.
      2. 3. 0. 0. 0. 0. 0. 0. 0. 0. 0. 3. 3. 2. 0. 0. 0. 0. 0. 0. 0. 0.
      7. 1. 0. 0. 0. 0. 0. 0. 0. 8. 0. 0. 0. 0. 0. 0. 0. 0. 8. 0. 0. 0.
      0. 0. 0. 0. 0. 4. 4. 0. 0. 0. 0. 0. 0. 0. 3. 5. 0. 0. 0. 0. 0. 0.
      0. 0. 7. 1. 0. 0. 0. 0. 0. 0. 0. 0. 1. 0. 2. 4. 0. 0. 0. 0. 0. 0.
      0. 0. 0. 2. 1. 1. 4. 0. 0. 0. 0. 0. 0. 0. 1. 7. 0. 0. 0. 0. 0. 0.
      0. 1. 7. 0. 0. 0. 0. 0. 0. 0. 7. 1. 0. 0. 0. 0. 0. 0. 0. 3. 5. 0.
      0. 0. 0. 0. 0. 0. 3. 5. 0. 0. 0. 0. 0. 0. 0. 0. 5. 3. 0. 0. 0. 0.
      0. 0. 6. 1. 1. 0. 0. 0. 0. 0. 0. 0. 0. 0. 1. 1. 2. 4. 0. 0. 0. 0.
      0. 0. 0. 0. 0. 8. 0. 0. 0. 0. 0. 0. 0. 0. 1. 7. 0. 0. 0. 0. 0. 0.
      0. 0. 0. 3. 4. 1. 0. 0. 0. 0. 0. 0. 0. 0. 0. 3. 5. 0. 0. 0. 0. 0.
      0. 0. 0. 0. 2. 3. 0. 0. 0. 0. 0. 0. 3. 3. 2. 0. 0. 0. 1. 1. 0. 1.
      0. 0. 1. 4. 0. 0. 0. 0. 0. 1. 3. 1. 2. 1. 0. 0. 0. 0. 0. 2. 6. 0.
      0. 0. 0. 0. 0. 0. 0. 0. 6. 2. 0. 0. 0. 0. 0. 0. 0. 0. 0. 4. 2. 2.
      0. 0. 0. 0. 0. 0. 0. 0. 0. 8. 0. 0. 0. 0. 0. 0. 0. 0. 0. 2. 0. 0.
      0. 0. 0. 0. 0. 4. 3. 0. 0. 0. 0. 0. 0. 0. 0. 1. 5. 2. 0. 0. 0. 0.
      2. 1. 2. 2. 1. 0. 0. 0. 0. 0. 5. 3. 0. 0. 0. 0. 0. 0. 0. 0. 0. 3.
      2. 2. 1. 0. 0. 0. 0. 0. 0. 0. 0. 0. 8. 0. 0. 0. 0. 0. 0. 0. 0. 0.
      2. 6. 0. 0. 0. 0. 0. 0. 0. 0. 0. 3. 0. 0. 0. 0. 0. 0. 0. 0. 0. 7.
      0. 0. 0. 0. 0. 0. 0. 0. 3. 2. 0. 0. 0. 0. 0. 2. 2. 2. 2. 0. 0. 0.
      0. 0. 8. 0. 0. 0. 0. 0. 0. 0. 0. 0. 1. 3. 1. 1. 2. 0. 0. 0. 0. 0.
      0. 0. 0. 3. 2. 3. 0. 0. 0. 0. 0. 0. 0. 6. 2. 0. 0. 0. 0. 0. 0. 0.
      0. 0. 2. 6. 0. 0. 0. 0. 0. 0. 0. 0. 0. 8. 0. 0. 0. 0. 0. 0. 0. 0.
      5. 3. 0. 0. 0. 0. 0. 0. 0. 0. 6. 2. 0. 0. 0. 0. 0. 0. 0. 0. 2. 4.
      0. 0. 0. 0. 0. 0. 0. 0. 0. 0. 0. 0. 0. 0. 0. 0. 0. 0. 0. 0. 0. 0.
      0. 0. 0. 0. 0. 0. 0. 6. 0. 0. 0. 0. 0. 0. 0. 0. 0. 1. 0. 0. 0. 0.
      0. 0. 0. 0. 0. 7. 0. 0. 4. 2. 0. 1. 0. 1. 0. 0. 0. 0. 0. 1. 1. 1.
      2. 2. 0. 1. 0. 0. 0. 0. 0. 0. 0. 0. 0. 0. 0. 0. 0. 0. 0. 0. 0. 0.
      0. 0. 0. 0. 0. 0. 0. 0. 0. 0. 0. 0. 0. 0. 0. 0. 0. 0. 0. 0. 0. 0.
      0. 0. 0. 0. 0. 0. 0. 0. 0. 0. 0. 0. 0. 0. 0. 0. 0. 0. 0. 6. 1. 2.
      0. 2. 2. 1. 0. 0. 0. 0. 0. 0. 0. 0. 0. 1. 2. 2. 1. 2. 0. 0. 0. 0.
      0. 0. 0. 0. 0. 0. 0. 0. 0. 0. 0. 0. 0. 0. 0. 0. 0. 0. 0. 0. 0. 0.
      0. 0. 0. 0. 0. 0. 0. 0. 0. 0. 0. 0. 0. 0. 0. 0. 0. 0. 0. 0. 0. 0.
      0. 1. 0. 0. 0. 0. 0. 0. 0. 0. 0. 0. 3. 2. 2. 1. 0. 0. 0. 0. 0. 0.
      0. 0. 0. 2. 1. 1. 0. 1. 0. 1. 0. 0. 0. 0. 0. 0. 0. 0. 0. 0. 0. 0.
      0. 0. 0. 0. 0. 0. 0. 0. 0. 0. 0. 0. 0. 0. 0. 0. 0. 0. 0. 0. 0. 0.
      0. 0. 0. 0. 0. 0. 0. 0. 0. 0. 0. 0. 0. 0. 0. 0. 0. 0. 0. 0. 0. 0.
      0. 0. 0. 0.</_>
    <_>
      0. 0. 0. 0. 0. 0. 0. 0. 3. 2. 0. 0. 0. 0. 0. 0. 0. 0. 4. 2. 0. 0.
      0. 0. 0. 0. 1. 1. 6. 0. 0. 4. 3. 0. 1. 0. 0. 0. 0. 0. 5. 3. 0. 0.
      0. 0. 0. 0. 0. 0. 8. 0. 0. 0. 0. 0. 0. 0. 0. 0. 3. 3. 0. 0. 0. 0.
      0. 0. 0. 0. 0. 0. 0. 0. 0. 0. 0. 0. 0. 0. 0. 0. 0. 0. 0. 0. 0. 8.
      0. 0. 0. 0. 0. 0. 0. 0. 0. 8. 0. 0. 0. 0. 0. 0. 0. 0. 2. 6. 0. 0.
      0. 0. 2. 3. 2. 1. 0. 0. 0. 0. 5. 2. 1. 0. 0. 0. 0. 0. 0. 0. 2. 0.
      0. 0. 0. 0. 0. 0. 0. 0. 5. 3. 0. 0. 0. 0. 0. 0. 0. 0. 1. 0. 0. 0.
      0. 0. 0. 0. 0. 0. 0. 0. 0. 0. 0. 0. 0. 7. 1. 0. 0. 0. 0. 0. 0. 0.
      0. 8. 0. 0. 0. 0. 0. 0. 0. 1. 5. 2. 0. 0. 0. 0. 3. 2. 1. 2. 0. 0.
      0. 0. 4. 2. 1. 0. 0. 0. 0. 0. 0. 0. 0. 0. 0. 0. 0. 0. 0. 0. 0. 0.
      4. 0. 0. 0. 0. 0. 0. 0. 0. 0. 0. 0. 0. 0. 0. 0. 0. 0. 0. 0. 0. 0.
      0. 0. 0. 0. 0. 6. 2. 0. 0. 0. 0. 0. 0. 0. 1. 7. 0. 0. 0. 0. 0. 0.
      1. 5. 2. 0. 0. 0. 0. 0. 1. 4. 3. 0. 0. 0. 0. 0. 3. 3. 2. 0. 0. 0.
      0. 0. 0. 0. 8. 0. 0. 0. 0. 0. 0. 0. 0. 0. 5. 2. 0. 0. 0. 0. 0. 0.
      0. 0. 0. 1. 2. 5. 0. 0. 0. 0. 0. 0. 0. 0. 0. 0. 0. 0. 8. 0. 0. 0.
      0. 0. 0. 0. 0. 3. 5. 0. 0. 0. 0. 0. 0. 0. 7. 1. 0. 0. 0. 0. 0. 0.
      0. 2. 6. 0. 0. 0. 0. 0. 0. 0. 3. 5. 0. 0. 0. 0. 0. 0. 3. 5. 0. 0.
      0. 0. 0. 0. 0. 0. 8. 0. 0. 0. 0. 0. 0. 0. 0. 0. 1. 2. 0. 0. 0. 0.
      0. 0. 0. 0. 0. 0. 0. 0. 0. 0. 1. 2. 1. 0. 0. 0. 0. 0. 0. 4. 4. 0.
      0. 0. 0. 0. 0. 0. 0. 8. 0. 0. 0. 0. 0. 0. 0. 0. 5. 3. 0. 0. 0. 0.
      0. 0. 0. 5. 3. 0. 0. 0. 0. 0. 0. 0. 7. 1. 0. 0. 0. 0. 0. 0. 0. 1.
      0. 0. 0. 0. 0. 0. 0. 0. 0. 0. 0. 0. 0. 0. 0. 0. 0. 0. 0. 0. 0. 0.
      0. 1. 5. 2. 0. 0. 0. 0. 0. 0. 0. 2. 6. 0. 0. 0. 0. 0. 0. 0. 0. 8.
      0. 0. 0. 0. 0. 0. 0. 0. 2. 6. 0. 0. 0. 0. 0. 0. 0. 6. 2. 0. 0. 0.
      0. 0. 0. 0. 0. 8. 0. 0. 0. 0. 0. 0. 1. 0. 1. 0. 0. 0. 0. 0. 0. 0.
      0. 0. 0. 0. 0. 0. 0. 0. 0. 0. 0. 0. 0. 0. 0. 1. 4. 3. 0. 0. 0. 0.
      0. 0. 0. 1. 3. 4. 0. 0. 0. 0. 0. 0. 0. 8. 0. 0. 0. 0. 0. 0. 0. 0.
      1. 7. 0. 0. 0. 0. 0. 0. 0. 1. 7. 0. 0. 0. 0. 0. 0. 0. 0. 8. 0. 0.
      0. 0. 0. 0. 1. 0. 1. 0. 0. 0. 0. 0. 0. 0. 0. 0. 0. 0. 0. 0. 0. 0.
      0. 0. 8. 0. 0. 0. 0. 0. 0. 0. 0. 0. 8. 0. 0. 0. 0. 0. 0. 0. 0. 0.
      8. 0. 0. 0. 0. 0. 0. 0. 0. 0. 8. 0. 0. 0. 0. 0. 0. 0. 0. 0. 3. 4.
      1. 0. 0. 0. 0. 0. 0. 0. 0. 0. 8. 0. 0. 0. 0. 0. 0. 0. 0. 0. 0. 2.
      0. 2. 4. 0. 0. 0. 0. 0. 0. 0. 0. 0. 0. 0. 1. 2. 1. 7. 0. 0. 0. 0.
      0. 0. 0. 0. 0. 8. 0. 0. 0. 0. 0. 0. 0. 0. 7. 1. 0. 0. 0. 0. 0. 0.
      0. 0. 8. 0. 0. 0. 0. 0. 0. 0. 0. 0. 4. 3. 1. 0. 0. 0. 0. 0. 0. 0.
      0. 0. 8. 0. 0. 0. 0. 0. 0. 0. 0. 0. 3. 0. 1. 3. 1. 0. 0. 0. 0. 0.
      0. 0. 0. 1. 1. 0. 0. 0. 0. 7. 1. 0. 0. 0. 0. 0. 0. 0. 3. 5. 0. 0.
      0. 0. 0. 0. 0. 0. 8. 0. 0. 0. 0. 0. 0. 0. 0. 0. 8. 0. 0. 0. 0. 0.
      0. 0. 0. 0. 7. 1. 0. 0. 0. 0. 0. 0. 0. 0. 0. 3. 5. 0. 0. 0. 0. 0.
      0. 0. 0. 0. 5. 3. 0. 0. 0. 0. 0. 0. 0. 0. 0. 2. 6. 0. 0. 0. 0. 0.
      0. 5. 3. 0. 0. 0. 0. 0. 0. 0. 4. 4. 0. 0. 0. 0. 0. 0. 0. 0. 8. 0.
      0. 0. 0. 0. 0. 0. 0. 0. 8. 0. 0. 0. 0. 0. 0. 0. 0. 0. 8. 0. 0. 0.
      0. 0. 0. 0. 0. 0. 1. 7. 0. 0. 0. 0. 0. 0. 0. 0. 0. 0. 7. 1. 0. 0.
      0. 0. 0. 0. 0. 0. 0. 2. 1. 5. 0. 0. 0. 0. 0. 8. 0. 0. 0. 0. 0. 0.
      0. 0. 0. 8. 0. 0. 0. 0. 0. 0. 0. 0. 0. 8. 0. 0. 0. 0. 0. 0. 0. 0.
      0. 8. 0. 0. 0. 0. 0. 0. 0. 0. 0. 8. 0. 0. 0. 0. 0. 0. 0. 0. 0. 8.
      0. 0. 0. 0. 0. 0. 0. 0. 0. 1. 7. 0. 0. 0. 0. 0. 0. 0. 0. 0. 0. 8.
      0. 0. 0. 0. 0. 0. 8. 0. 0. 0. 0. 0. 0. 0. 0. 0. 2. 2. 4. 0. 0. 0.
      0. 0. 0. 0. 0. 0. 8. 0. 0. 0. 0. 0. 0. 0. 0. 0. 8. 0. 0. 0. 0. 0.
      0. 0. 0. 0. 8. 0. 0. 0. 0. 0. 0. 0. 0. 0. 8. 0. 0. 0. 0. 0. 0. 0.
      0. 1. 1. 1. 1. 4. 0. 0. 0. 0. 0. 0. 0. 0. 5. 1. 2. 0. 0. 0. 8. 0.
      0. 0. 0. 0. 0. 0. 0. 0. 1. 3. 4. 0. 0. 0. 0. 0. 0. 0. 0. 0. 5. 3.
      0. 0. 0. 0. 0. 0. 0. 0. 4. 4. 0. 0. 0. 0. 0. 0. 0. 0. 8. 0. 0. 0.
      0. 0. 0. 0. 0. 0. 8. 0. 0. 0. 0. 0. 0. 0. 0. 1. 1. 1. 0. 1. 2. 2.
      0. 0. 0. 0. 0. 0. 5. 1. 0. 2. 0. 0. 8. 0. 0. 0. 0. 0. 0. 0. 0. 0.
      2. 3. 3. 0. 0. 0. 0. 0. 0. 0. 0. 0. 0. 8. 0. 0. 0. 0. 0. 0. 0. 0.
      2. 6. 0. 0. 0. 0. 0. 0. 0. 0. 8. 0. 0. 0. 0. 0. 0. 0. 0. 0. 8. 0.
      0. 0. 0. 0. 0. 0. 0. 2. 0. 1. 1. 4. 0. 0. 0. 0. 0. 0. 0. 0. 6. 1.
      1. 0. 0. 0.</_>
    <_>
      0. 0. 0. 0. 0. 0. 0. 0. 0. 0. 0. 0. 0. 0. 0. 0. 0. 0. 0. 0. 0. 0.
      0. 0. 0. 0. 0. 0. 0. 0. 0. 0. 0. 0. 0. 0. 0. 0. 0. 0. 0. 0. 0. 0.
      0. 0. 0. 0. 0. 0. 0. 0. 0. 0. 0. 0. 0. 0. 0. 6. 0. 0. 0. 0. 0. 0.
      0. 0. 2. 6. 0. 0. 0. 0. 0. 0. 0. 0. 8. 0. 0. 0. 0. 0. 0. 0. 0. 0.
      0. 0. 0. 0. 0. 0. 0. 0. 0. 0. 0. 0. 0. 0. 0. 0. 0. 0. 0. 0. 0. 0.
      0. 0. 0. 0. 0. 0. 0. 0. 0. 0. 0. 0. 0. 0. 0. 0. 0. 0. 0. 0. 0. 0.
      0. 0. 0. 0. 0. 0. 0. 4. 0. 0. 0. 0. 0. 0. 0. 0. 0. 8. 0. 0. 0. 0.
      0. 0. 0. 0. 0. 8. 0. 0. 0. 0. 0. 0. 0. 0. 0. 0. 0. 0. 0. 0. 0. 0.
      0. 0. 0. 0. 0. 0. 0. 0. 0. 0. 0. 0. 0. 0. 0. 0. 0. 0. 0. 0. 0. 0.
      0. 0. 0. 0. 0. 0. 0. 0. 0. 0. 0. 0. 0. 0. 0. 0. 0. 0. 0. 0. 0. 0.
      0. 0. 0. 0. 0. 0. 0. 0. 0. 5. 0. 0. 0. 0. 0. 0. 0. 0. 0. 4. 0. 0.
      0. 0. 0. 0. 0. 0. 0. 0. 0. 0. 0. 0. 0. 0. 0. 0. 0. 0. 0. 0. 0. 0.
      0. 0. 0. 0. 0. 0. 0. 0. 0. 0. 0. 0. 0. 0. 0. 0. 0. 0. 0. 0. 0. 0.
      0. 0. 0. 0. 0. 0. 0. 0. 0. 0. 0. 0. 0. 2. 0. 0. 0. 0. 0. 0. 0. 0.
      0. 8. 0. 0. 0. 0. 0. 0. 0. 0. 0. 1. 0. 0. 0. 0. 0. 0. 0. 0. 0. 0.
      0. 0. 0. 0. 0. 0. 0. 0. 0. 0. 0. 0. 0. 0. 0. 0. 0. 0. 0. 0. 0. 0.
      0. 0. 0. 0. 0. 0. 0. 0. 0. 0. 0. 0. 0. 0. 0. 0. 0. 0. 0. 0. 0. 0.
      0. 0. 0. 0. 0. 2. 0. 0. 0. 0. 0. 0. 0. 0. 0. 7. 0. 0. 0. 0. 0. 0.
      0. 0. 0. 0. 0. 0. 0. 0. 0. 0. 0. 0. 0. 0. 0. 0. 0. 0. 0. 0. 0. 0.
      0. 0. 0. 0. 0. 0. 0. 0. 0. 0. 0. 0. 0. 0. 0. 0. 0. 0. 0. 0. 0. 0.
      0. 0. 0. 0. 0. 0. 0. 0. 0. 0. 0. 0. 0. 0. 0. 0. 0. 0. 0. 0. 0. 0.
      0. 0. 0. 0. 0. 0. 0. 5. 0. 0. 0. 0. 0. 0. 0. 0. 0. 0. 0. 0. 0. 0.
      0. 0. 0. 0. 0. 0. 0. 0. 0. 0. 0. 0. 0. 0. 0. 0. 0. 0. 0. 0. 0. 0.
      0. 0. 0. 0. 0. 0. 0. 0. 0. 0. 0. 0. 0. 0. 0. 0. 0. 0. 0. 0. 0. 0.
      0. 0. 0. 0. 0. 0. 0. 0. 0. 0. 0. 0. 0. 0. 0. 0. 0. 0. 0. 0. 0. 0.
      0. 0. 0. 0. 0. 0. 0. 0. 0. 0. 0. 0. 0. 0. 0. 0. 0. 0. 0. 0. 0. 0.
      0. 0. 0. 0. 0. 0. 0. 0. 0. 0. 0. 0. 0. 0. 0. 0. 0. 0. 0. 0. 0. 0.
      0. 0. 0. 0. 0. 0. 0. 0. 0. 0. 0. 0. 0. 0. 0. 0. 0. 0. 0. 0. 0. 0.
      0. 0. 0. 0. 0. 0. 0. 0. 0. 0. 0. 0. 0. 0. 0. 0. 0. 0. 0. 0. 0. 0.
      0. 0. 8. 0. 0. 0. 0. 0. 0. 0. 0. 0. 0. 1. 2. 3. 2. 0. 0. 0. 0. 0.
      0. 0. 0. 3. 5. 0. 0. 0. 0. 0. 0. 1. 6. 1. 0. 0. 0. 0. 0. 0. 3. 5.
      0. 0. 0. 0. 0. 0. 0. 0. 3. 1. 2. 2. 0. 0. 0. 0. 0. 0. 0. 0. 4. 4.
      0. 0. 0. 0. 0. 0. 5. 2. 1. 0. 0. 0. 0. 0. 0. 0. 0. 1. 1. 2. 4. 0.
      0. 0. 0. 0. 0. 0. 0. 0. 8. 0. 0. 0. 0. 0. 0. 0. 2. 6. 0. 0. 0. 0.
      0. 0. 0. 2. 6. 0. 0. 0. 0. 0. 0. 0. 0. 8. 0. 0. 0. 0. 0. 0. 0. 0.
      0. 2. 2. 4. 0. 0. 0. 0. 0. 0. 0. 0. 0. 7. 1. 0. 0. 0. 0. 0. 0. 1.
      0. 7. 0. 0. 0. 0. 0. 0. 0. 0. 0. 7. 1. 0. 0. 0. 0. 0. 0. 0. 0. 8.
      0. 0. 0. 0. 0. 0. 0. 0. 0. 8. 0. 0. 0. 0. 0. 0. 0. 0. 0. 8. 0. 0.
      0. 0. 0. 0. 0. 0. 8. 0. 0. 0. 0. 0. 0. 0. 0. 0. 1. 4. 3. 0. 0. 0.
      0. 0. 0. 0. 0. 0. 8. 0. 0. 0. 0. 0. 0. 0. 0. 1. 7. 0. 0. 0. 0. 0.
      0. 0. 1. 7. 0. 0. 0. 0. 0. 0. 0. 0. 0. 8. 0. 0. 0. 0. 0. 0. 0. 0.
      0. 8. 0. 0. 0. 0. 0. 0. 0. 0. 0. 8. 0. 0. 0. 0. 0. 0. 0. 0. 0. 8.
      0. 0. 0. 0. 0. 0. 0. 0. 0. 1. 4. 3. 0. 0. 0. 0. 0. 0. 0. 0. 0. 6.
      2. 0. 0. 0. 0. 0. 0. 0. 0. 0. 2. 1. 0. 0. 0. 1. 2. 4. 1. 0. 0. 0.
      0. 0. 0. 0. 0. 0. 8. 0. 0. 0. 0. 0. 0. 0. 0. 0. 8. 0. 0. 0. 0. 0.
      0. 0. 0. 3. 5. 0. 0. 0. 0. 0. 0. 0. 0. 3. 5. 0. 0. 0. 0. 0. 0. 0.
      0. 0. 1. 7. 0. 0. 0. 0. 0. 0. 0. 0. 0. 3. 5. 0. 0. 0. 0. 0. 0. 0.
      0. 0. 0. 1. 1. 0. 0. 2. 4. 2. 0. 0. 0. 0. 0. 0. 0. 0. 0. 0. 1. 7.
      0. 0. 0. 0. 0. 0. 0. 0. 7. 1. 0. 0. 0. 0. 0. 0. 0. 0. 8. 0. 0. 0.
      0. 0. 0. 0. 0. 0. 5. 3. 0. 0. 0. 0. 0. 0. 0. 0. 0. 1. 7. 0. 0. 0.
      0. 0. 0. 0. 0. 0. 3. 5. 0. 0. 0. 0. 0. 0. 0. 0. 0. 0. 3. 1. 0. 2.
      4. 1. 1. 0. 0. 0. 0. 0. 0. 0. 0. 0. 0. 4. 4. 0. 0. 0. 0. 0. 0. 0.
      2. 6. 0. 0. 0. 0. 0. 0. 0. 0. 0. 8. 0. 0. 0. 0. 0. 0. 0. 0. 0. 8.
      0. 0. 0. 0. 0. 0. 0. 0. 0. 2. 6. 0. 0. 0. 0. 0. 0. 0. 0. 0. 0. 1.
      1. 6. 0. 0. 0. 0. 0. 0. 0. 0. 0. 8. 2. 4. 2. 0. 0. 0. 0. 0. 0. 0.
      0. 0. 0. 2. 2. 3. 1. 0. 0. 0. 0. 0. 0. 0. 0. 5. 3. 0. 0. 0. 0. 0.
      0. 0. 0. 3. 5. 0. 0. 0. 0. 0. 0. 0. 0. 2. 6. 0. 0. 0. 0. 0. 0. 0.
      0. 0. 5. 2. 1. 0. 0. 0. 0. 0. 0. 0. 0. 0. 1. 7. 0. 0. 0. 0. 0. 0.
      0. 0. 0. 8.</_>
    <_>
      0. 0. 0. 0. 0. 0. 0. 0. 1. 7. 0. 0. 0. 0. 0. 0. 0. 0. 0. 8. 0. 0.
      0. 0. 0. 0. 0. 0. 0. 8. 0. 0. 0. 0. 0. 0. 0. 1. 2. 5. 0. 0. 0. 0.
      0. 1. 5. 2. 0. 0. 0. 0. 3. 1. 3. 1. 0. 0. 0. 0. 0. 5. 3. 0. 0. 0.
      0. 0. 0. 0. 4. 4. 0. 0. 0. 0. 0. 0. 0. 0. 0. 0. 0. 0. 0. 0. 0. 0.
      8. 0. 0. 0. 0. 0. 0. 0. 0. 0. 8. 0. 0. 0. 0. 0. 0. 0. 0. 0. 2. 6.
      0. 0. 0. 0. 0. 0. 0. 3. 5. 0. 0. 0. 0. 0. 0. 2. 3. 3. 0. 0. 0. 0.
      5. 1. 0. 2. 0. 0. 0. 0. 0. 1. 7. 0. 0. 0. 0. 0. 0. 0. 0. 8. 0. 0.
      0. 0. 0. 0. 0. 0. 0. 0. 0. 0. 0. 0. 0. 0. 8. 0. 0. 0. 0. 0. 0. 0.
      0. 0. 8. 0. 0. 0. 0. 0. 0. 0. 0. 0. 8. 0. 0. 0. 0. 0. 0. 0. 0. 0.
      8. 0. 0. 0. 0. 0. 0. 0. 4. 4. 0. 0. 0. 0. 0. 2. 2. 2. 2. 0. 0. 0.
      0. 0. 8. 0. 0. 0. 0. 0. 0. 0. 0. 0. 2. 2. 4. 0. 0. 0. 0. 0. 0. 0.
      0. 0. 0. 0. 0. 0. 8. 0. 0. 0. 0. 0. 0. 0. 0. 0. 8. 0. 0. 0. 0. 0.
      0. 0. 0. 0. 8. 0. 0. 0. 0. 0. 0. 0. 0. 3. 5. 0. 0. 0. 0. 0. 0. 0.
      6. 2. 0. 0. 0. 0. 0. 0. 3. 5. 0. 0. 0. 0. 0. 0. 3. 4. 1. 0. 0. 0.
      0. 0. 0. 0. 0. 1. 7. 0. 0. 0. 0. 0. 0. 0. 0. 0. 0. 0. 0. 8. 0. 0.
      0. 0. 0. 0. 0. 0. 0. 3. 5. 0. 0. 0. 0. 0. 0. 0. 2. 6. 0. 0. 0. 0.
      0. 0. 0. 0. 8. 0. 0. 0. 0. 0. 0. 0. 0. 8. 0. 0. 0. 0. 0. 0. 0. 0.
      7. 1. 0. 0. 0. 0. 0. 0. 4. 3. 1. 0. 0. 0. 0. 0. 0. 0. 5. 3. 0. 0.
      0. 0. 0. 0. 0. 0. 0. 0. 0. 0. 2. 6. 0. 0. 0. 0. 0. 0. 0. 0. 4. 4.
      0. 0. 0. 0. 0. 0. 0. 0. 8. 0. 0. 0. 0. 0. 0. 0. 0. 1. 7. 0. 0. 0.
      0. 0. 0. 0. 0. 8. 0. 0. 0. 0. 0. 0. 0. 0. 4. 4. 0. 0. 0. 0. 0. 5.
      1. 1. 1. 0. 0. 0. 0. 0. 0. 1. 7. 0. 0. 0. 0. 0. 0. 0. 0. 0. 0. 0.
      0. 0. 8. 0. 0. 0. 0. 0. 0. 0. 0. 0. 8. 0. 0. 0. 0. 0. 0. 0. 0. 0.
      8. 0. 0. 0. 0. 0. 0. 0. 0. 7. 1. 0. 0. 0. 0. 0. 0. 0. 0. 8. 0. 0.
      0. 0. 0. 0. 0. 0. 4. 4. 0. 0. 0. 0. 0. 0. 0. 6. 2. 0. 0. 0. 0. 0.
      0. 0. 0. 8. 0. 0. 0. 0. 0. 0. 0. 0. 0. 0. 0. 0. 8. 0. 0. 0. 0. 0.
      0. 0. 0. 0. 8. 0. 0. 0. 0. 0. 0. 0. 0. 0. 8. 0. 0. 0. 0. 0. 0. 0.
      0. 6. 2. 0. 0. 0. 0. 0. 0. 0. 0. 8. 0. 0. 0. 0. 0. 0. 0. 0. 4. 4.
      0. 0. 0. 0. 0. 0. 0. 0. 8. 0. 0. 0. 0. 0. 0. 0. 0. 0. 8. 0. 0. 0.
      0. 0. 8. 0. 0. 0. 0. 0. 0. 0. 0. 0. 0. 1. 1. 1. 1. 0. 1. 3. 0. 0.
      0. 0. 0. 0. 0. 0. 0. 3. 5. 0. 0. 0. 2. 2. 1. 1. 1. 1. 0. 0. 0. 4.
      4. 0. 0. 0. 0. 0. 0. 0. 0. 6. 2. 0. 0. 0. 0. 0. 0. 0. 0. 3. 5. 0.
      0. 0. 0. 0. 0. 0. 7. 1. 0. 0. 0. 0. 0. 0. 0. 0. 1. 1. 0. 1. 0. 1.
      0. 0. 1. 0. 0. 0. 0. 0. 0. 0. 0. 0. 0. 0. 0. 0. 0. 0. 0. 0. 0. 0.
      1. 2. 0. 0. 0. 1. 2. 2. 1. 1. 1. 0. 0. 0. 4. 4. 0. 0. 0. 0. 0. 0.
      0. 0. 4. 4. 0. 0. 0. 0. 0. 0. 0. 0. 0. 8. 0. 0. 0. 0. 0. 0. 1. 1.
      3. 3. 0. 0. 0. 0. 0. 0. 0. 0. 0. 0. 0. 0. 0. 0. 0. 1. 0. 0. 0. 0.
      0. 0. 0. 0. 0. 0. 0. 0. 0. 0. 0. 0. 0. 0. 0. 1. 0. 0. 0. 0. 0. 3.
      1. 2. 1. 1. 0. 0. 0. 0. 8. 0. 0. 0. 0. 0. 0. 0. 0. 8. 0. 0. 0. 0.
      0. 0. 0. 0. 0. 5. 1. 2. 0. 0. 0. 0. 0. 0. 0. 0. 0. 1. 1. 1. 0. 1.
      0. 0. 0. 0. 0. 0. 0. 0. 0. 1. 0. 0. 0. 0. 0. 0. 0. 0. 0. 0. 0. 0.
      0. 0. 0. 0. 0. 0. 0. 3. 0. 0. 0. 0. 0. 3. 1. 2. 2. 0. 0. 0. 0. 0.
      0. 8. 0. 0. 0. 0. 0. 0. 0. 1. 7. 0. 0. 0. 0. 0. 0. 0. 0. 2. 2. 2.
      1. 0. 1. 0. 0. 0. 0. 0. 0. 0. 0. 0. 0. 0. 0. 0. 0. 1. 1. 1. 1. 0.
      1. 1. 0. 0. 0. 0. 0. 0. 0. 0. 0. 0. 0. 0. 0. 0. 0. 0. 0. 0. 0. 7.
      0. 0. 0. 0. 0. 0. 0. 0. 0. 1. 0. 0. 0. 0. 0. 0. 0. 1. 2. 4. 0. 0.
      0. 0. 0. 2. 2. 4. 0. 0. 0. 0. 0. 0. 3. 2. 1. 1. 0. 1. 0. 0. 0. 0.
      0. 0. 0. 3. 2. 0. 0. 0. 0. 0. 0. 1. 2. 1. 2. 2. 0. 0. 0. 0. 0. 0.
      0. 0. 0. 0. 0. 0. 0. 0. 0. 0. 0. 0. 0. 0. 0. 0. 0. 0. 0. 0. 0. 0.
      0. 0. 0. 0. 0. 0. 0. 0. 0. 0. 0. 0. 0. 0. 0. 0. 0. 0. 0. 0. 0. 0.
      0. 0. 0. 0. 4. 2. 1. 0. 0. 1. 0. 0. 0. 0. 0. 2. 6. 0. 0. 0. 0. 0.
      0. 0. 0. 0. 0. 0. 0. 0. 0. 0. 0. 0. 0. 0. 0. 0. 0. 0. 0. 0. 0. 0.
      0. 0. 0. 0. 0. 0. 0. 0. 0. 0. 0. 0. 0. 0. 0. 0. 0. 0. 0. 0. 0. 0.
      0. 0. 0. 0. 0. 0. 0. 0. 0. 0. 0. 0. 0. 0. 0. 0. 0. 0. 0. 0. 0. 0.
      0. 4. 0. 0. 0. 0. 0. 0. 0. 1. 7. 0. 0. 0. 0. 0. 0. 0. 0. 1. 1. 2.
      0. 0. 0. 0. 0. 0. 0. 0. 0. 0. 0. 0. 0. 0. 0. 0. 0. 0. 0. 0. 0. 0.
      0. 0. 0. 0. 0. 0. 0. 0. 0. 0. 0. 0. 0. 0. 0. 0. 0. 0. 0. 0. 0. 0.
      0. 0. 0. 0. 0. 0. 0. 0. 0. 0. 0. 0. 0. 0. 0. 0. 0. 0. 0. 0. 0. 0.
      0. 0. 0. 0.</_>
    <_>
      0. 0. 0. 0. 0. 0. 0. 0. 0. 0. 0. 0. 0. 0. 0. 0. 0. 0. 0. 0. 0. 0.
      0. 0. 0. 0. 0. 0. 0. 0. 0. 0. 0. 0. 0. 0. 0. 0. 0. 0. 0. 0. 0. 0.
      0. 0. 0. 0. 0. 0. 0. 0. 0. 0. 0. 0. 0. 0. 0. 0. 3. 0. 0. 0. 0. 0.
      0. 0. 0. 0. 3. 5. 0. 0. 0. 0. 0. 0. 0. 0. 0. 0. 0. 0. 0. 0. 0. 0.
      0. 0. 0. 0. 0. 0. 0. 0. 0. 0. 0. 0. 0. 0. 0. 0. 0. 0. 0. 0. 0. 0.
      0. 0. 0. 0. 0. 0. 0. 0. 0. 0. 0. 0. 0. 0. 0. 0. 0. 0. 0. 0. 0. 0.
      0. 0. 0. 0. 0. 0. 0. 0. 0. 0. 0. 0. 0. 0. 0. 0. 0. 0. 0. 0. 0. 0.
      0. 0. 0. 0. 0. 0. 0. 0. 0. 0. 0. 0. 0. 0. 0. 0. 0. 0. 0. 0. 0. 0.
      0. 0. 0. 0. 0. 0. 0. 0. 0. 0. 0. 0. 0. 0. 0. 0. 0. 0. 0. 0. 0. 0.
      0. 0. 0. 0. 0. 0. 0. 0. 0. 0. 0. 0. 0. 0. 0. 0. 0. 0. 0. 0. 0. 0.
      0. 0. 0. 0. 0. 0. 0. 0. 0. 0. 0. 0. 0. 0. 0. 0. 0. 0. 0. 0. 0. 0.
      0. 0. 0. 0. 0. 0. 0. 0. 0. 0. 0. 0. 0. 0. 0. 0. 0. 0. 0. 0. 0. 0.
      0. 0. 0. 0. 0. 0. 0. 0. 0. 0. 0. 0. 0. 0. 0. 0. 0. 0. 0. 0. 0. 0.
      0. 0. 0. 0. 0. 0. 0. 0. 0. 0. 0. 0. 0. 0. 0. 0. 0. 0. 0. 0. 0. 0.
      0. 0. 0. 0. 0. 0. 0. 0. 0. 0. 0. 0. 0. 0. 0. 0. 0. 0. 0. 0. 0. 0.
      0. 0. 0. 0. 0. 0. 0. 0. 0. 0. 0. 0. 0. 0. 0. 0. 0. 0. 0. 0. 0. 0.
      0. 0. 0. 0. 0. 0. 0. 0. 0. 0. 0. 0. 0. 0. 0. 0. 0. 0. 0. 0. 0. 0.
      0. 0. 0. 0. 0. 0. 0. 0. 0. 0. 0. 0. 0. 0. 0. 0. 0. 0. 0. 0. 0. 0.
      0. 0. 0. 0. 0. 0. 0. 0. 0. 0. 0. 0. 0. 0. 0. 0. 0. 0. 0. 0. 0. 0.
      0. 0. 0. 0. 0. 0. 0. 0. 0. 0. 0. 0. 0. 0. 0. 0. 0. 0. 0. 0. 0. 0.
      0. 0. 0. 0. 0. 0. 0. 0. 0. 0. 0. 0. 0. 0. 0. 0. 0. 0. 0. 0. 0. 0.
      0. 0. 0. 0. 0. 0. 0. 0. 0. 0. 0. 0. 0. 0. 0. 0. 0. 0. 0. 0. 0. 0.
      0. 0. 0. 0. 0. 0. 1. 4. 0. 0. 0. 0. 0. 0. 0. 0. 1. 0. 0. 0. 0. 0.
      0. 0. 0. 0. 0. 0. 0. 0. 0. 0. 0. 0. 0. 0. 0. 0. 0. 0. 0. 0. 0. 0.
      0. 0. 0. 0. 0. 0. 0. 0. 0. 0. 0. 0. 0. 0. 0. 0. 0. 0. 0. 0. 0. 0.
      0. 0. 0. 0. 0. 0. 0. 0. 0. 0. 0. 0. 0. 0. 0. 0. 0. 0. 0. 0. 3. 0.
      0. 0. 0. 0. 0. 0. 0. 0. 2. 0. 0. 0. 0. 0. 0. 0. 0. 0. 7. 0. 0. 0.
      0. 0. 0. 0. 0. 0. 8. 0. 0. 0. 0. 0. 0. 0. 0. 0. 5. 0. 0. 0. 0. 0.
      0. 0. 0. 0. 0. 0. 0. 0. 0. 0. 0. 0. 0. 0. 2. 0. 0. 0. 0. 0. 0. 0.
      0. 0. 1. 2. 2. 1. 0. 1. 1. 0. 0. 0. 0. 0. 0. 0. 0. 0. 0. 0. 1. 0.
      0. 0. 0. 0. 0. 0. 0. 0. 0. 0. 0. 0. 0. 0. 0. 0. 0. 0. 0. 0. 0. 0.
      0. 0. 0. 0. 0. 0. 0. 0. 0. 0. 0. 0. 0. 0. 0. 0. 0. 0. 0. 0. 0. 0.
      0. 0. 0. 0. 0. 0. 0. 0. 0. 0. 0. 0. 0. 0. 0. 0. 0. 0. 0. 0. 1. 0.
      0. 0. 0. 1. 0. 0. 0. 0. 0. 0. 0. 0. 0. 0. 0. 0. 0. 0. 0. 0. 0. 0.
      0. 0. 0. 0. 0. 0. 0. 0. 0. 0. 0. 0. 0. 0. 0. 0. 0. 0. 0. 0. 0. 0.
      0. 0. 0. 0. 0. 0. 0. 0. 0. 0. 0. 0. 0. 0. 0. 0. 0. 0. 0. 0. 0. 0.
      0. 0. 0. 0. 0. 0. 0. 0. 0. 0. 0. 0. 0. 0. 0. 0. 0. 1. 0. 0. 0. 0.
