<?xml version="1.0"?>
<opencv_storage>
<opencv_ml_svm>
  <format>3</format>
  <svmType>C_SVC</svmType>
  <kernel>
    <type>RBF</type>
    <gamma>1.</gamma></kernel>
  <C>1.</C>
  <term_criteria><epsilon>1.1920928955078125e-07</epsilon>
    <iterations>1000</iterations></term_criteria>
  <var_count>1764</var_count>
  <class_count>3</class_count>
  <class_labels type_id="opencv-matrix">
    <rows>3</rows>
    <cols>1</cols>
    <dt>i</dt>
    <data>
      0 1 5</data></class_labels>
  <sv_total>122</sv_total>
  <support_vectors>
    <_>
      2.58614957e-01 2.19488189e-01 1.83837891e-01 8.83795992e-02
      2.58614957e-01 2.98683289e-02 1.67616308e-02 1.38635049e-02
      1.94541186e-01 2.58614957e-01 2.58614957e-01 1.59376159e-01
      1.25771865e-01 2.52989121e-02 1.03539228e-02 3.27206589e-02
      2.60371845e-02 2.58614957e-01 1.46422416e-01 2.51533210e-01
      2.39199728e-01 1.37984604e-01 2.58614957e-01 4.80221175e-02
      3.80028598e-02 1.35682160e-02 6.23539053e-02 2.58614957e-01
      2.58614957e-01 2.58614957e-01 1.71771839e-01 3.77512015e-02
      2.83812527e-02 9.12725031e-02 4.82226238e-02 1.07664935e-01
      2.02452943e-01 2.16537058e-01 2.69034445e-01 2.38355994e-01
      3.11943311e-02 2.30413000e-03 1.70198753e-02 1.19661856e-02
      1.92336217e-01 1.94579229e-01 2.69034445e-01 2.69034445e-01
      2.41592407e-01 6.51126727e-02 1.73687544e-02 9.86082572e-03
      3.13012325e-03 1.79576233e-01 1.65412992e-01 2.69034445e-01
      2.69034445e-01 2.69034445e-01 8.78531858e-02 3.28897350e-02
      6.06575459e-02 3.02672125e-02 2.90627182e-02 3.62797864e-02
      1.17418163e-01 2.69034445e-01 2.69034445e-01 1.96080431e-01
      6.62537143e-02 4.46928293e-02 2.22285856e-02 4.92481468e-03
      1.75529778e-01 2.54291177e-01 2.04620481e-01 1.30907610e-01
      1.31200254e-01 3.78072485e-02 1.69272237e-02 1.13422982e-02
      2.03515574e-01 2.48111293e-01 1.71921328e-01 2.62879461e-01
      2.23365143e-01 1.32367939e-01 2.47786865e-02 8.50160792e-03
      9.89558268e-03 2.45709494e-01 2.53310725e-02 1.13530055e-01
      1.57876238e-01 2.62879461e-01 2.62879461e-01 2.25098163e-01
      6.26407117e-02 8.44905525e-02 4.15621139e-03 2.71684192e-02
      1.02325961e-01 1.74698144e-01 2.62879461e-01 2.62879461e-01
      2.62879461e-01 4.29432541e-02 6.54610172e-02 5.71850268e-03
      2.94238538e-01 1.94942296e-01 2.27288485e-01 1.38534546e-01
      4.03682068e-02 2.74025695e-03 1.26978877e-04 1.43933354e-03
      2.94238538e-01 2.94238538e-01 9.65337232e-02 2.68257037e-02
      1.47552211e-02 3.55730462e-03 3.49025213e-05 7.38058053e-03
      3.50211412e-02 2.94238538e-01 1.53263822e-01 1.37063473e-01
      1.87864453e-01 2.94238538e-01 2.94238538e-01 9.77979451e-02
      7.53048621e-03 1.29528316e-02 1.26790553e-01 2.94238538e-01
      8.19152817e-02 6.15945831e-02 1.12713739e-01 4.92201224e-02
      1.79434605e-02 8.22275579e-02 2.15075463e-01 2.94238538e-01
      3.24140131e-01 1.31014958e-02 0. 0. 2.69137509e-03 4.11758774e-05
      1.46802114e-02 1.35008067e-01 3.24140131e-01 3.16009313e-01
      3.42765381e-03 1.23702222e-04 0. 3.66072683e-03 2.74505874e-06
      3.96177135e-02 2.76012510e-01 3.24140131e-01 1.59276918e-01
      5.74542535e-03 2.17287045e-04 7.55646150e-04 1.32170419e-04
      1.48981158e-02 1.12801716e-01 3.24140131e-01 3.24140131e-01
      2.71279700e-02 2.62056798e-04 0. 0. 0. 2.57257875e-02
      1.59014344e-01 3.24140131e-01 3.24140131e-01 3.21388572e-01
      1.93348546e-02 1.26417950e-02 4.82559996e-03 5.29091712e-03 0.
      6.59202710e-02 3.22104871e-01 3.22104871e-01 3.22104871e-01
      6.72533959e-02 4.09879312e-02 2.47622952e-02 1.21869305e-02
      1.09771278e-03 3.87054719e-02 2.17163876e-01 3.22104871e-01
      2.28685420e-02 8.56278348e-04 1.40739561e-04 0. 1.98327913e-03
      1.74877420e-02 2.42011279e-01 3.22104871e-01 2.13018566e-01
      6.66197613e-02 1.08462609e-02 2.65357806e-03 2.14479063e-02
      1.76834892e-02 2.09512115e-02 1.49109483e-01 3.22104871e-01
      2.78638124e-01 2.81819969e-01 4.79336306e-02 2.94593256e-02
      4.99797538e-02 6.88830912e-02 1.64278019e-02 7.52772987e-02
      1.67613849e-01 2.81819969e-01 2.81819969e-01 7.16886437e-03
      4.71666688e-03 1.90495364e-02 7.32336566e-02 1.52676970e-01
      2.81819969e-01 2.81819969e-01 2.81819969e-01 1.33312315e-01
      3.15368362e-02 5.95924677e-03 4.51012328e-02 4.64796424e-02
      2.88169365e-02 8.58431384e-02 2.81819969e-01 2.81819969e-01
      1.11425810e-01 2.06199605e-02 2.22392450e-03 1.27083724e-02
      6.59595504e-02 1.29680768e-01 2.81819969e-01 2.53057986e-01
      2.81819969e-01 5.63580543e-02 1.74980760e-01 2.73179501e-01
      1.97432846e-01 2.73287296e-01 3.58561762e-02 9.88324732e-03
      1.02722435e-03 2.17873137e-02 1.71846598e-01 2.73287296e-01
      2.73287296e-01 2.09589496e-01 7.57093355e-02 3.92902531e-02
      6.04353659e-02 3.52025628e-02 4.14553508e-02 7.96524528e-03
      7.39172176e-02 2.03258395e-01 2.73287296e-01 2.73287296e-01
      2.06247911e-01 1.76331289e-02 0. 4.48293146e-03 6.88789273e-03
      6.48254082e-02 2.36493260e-01 2.73287296e-01 2.73287296e-01
      2.73287296e-01 1.12435415e-01 2.35467907e-02 9.53867938e-03
      1.15381859e-01 1.95402503e-01 1.68295234e-01 2.33710632e-01
      1.30997881e-01 1.37011424e-01 1.42995834e-01 6.77766576e-02
      2.92262249e-02 2.99403146e-02 6.42885640e-02 1.27227783e-01
      2.73757547e-01 2.73757547e-01 2.18557522e-01 1.32519066e-01
      6.08771071e-02 6.93219528e-03 9.61851235e-03 4.66980189e-02
      8.62470195e-02 2.12112010e-01 2.73757547e-01 2.73757547e-01
      2.73757547e-01 8.49329159e-02 2.97622625e-02 3.71347442e-02
      5.53347878e-02 6.24293424e-02 1.37368649e-01 2.73757547e-01
      2.73757547e-01 2.73757547e-01 1.32210121e-01 6.05115145e-02
      3.78854573e-02 5.82365580e-02 6.72531873e-02 1.77204341e-01
      3.20536435e-01 2.59814203e-01 5.44621982e-02 6.65630102e-02
      8.02881178e-03 2.73945183e-02 4.26061787e-02 2.68416218e-02
      1.34054542e-01 3.20536435e-01 3.20536435e-01 3.67827341e-02
      5.43664955e-02 9.23382491e-03 4.98589799e-02 4.79529947e-02
      8.08953270e-02 1.04246758e-01 3.20536435e-01 3.20536435e-01
      1.55988321e-01 1.63930982e-01 3.84040400e-02 3.12768035e-02
      3.87707204e-02 5.61721697e-02 1.34487286e-01 3.20536435e-01
      3.20536435e-01 1.24346174e-01 1.46691307e-01 2.53817644e-02
      3.88395600e-02 3.44715677e-02 4.41858247e-02 3.09617817e-01
      3.63584667e-01 2.46618003e-01 1.84524171e-02 1.92672815e-02
      4.97981422e-02 1.28460974e-01 3.58791687e-02 2.93261334e-02
      1.37829065e-01 1.92769215e-01 5.59183173e-02 1.25897169e-01
      2.14737400e-01 2.11907357e-01 4.00918908e-02 1.88499205e-02
      9.05993674e-03 2.22123981e-01 3.63584667e-01 3.37651044e-01
      6.94458932e-02 4.99519296e-02 3.48673277e-02 2.06935123e-01
      7.17154667e-02 1.33593725e-02 7.80448318e-02 2.75411695e-01
      1.36992946e-01 1.14402078e-01 1.26021445e-01 1.75803408e-01
      7.72629231e-02 8.57301801e-03 7.69172271e-04 4.03441302e-03
      4.68994072e-03 5.49849533e-02 2.41799429e-01 2.61579901e-01
      2.61579901e-01 4.41752654e-03 4.17539006e-04 1.93285104e-03
      5.80629753e-03 2.17234511e-02 8.96492824e-02 2.61579901e-01
      2.61579901e-01 2.09298655e-01 2.61188626e-01 2.48528957e-01
      2.38299649e-02 1.80522874e-02 2.68434621e-02 9.17764008e-02
      2.08215579e-01 2.61579901e-01 2.04593673e-01 2.32402042e-01
      2.61579901e-01 9.39448252e-02 7.20417872e-02 6.90393597e-02
      1.10588476e-01 2.31492519e-01 2.61579901e-01 1.86081618e-01
      3.26094101e-03 3.46796820e-03 4.99643944e-03 3.66093814e-02
      1.10942259e-01 8.01576674e-02 2.63668090e-01 2.63668090e-01
      1.54065758e-01 4.32905145e-02 4.48645763e-02 2.41184384e-02
      5.56691475e-02 1.13579758e-01 9.96924639e-02 1.73907503e-01
      2.63668090e-01 2.35754684e-01 1.38881028e-01 2.63668090e-01
      1.42735243e-01 1.77012131e-01 2.63668090e-01 1.26508653e-01
      1.40142351e-01 2.63668090e-01 1.78394049e-01 8.83777440e-02
      1.86359271e-01 2.31294379e-01 2.61004984e-01 2.55893260e-01
      1.44490078e-01 6.64734393e-02 1.35124654e-01 9.21470523e-02
      1.32884547e-01 9.43718478e-02 6.04230762e-02 4.83016968e-02
      4.93573360e-02 5.74678704e-02 7.49353692e-02 2.37506449e-01
      2.53410727e-01 1.09397084e-01 4.75430116e-02 4.40250412e-02
      6.22929633e-02 1.82460919e-01 9.88233089e-02 1.20024577e-01
      1.73518315e-01 2.53410727e-01 2.07534194e-01 2.53410727e-01
      2.53410727e-01 2.53410727e-01 8.19546804e-02 7.01014400e-02
      1.28583089e-01 9.79061276e-02 1.26185030e-01 1.52310744e-01
      2.53410727e-01 2.53410727e-01 2.53410727e-01 2.46523604e-01
      1.24639452e-01 2.31613159e-01 1.18148498e-01 1.09299555e-01
      3.21660377e-03 4.82794549e-03 4.91245985e-02 2.70148039e-01
      2.92350709e-01 2.65302002e-01 4.71976474e-02 0. 2.83527002e-03
      2.95498630e-05 2.24564830e-03 3.92460637e-02 2.92350709e-01
      2.92350709e-01 2.92350709e-01 1.04994372e-01 3.89001099e-03
      1.70365674e-03 1.52452826e-03 3.15840100e-03 1.15686730e-01
      2.92350709e-01 2.92350709e-01 1.99949309e-01 4.05603424e-02 0.
      1.52452826e-03 2.86799343e-03 6.03489205e-03 6.83031976e-02
      2.92350709e-01 2.92350709e-01 2.92350709e-01 8.64352435e-02
      4.41459427e-03 0. 7.19233765e-04 4.48978040e-03 1.20748132e-02
      1.05777450e-01 2.74023950e-01 3.15457672e-01 1.57718658e-01
      1.97972264e-02 1.08041000e-02 3.65003347e-02 1.95249114e-02
      2.33208574e-02 4.70394604e-02 2.97278762e-01 3.15457672e-01
      2.06559360e-01 6.45102561e-02 7.61134550e-02 5.45498636e-03
      8.70851055e-03 3.47646400e-02 1.30187362e-01 3.15457672e-01
      3.15457672e-01 1.94805145e-01 2.55184658e-02 1.22333895e-02
      8.41720328e-02 3.24756913e-02 4.67000082e-02 1.08801380e-01
      3.15457672e-01 3.15457672e-01 2.18770385e-01 7.50336051e-02
      9.90474224e-02 9.10774246e-02 4.05302681e-02 9.28082466e-02
      9.67678651e-02 2.75407970e-01 2.75407970e-01 1.84427187e-01
      1.27516657e-01 1.05012983e-01 6.93221465e-02 2.97151078e-02
      8.18079486e-02 1.98377684e-01 2.75407970e-01 2.75407970e-01
      1.65683255e-01 1.25325590e-01 6.97733909e-02 2.37080082e-01
      7.92153105e-02 5.87676205e-02 1.11263797e-01 2.43751973e-01
      1.82481110e-01 1.09646983e-01 9.51642916e-02 2.13102624e-01
      1.84103161e-01 6.66549802e-02 4.75195535e-02 1.68921471e-01
      2.75407970e-01 1.75965860e-01 1.80353269e-01 1.34029612e-01
      2.02279598e-01 9.12386999e-02 2.78029591e-02 1.39094470e-02
      1.48648560e-01 2.79254287e-01 2.06743717e-01 1.13688864e-01
      9.21253711e-02 1.03466831e-01 2.79254287e-01 2.49068812e-01
      3.67878377e-02 1.87835172e-02 8.71585086e-02 9.25806984e-02
      6.36037141e-02 8.36704075e-02 2.72653610e-01 1.60696521e-01
      9.60999206e-02 8.03013369e-02 1.44893274e-01 2.79254287e-01
      1.44428223e-01 1.76260084e-01 1.31487802e-01 1.64597824e-01
      2.79254287e-01 2.79254287e-01 2.79254287e-01 1.66957036e-01
      1.08458683e-01 4.93179858e-02 3.63559239e-02 5.05663157e-02
      2.30238453e-01 2.80115187e-01 2.80115187e-01 2.84009557e-02
      8.95578507e-03 8.31229333e-03 2.45216824e-02 3.18572707e-02
      4.55440879e-02 1.47692427e-01 2.80115187e-01 2.80115187e-01
      4.79373671e-02 2.37675924e-02 1.27247777e-02 7.78591558e-02
      1.06694028e-01 9.59950313e-02 1.53125122e-01 2.80115187e-01
      2.80115187e-01 2.12338895e-01 1.28615022e-01 4.38723303e-02
      2.96757873e-02 5.60946129e-02 3.84079218e-02 1.13118559e-01
      2.80115187e-01 2.80115187e-01 1.02950446e-01 8.22028890e-02
      6.59131184e-02 2.51704365e-01 2.80115187e-01 1.46056935e-01
      1.52272269e-01 1.66659966e-01 2.46945545e-01 7.47513399e-02
      6.25722259e-02 6.45461231e-02 1.30728111e-01 1.10576846e-01
      1.67932585e-01 1.97377801e-01 5.51911406e-02 9.57845598e-02
      1.82151943e-01 2.82687098e-01 1.56462297e-01 9.69912410e-02
      2.12220326e-02 1.47942349e-01 9.69314277e-02 1.14764385e-01
      9.17507187e-02 5.30898049e-02 8.34130347e-02 1.09673381e-01
      2.82687098e-01 2.82687098e-01 2.12451667e-01 1.81566507e-01
      3.05842329e-02 7.21531287e-02 2.82687098e-01 2.82687098e-01
      2.82687098e-01 2.02994019e-01 5.51297404e-02 1.64580762e-01
      9.38572437e-02 8.83190036e-02 1.13389529e-01 1.79493785e-01
      2.87388891e-01 1.21950783e-01 9.21384916e-02 1.31445363e-01
      5.07103056e-02 2.29667127e-02 8.92132297e-02 1.31075934e-01
      1.19401574e-01 1.90801620e-01 9.38189402e-02 1.52198806e-01
      2.64252901e-01 5.81162199e-02 2.86136717e-02 3.17370743e-02
      4.58226576e-02 2.31960386e-01 2.87388891e-01 2.87388891e-01
      1.69247732e-01 1.18492566e-01 4.02403399e-02 1.88781880e-02
      7.03238472e-02 1.01959184e-01 1.06758736e-01 2.87388891e-01
      2.87388891e-01 2.87388891e-01 2.87388891e-01 8.08738619e-02
      7.56366923e-02 8.80279287e-04 2.55300310e-02 1.82336822e-01
      2.81647265e-01 2.81647265e-01 1.03266783e-01 5.00593241e-03
      3.49915819e-04 8.80279287e-04 5.42443758e-03 2.28691548e-02
      1.54953793e-01 2.81647265e-01 2.81647265e-01 1.97205350e-01
      5.59039712e-02 1.27394255e-02 0. 9.20297694e-04 4.00243439e-02
      1.68402225e-01 2.77276844e-01 2.81647265e-01 2.81647265e-01
      4.42171581e-02 2.80428790e-02 2.70484528e-03 2.15114583e-03
      5.23841754e-02 1.70487061e-01 2.81647265e-01 2.70699024e-01
      2.81647265e-01 1.74645230e-01 7.77528584e-02 4.66574309e-03
      2.32129227e-02 1.79991294e-02 6.82942197e-02 1.60762817e-01
      1.94448501e-01 2.42070243e-01 2.42070243e-01 8.85995403e-02
      5.18539734e-02 1.50261134e-01 1.34065926e-01 1.34914204e-01
      1.35961354e-01 2.42070243e-01 2.42070243e-01 2.42070243e-01
      1.54289618e-01 1.85923159e-01 2.88454387e-02 6.79951534e-02
      1.02600060e-01 1.40037939e-01 1.42524719e-01 1.89246491e-01
      2.10335016e-01 1.16834886e-01 7.12723881e-02 2.42070243e-01
      2.42070243e-01 2.42070243e-01 1.65332988e-01 9.21996757e-02
      1.12978399e-01 1.50684357e-01 1.69908732e-01 2.42070243e-01
      1.87944070e-01 1.43824980e-01 1.22877724e-01 8.86588991e-02
      1.23516373e-01 5.87489903e-02 4.65192720e-02 1.30431309e-01
      2.15148076e-01 1.26612961e-01 7.23188445e-02 5.63875027e-02
      7.58225322e-02 5.92109263e-02 4.40496765e-02 5.84506430e-02
      2.51895517e-01 2.97957242e-01 2.97957242e-01 2.76141733e-01
      2.08836630e-01 9.00454074e-02 4.31358926e-02 5.98328598e-02
      7.14897811e-02 2.45613798e-01 2.97957242e-01 1.80482194e-01
      6.14382699e-02 7.99697787e-02 5.99177778e-02 4.96403836e-02
      6.95732161e-02 1.87068447e-01 2.97957242e-01 2.97957242e-01
      8.34265053e-02 6.80050701e-02 8.07722360e-02 1.19921982e-01
      1.23693302e-01 7.21270293e-02 5.97343221e-02 1.58200532e-01
      2.01109499e-01 1.85229138e-01 2.64155835e-01 2.64155835e-01
      2.56709069e-01 1.73472792e-01 7.39676207e-02 2.43049748e-02
      4.08896208e-02 8.64957944e-02 1.33602500e-01 5.37765175e-02
      4.30421904e-02 6.19141757e-02 7.47043341e-02 6.33636117e-02
      1.91683471e-01 2.64155835e-01 2.64155835e-01 2.64155835e-01
      2.64155835e-01 2.64155835e-01 1.72422975e-01 1.32450774e-01
      1.11308359e-01 9.45626050e-02 1.90912008e-01 2.52078652e-01
      1.33803830e-01 2.57695854e-01 2.57695854e-01 2.57695854e-01
      9.49338675e-02 4.35258932e-02 4.13949378e-02 1.79773010e-02
      2.11196449e-02 1.14574224e-01 1.04819454e-01 2.15405881e-01
      2.57695854e-01 1.47704393e-01 1.75348997e-01 1.55630127e-01
      8.58914927e-02 7.11197183e-02 8.07248279e-02 1.92184836e-01
      2.57695854e-01 2.57695854e-01 2.13345513e-01 1.92809150e-01
      4.33677398e-02 4.55556922e-02 4.57519516e-02 5.25703765e-02
      9.06799734e-02 2.57695854e-01 2.57695854e-01 2.57695854e-01
      2.20740005e-01 5.67578264e-02 3.10580749e-02 1.12435713e-01
      4.92121540e-02 4.10784222e-02 1.16204873e-01 1.57960668e-01
      1.39939740e-01 1.80715546e-01 1.03453152e-01 6.56121671e-02
      5.36013767e-02 1.67246386e-02 3.30618620e-02 1.70049056e-01
      3.05657834e-01 3.05657834e-01 1.29045069e-01 2.58064941e-02
      2.34912056e-02 1.35422153e-02 6.70640767e-02 9.08281654e-02
      3.05657834e-01 3.05657834e-01 2.53046811e-01 1.95783153e-01
      7.12149814e-02 6.09629527e-02 1.23867616e-01 3.87680046e-02
      4.95530069e-02 1.67036310e-01 3.05657834e-01 3.05657834e-01
      3.05657834e-01 7.65375271e-02 5.01228012e-02 4.95672747e-02
      1.34935533e-03 7.63447303e-03 1.06119789e-01 3.05544078e-01
      3.05544078e-01 1.00743949e-01 1.12332515e-02 9.62999742e-03
      1.38168391e-02 1.19550340e-02 1.46699883e-02 4.18456793e-02
      2.81877249e-01 3.05544078e-01 2.16644198e-01 7.71607757e-02
      3.96367647e-02 6.92764744e-02 1.04852868e-02 9.32071637e-03
      7.41903558e-02 2.92545527e-01 3.05544078e-01 3.00142109e-01
      3.08585782e-02 1.67283230e-02 2.55145021e-02 2.65471023e-02
      6.40207343e-03 5.90551347e-02 2.72923619e-01 3.05544078e-01
      3.05544078e-01 4.34697196e-02 4.16701436e-02 9.22031254e-02
      7.20377371e-04 6.64290320e-03 2.57633086e-02 6.88928887e-02
      2.95023918e-01 2.95023918e-01 6.64307177e-02 2.50342973e-02
      2.27985810e-03 1.51197251e-03 2.26824526e-02 4.04730700e-02
      1.60332575e-01 2.95023918e-01 2.95023918e-01 1.30105183e-01
      5.06218895e-02 5.62282279e-03 4.39683860e-03 1.20440533e-03
      1.58263708e-03 2.32814178e-02 2.95023918e-01 2.95023918e-01
      2.95023918e-01 1.32163450e-01 2.20666565e-02 1.93452695e-03
      1.03937369e-03 7.39260204e-03 1.65060461e-01 2.95023918e-01
      2.95023918e-01 2.95023918e-01 1.51226625e-01 9.21588112e-03
      9.37503390e-03 3.70516181e-02 5.86693697e-02 1.57322004e-01
      2.59933889e-01 1.35010958e-01 5.09184636e-02 2.50742417e-02
      1.74028818e-02 1.24226794e-01 1.91514701e-01 2.38939077e-01
      2.97085911e-01 3.05844396e-01 8.49156603e-02 1.66781712e-02
      3.29925418e-02 7.92479888e-02 6.29453314e-03 8.53513647e-03
      2.76386607e-02 1.77730694e-01 3.05844396e-01 2.70269275e-01
      2.53337145e-01 8.33101496e-02 8.58088490e-03 3.23276818e-02
      5.58836721e-02 1.06471896e-01 3.05844396e-01 3.05844396e-01
      3.05844396e-01 6.71889260e-02 2.83413399e-02 2.05746982e-02
      1.87526181e-01 1.49998784e-01 1.38074934e-01 1.54787242e-01
      1.82503730e-01 8.48904029e-02 3.20984423e-02 1.02653012e-01
      2.11574793e-01 1.22307606e-01 3.87985148e-02 5.91658168e-02
      1.29993275e-01 1.84364974e-01 1.61464989e-01 1.98398605e-01
      2.61676997e-01 2.61676997e-01 5.97093254e-02 7.08991662e-02
      7.57508799e-02 2.43052766e-01 2.61676997e-01 2.61676997e-01
      3.96152623e-02 4.37833034e-02 4.72146012e-02 9.19268504e-02
      6.43812492e-02 1.03256129e-01 2.61676997e-01 2.61676997e-01
      2.61676997e-01 1.43169850e-01 1.80745468e-01 1.69395074e-01
      6.08533025e-02 2.97576226e-02 2.74720062e-02 1.16638206e-01
      1.41182482e-01 1.27433121e-01 2.38698870e-01 2.38698870e-01
      2.38083884e-01 9.53884125e-02 7.84156024e-02 7.24249855e-02
      9.62060913e-02 1.41966596e-01 1.63220018e-01 2.09826469e-01
      1.70031667e-01 1.20758355e-01 6.46044388e-02 4.95840311e-02
      1.40935868e-01 2.38698870e-01 2.38698870e-01 1.92266330e-01
      1.94277734e-01 1.96856052e-01 2.38698870e-01 2.38698870e-01
      1.03214920e-01 1.16680115e-01 1.92384735e-01 1.47117198e-01
      1.77124381e-01 2.08148688e-01 1.59143373e-01 2.38698870e-01
      4.60908115e-02 4.62446436e-02 8.10614675e-02 1.57659754e-01
      2.65416563e-01 2.20793620e-01 6.73729628e-02 8.16834196e-02
      5.87709807e-02 4.94141616e-02 9.55697224e-02 2.71172285e-01
      2.71172285e-01 2.71172285e-01 2.01562613e-01 2.75149662e-02
      4.53732349e-02 5.67960627e-02 2.71172285e-01 1.43499851e-01
      5.00582382e-02 1.12655699e-01 2.12027445e-01 1.34842694e-01
      7.87701905e-02 1.23258509e-01 1.55687064e-01 2.71172285e-01
      2.71172285e-01 2.71172285e-01 2.29442433e-01 1.84368536e-01
      8.29348043e-02 1.90178435e-02 7.04055429e-02 1.06571592e-01
      7.72407278e-02 9.30583850e-02 2.54300803e-01 1.91632926e-01
      1.45730108e-01 1.19165741e-01 6.90089613e-02 8.81240293e-02
      9.42743346e-02 1.24613523e-01 7.46431872e-02 9.91918594e-02
      7.55394399e-02 3.18009913e-01 3.18009913e-01 1.31361514e-01
      7.58421198e-02 1.06264614e-01 3.18009913e-01 3.18009913e-01
      2.02514112e-01 9.29362252e-02 5.41582443e-02 3.13219689e-02
      6.56820610e-02 7.68337995e-02 7.91218877e-02 3.18009913e-01
      3.18009913e-01 9.23936889e-02 1.85760967e-02 1.03424899e-01
      8.73837620e-02 1.46105900e-01 7.26117194e-02 1.49496064e-01
      1.78785473e-01 7.20869973e-02 1.33367017e-01 1.66291580e-01
      2.84162611e-01 2.43697509e-01 7.05067888e-02 3.40296105e-02
      9.05612782e-02 2.07276568e-01 1.60933852e-01 1.45279363e-01
      2.31789470e-01 2.84162611e-01 1.49489135e-01 2.17630398e-02
      3.77225019e-02 9.66155902e-02 2.84162611e-01 2.84162611e-01
      8.46169516e-02 4.75050211e-02 6.66504800e-02 5.25591671e-02
      6.58900291e-02 7.19840974e-02 2.65495360e-01 2.84162611e-01
      2.84162611e-01 1.06148444e-01 6.31630570e-02 3.03312819e-02
      1.68135110e-02 1.66212935e-02 7.70774186e-02 2.44473249e-01
      2.49649435e-02 2.00740006e-02 1.17340768e-02 1.21901985e-02
      2.75439978e-01 1.59587622e-01 3.02603781e-01 2.70110101e-01
      8.79461691e-02 2.60285195e-02 6.91386871e-03 4.05342598e-03
      3.16224806e-02 7.45381191e-02 2.76008785e-01 3.02603781e-01
      3.02603781e-01 2.34911487e-01 3.84576432e-02 3.53130959e-02
      2.50830669e-02 4.36352603e-02 3.02603781e-01 2.80738026e-02
      1.03733175e-01 1.49308175e-01 1.00308321e-01 1.07414626e-01
      3.50913741e-02 1.60266496e-02 1.72184259e-02 1.10091828e-02
      3.41616049e-02 2.48565286e-01 3.02603781e-01 3.02603781e-01
      4.50779535e-02 3.80343795e-02 1.94951911e-02 8.28246474e-02
      1.65594026e-01 1.29904762e-01 2.75508285e-01 2.75508285e-01
      2.48234004e-01 1.16983294e-01 1.20715544e-01 5.38823120e-02
      2.49402806e-01 2.75508285e-01 2.03937382e-01 7.73871988e-02
      1.31638587e-01 2.10589677e-01 1.48592070e-01 7.00796321e-02
      2.70223543e-02 3.85529473e-02 2.14587953e-02 1.20154051e-02
      9.32017416e-02 2.75508285e-01 2.75508285e-01 2.75508285e-01
      2.15867460e-01 6.98185638e-02 1.19571544e-01 1.24164626e-01
      3.48522626e-02 2.47937068e-02 1.58567488e-01 2.75508285e-01
      1.65681377e-01 2.49438450e-01 8.42207372e-02 2.19299272e-01
      2.49438450e-01 2.08771944e-01 5.66360131e-02 4.05080393e-02
      5.40834963e-02 2.49438450e-01 2.49438450e-01 1.23519301e-01
      2.49438450e-01 2.49438450e-01 1.80891335e-01 9.37482119e-02
      1.53423473e-01 2.49438450e-01 2.49438450e-01 2.49438450e-01
      8.03041756e-02 6.96020275e-02 8.64548460e-02 3.08611114e-02
      2.05962621e-02 3.50316092e-02 1.42470583e-01 2.49438450e-01
      2.49438450e-01 6.20731525e-02 3.41194421e-02 2.80957390e-02
      8.65135714e-03 1.76678356e-02 6.84803724e-02 2.15031549e-01
      1.83722764e-01 6.14746660e-02 9.04489830e-02 2.51314551e-01
      1.51047438e-01 6.94064125e-02 2.26078592e-02 1.75298125e-01
      3.41392159e-01 3.41392159e-01 8.70757028e-02 7.34611601e-02
      8.54204446e-02 4.34247442e-02 4.98726107e-02 2.27301996e-02
      1.04703330e-01 3.41392159e-01 2.61459291e-01 9.24981013e-02
      1.76663138e-02 1.83168445e-02 1.81451831e-02 8.10031500e-03
      2.35501863e-03 9.05470252e-02 3.41392159e-01 3.41392159e-01
      6.67164847e-02 8.52015708e-03 3.97525216e-03 5.82630234e-03
      6.98054209e-03 1.98929061e-04 5.13554551e-02 3.41392159e-01
      3.84968549e-01 2.19068974e-01 1.83551293e-02 1.75568406e-02
      2.80072801e-02 2.69443858e-02 1.48148937e-02 3.93317379e-02
      2.38139868e-01 3.84968549e-01 3.84968549e-01 4.98893671e-02
      3.19368057e-02 2.31949296e-02 1.32947983e-02 4.03294293e-03
      1.87599007e-02 8.04631189e-02 3.84968549e-01 1.10924274e-01
      1.07458262e-02 1.52093102e-03 5.60030050e-04 1.71054085e-03
      8.27056821e-04 8.74583237e-03 2.45362550e-01 3.84968549e-01
      2.05264479e-01 2.25981940e-02 2.37943535e-03 1.37309439e-03
      4.69476497e-03 4.80677374e-03 9.01940372e-03 1.41338617e-01
      3.63770932e-01 3.63770932e-01 5.75715415e-02 1.75135750e-02
      5.49359620e-03 3.13998875e-03 1.23107824e-02 1.58515591e-02
      7.94109553e-02 3.63770932e-01 3.63770932e-01 3.94206792e-02
      1.75193243e-04 6.96988369e-04 7.42977345e-03 2.72418801e-02
      2.68628541e-02 1.20352723e-01 3.63770932e-01 2.07094893e-01
      3.12323477e-02 6.52079144e-03 4.22526104e-03 3.85440048e-03
      5.61348908e-03 1.59837585e-02 1.66991830e-01 3.63770932e-01
      2.32698083e-01 3.50363292e-02 4.98675695e-03 3.10529512e-03
      1.04230203e-04 1.75945321e-03 1.85101833e-02 2.15853795e-01
      3.39908302e-01 2.13271722e-01 1.39630372e-02 1.50971382e-03
      9.80425393e-04 2.06054538e-03 1.71390641e-02 4.96619269e-02
      1.97785839e-01 3.39908302e-01 2.67788976e-01 4.21005301e-02
      7.97573570e-03 1.26054685e-03 0. 1.80101562e-02 6.34891540e-02
      2.20303655e-01 3.39908302e-01 3.39908302e-01 3.97184230e-02
      1.07777969e-03 0. 0. 3.58234695e-03 1.01605784e-02 1.44622326e-01
      3.39908302e-01 3.39908302e-01 2.20383480e-01 6.69995695e-03 0. 0.
      1.07361106e-02 1.21918144e-02 1.33737281e-01 3.11801434e-02
      4.61436808e-02 6.36357665e-02 1.34425879e-01 3.68606299e-01
      4.84126881e-02 3.24504375e-02 4.35720086e-02 5.32245226e-02
      1.19528085e-01 8.05538222e-02 6.92956746e-02 9.91345644e-02
      4.19829264e-02 2.86438074e-02 2.25082226e-02 1.02463894e-01
      1.43904075e-01 3.68606299e-01 9.78800431e-02 7.25989267e-02
      8.84962007e-02 3.68606299e-01 4.99878079e-02 2.23115869e-02
      8.07534605e-02 3.68606299e-01 3.68606299e-01 1.14011295e-01
      8.74799117e-02 1.21716939e-01 6.55320287e-02 2.04800023e-03
      1.05690779e-02 7.72319287e-02 3.68606299e-01 1.73848778e-01
      1.08688660e-01 5.08845486e-02 2.99561117e-02 1.18286097e-02
      4.87762736e-03 6.73500961e-03 9.12390426e-02 2.23261297e-01
      2.44149283e-01 1.72767952e-01 6.50555342e-02 1.74925029e-02
      1.84880048e-02 1.09860692e-02 1.32137844e-02 5.88828288e-02
      3.02505940e-01 3.84021252e-01 1.25403151e-01 3.94848734e-02
      4.13408242e-02 2.98359748e-02 4.86541685e-04 6.03065593e-03
      3.02870646e-02 3.84021252e-01 3.84021252e-01 3.84021252e-01
      9.28663835e-02 1.95171870e-02 3.23837772e-02 8.87009501e-03
      8.69860686e-03 1.85874905e-02 2.85254031e-01 1.20117702e-01
      1.00811243e-01 1.93390008e-02 5.81560517e-03 1.03896372e-02
      7.50516402e-03 6.39805617e-03 1.08780572e-02 4.28971089e-02
      2.89490372e-01 1.71057984e-01 1.77655313e-02 3.39480001e-03
      9.26463865e-03 3.45154526e-03 2.19291798e-03 5.78838121e-03
      5.28724492e-02 4.52281147e-01 4.52281147e-01 1.02641821e-01
      7.23703392e-03 1.01472512e-02 5.86980022e-03 3.47050326e-03
      3.53815639e-03 4.38508317e-02 4.52281147e-01 4.52281147e-01
      8.15805942e-02 2.86899088e-03 7.30619114e-03 2.96461326e-03
      1.52128271e-03 2.37914617e-03 1.19817235e-01 3.14316005e-01
      1.22033961e-01 9.04938858e-03 1.38687028e-03 9.10613860e-04
      2.51993537e-04 1.23195467e-04 4.00853343e-03 9.02435780e-02
      3.83382410e-01 1.05161421e-01 4.47725039e-03 3.10903648e-04 0. 0.
      0. 3.93647375e-03 2.03856349e-01 3.83382410e-01 3.83382410e-01
      2.10386030e-02 4.49387851e-04 1.96015066e-03 1.27675058e-03
      4.21110220e-04 1.87497237e-03 1.88557580e-01 3.83382410e-01
      2.34975874e-01 6.18477678e-03 3.39829392e-04 1.58113567e-03
      2.17762333e-03 6.17845799e-04 1.03275222e-03 3.77347946e-01
      3.74101549e-01 9.90800112e-02 4.98407613e-03 6.78690150e-04
      6.19009234e-06 7.31030959e-05 1.86442732e-04 2.65446072e-03
      1.91040084e-01 3.74101549e-01 1.33082598e-01 7.82866310e-03
      1.34078565e-03 3.51476250e-04 1.55043520e-03 2.28120876e-03
      6.16252329e-03 2.98401743e-01 3.74101549e-01 1.69418395e-01
      1.15148199e-03 1.06962027e-04 2.19184835e-03 2.10729009e-03
      4.94255510e-04 8.04260664e-04 2.97294527e-01 3.74101549e-01
      1.63580447e-01 2.91197677e-03 9.16712524e-05 2.60596420e-03
      1.52149529e-03 2.36602826e-03 6.37522992e-03 3.73262852e-01
      3.68938774e-01 1.34217739e-01 9.87336040e-03 3.25445482e-03
      1.26153138e-03 1.17288169e-03 2.61025177e-03 8.83524679e-03
      2.75051177e-01 3.68938774e-01 1.74147353e-01 1.18524740e-02
      2.49731331e-03 9.35725984e-04 8.09201883e-05 7.06139253e-04
      5.03779342e-03 3.40431899e-01 3.68938774e-01 1.11801453e-01
      5.18159801e-03 2.81652261e-04 1.48331479e-03 5.15213644e-04
      3.01425997e-03 6.37083082e-03 3.05199206e-01 3.68938774e-01
      1.04202338e-01 5.71250729e-03 1.51272758e-03 2.23698653e-03
      1.68997864e-03 3.13052698e-03 8.21797922e-03 3.08040768e-01
      3.13977212e-01 3.13977212e-01 1.49741583e-02 8.66539267e-05 0.
      1.96842448e-05 5.07737335e-04 3.31968046e-03 3.10735047e-01
      3.13977212e-01 3.13977212e-01 1.00928016e-01 5.56636602e-04
      3.24038010e-05 0. 2.14382750e-03 6.99876435e-03 2.66302377e-01
      3.13977212e-01 1.17891856e-01 2.91328249e-03 1.86363410e-03
      2.41665612e-03 9.15682467e-04 1.92391430e-03 1.28520140e-02
      3.13977212e-01 2.96910703e-01 1.61473259e-01 1.19022746e-02
      1.93794363e-03 4.08696942e-03 6.47392473e-04 1.73157279e-03
      1.89939234e-02 3.13977212e-01</_>
    <_>
      2.71046609e-01 1.43272132e-01 1.49633199e-01 8.35823268e-02
      2.71046609e-01 5.04507571e-02 1.09896362e-02 1.41681079e-02
      1.99206427e-01 2.71046609e-01 2.71046609e-01 1.47598267e-01
      3.51267569e-02 1.09483004e-02 1.03529086e-02 2.59243790e-02
      1.05279861e-02 2.71046609e-01 1.25710502e-01 2.13182241e-01
      2.71046609e-01 1.91820875e-01 2.71046609e-01 5.11595309e-02
      5.41406218e-03 1.26048420e-02 2.08077058e-02 2.71046609e-01
      2.71046609e-01 2.71046609e-01 1.80908486e-01 4.78415638e-02
      1.92520432e-02 2.65857819e-02 2.87534148e-02 8.91198516e-02
      3.11789930e-01 3.11789930e-01 1.40359417e-01 2.41416469e-02
      6.39432482e-03 9.79994657e-04 1.56136183e-02 5.66750113e-03
      2.02081382e-01 3.11789930e-01 3.11789930e-01 9.17182416e-02
      4.32298034e-02 2.39177495e-02 1.01931952e-02 7.72104226e-03
      1.26935560e-02 2.10398763e-01 2.62879193e-01 3.11789930e-01
      2.69742966e-01 1.20888978e-01 6.63115010e-02 3.17149386e-02
      3.46899405e-02 2.52677556e-02 6.62429780e-02 2.27772802e-01
      3.11789930e-01 1.15456738e-01 1.57854855e-01 1.34675682e-01
      9.11972374e-02 6.72231615e-02 5.58858402e-02 6.62103072e-02
      3.01593661e-01 3.01593661e-01 1.02378331e-01 1.06311157e-01
      6.08503111e-02 6.07276708e-02 1.42595014e-02 7.78260967e-03
      1.70391724e-01 3.01593661e-01 3.01593661e-01 1.57304704e-01
      1.60819143e-01 1.39896408e-01 1.28687412e-01 1.36816008e-02
      1.79896376e-03 1.98879823e-01 1.21369019e-01 9.94611457e-02
      6.55708387e-02 1.54965326e-01 1.88206360e-01 3.01593661e-01
      1.43846557e-01 4.50373590e-02 5.28624468e-02 7.25435168e-02
      6.61495253e-02 8.57255310e-02 1.65362105e-01 3.01593661e-01
      3.01593661e-01 1.27695277e-01 1.39504923e-02 2.48159394e-02
      3.20920765e-01 2.30405539e-01 7.24103823e-02 7.84175172e-02
      7.19997883e-02 4.05607000e-02 1.40863599e-03 3.05878893e-02
      3.20920765e-01 3.20920765e-01 4.31978628e-02 1.21858763e-02
      1.10579524e-02 6.02290547e-03 1.77967941e-05 1.91283913e-03
      1.36199161e-01 3.20920765e-01 1.13575481e-01 6.83925822e-02
      8.15190971e-02 1.58366323e-01 3.20920765e-01 3.14656109e-01
      1.96264926e-02 5.25196232e-02 1.13301709e-01 9.11718756e-02
      2.88068932e-02 3.74921001e-02 5.22840023e-02 7.32718334e-02
      3.81488651e-02 7.14039281e-02 3.10457945e-01 3.20920765e-01
      3.32530469e-01 1.12661626e-02 0. 0. 6.18166151e-03 0.
      7.81715102e-03 1.81442440e-01 3.32530469e-01 3.32530469e-01
      3.06835189e-03 0. 0. 7.25753931e-03 0. 1.24172224e-02
      2.17502445e-01 3.32530469e-01 4.99150492e-02 1.88513985e-03
      2.36251066e-03 1.23987766e-03 2.96420744e-03 1.63508058e-02
      1.27184525e-01 3.32530469e-01 3.32530469e-01 4.60268781e-02 0. 0.
      0. 0. 2.61428673e-03 1.01561330e-01 3.32530469e-01 3.32530469e-01
      3.20697367e-01 2.09765485e-03 0. 0. 5.07774763e-03 3.16058728e-03
      3.80720533e-02 2.53297508e-01 3.20697367e-01 3.20697367e-01
      2.64606699e-02 8.29328084e-04 0. 1.43917715e-02 1.16207693e-02
      8.42816010e-02 2.56819010e-01 3.20697367e-01 2.42159162e-02
      9.60567268e-05 3.18253209e-04 5.02239622e-04 9.42596525e-04
      1.13086561e-02 1.50179565e-01 3.20697367e-01 3.20697367e-01
      2.59377658e-02 4.92993323e-03 4.35870746e-03 6.68454031e-03
      1.19279707e-02 2.88209580e-02 1.83771417e-01 3.20697367e-01
      2.79895037e-01 3.08534831e-01 1.15241654e-01 2.12963112e-02
      4.88970382e-03 2.69157644e-02 1.21702515e-02 6.71665668e-02
      2.07307398e-01 3.08534831e-01 3.08534831e-01 1.99423537e-01
      6.07302599e-02 1.97254997e-02 2.73392536e-02 4.28404361e-02
      5.26586510e-02 8.20700079e-02 3.08534831e-01 1.78588927e-01
      5.07898666e-02 1.33989435e-02 1.96854118e-02 2.18602531e-02
      1.52736278e-02 1.15269653e-01 3.08534831e-01 3.08534831e-01
      3.08534831e-01 1.11801416e-01 4.50749211e-02 3.01690120e-02
      2.26877667e-02 2.58547813e-02 6.09778203e-02 2.18926132e-01
      3.08534831e-01 3.14158015e-02 1.50221303e-01 2.77136773e-01
      2.77136773e-01 2.77136773e-01 1.55728254e-02 3.72602697e-03
      3.68685834e-03 8.86063464e-03 9.82685909e-02 1.93630353e-01
      2.77136773e-01 2.77136773e-01 1.78535908e-01 6.62726462e-02
      8.38212445e-02 3.52927931e-02 2.40731165e-02 7.88758788e-03
      7.25063980e-02 2.36684456e-01 2.77136773e-01 2.77136773e-01
      6.17614537e-02 8.08002893e-03 2.76782201e-04 9.18197166e-03
      4.23610164e-03 2.59738155e-02 1.69566259e-01 2.77136773e-01
      2.77136773e-01 2.77136773e-01 1.34012699e-01 1.73610542e-02
      2.00262340e-03 1.07128114e-01 1.64587542e-01 1.92420080e-01
      1.42540291e-01 2.12052405e-01 1.61127031e-01 1.42771676e-01
      5.62755242e-02 4.20740396e-02 1.19172253e-01 8.90018493e-02
      7.58422241e-02 1.24388695e-01 1.54468432e-01 2.10284740e-01
      1.43360108e-01 1.06100716e-01 1.28721476e-01 1.86205506e-02
      2.53607240e-02 8.38850662e-02 1.53245226e-01 2.91108191e-01
      2.91108191e-01 2.91108191e-01 5.97752966e-02 1.02496510e-02
      1.48021445e-01 6.51333109e-02 6.92883059e-02 8.57655331e-02
      2.59655356e-01 2.91108191e-01 2.91108191e-01 2.07724139e-01
      1.93231210e-01 4.87567596e-02 8.32208525e-03 1.34151950e-02
      3.34482715e-02 9.35412049e-02 3.55258524e-01 1.57232061e-01
      6.49656728e-02 5.97108677e-02 1.97344851e-02 1.84569240e-03
      5.95652545e-03 2.29503196e-02 3.55258524e-01 3.55258524e-01
      1.34518594e-01 2.09047962e-02 1.06302230e-02 6.54319152e-02
      2.49671321e-02 1.78526416e-02 4.88861687e-02 3.04286122e-01
      3.55258524e-01 1.42247573e-01 9.80593115e-02 1.09108277e-01
      1.67416725e-02 5.96989878e-03 1.63199473e-02 1.57864451e-01
      3.55258524e-01 3.55258524e-01 7.95062631e-02 2.16455366e-02
      1.85601395e-02 3.11184414e-02 1.69156715e-02 2.98092701e-02
      7.95282945e-02 3.91559929e-01 3.91559929e-01 4.36839648e-02
      1.95741169e-02 2.51762643e-02 5.94481640e-02 3.38188335e-02
      3.49126048e-02 4.67290729e-02 2.01446086e-01 1.74724579e-01
      1.27647787e-01 1.76437244e-01 9.25221965e-02 3.17675136e-02
      9.49734077e-03 1.63097903e-02 2.02140346e-01 3.91559929e-01
      3.91559929e-01 7.68278912e-02 2.14046948e-02 8.27246811e-03
      9.90975797e-02 4.49463427e-02 2.31347047e-02 6.14375360e-02
      2.47424290e-01 2.74381906e-01 1.56163484e-01 9.24676433e-02
      4.46934924e-02 3.52135003e-02 2.04062201e-02 1.04624750e-02
      5.94394049e-03 2.35051420e-02 8.25817287e-02 2.80463070e-01
      2.80463070e-01 1.95662141e-01 8.26339144e-03 7.39679264e-04 0.
      9.39221529e-04 6.78711385e-03 2.23013107e-02 2.80463070e-01
      2.80463070e-01 2.37627730e-01 2.46130854e-01 1.19582258e-01
      3.27822603e-02 6.45849183e-02 4.91895452e-02 1.22468933e-01
      1.89871103e-01 2.80463070e-01 1.62777096e-01 2.80463070e-01
      1.58465967e-01 2.53301077e-02 2.85659563e-02 8.92053396e-02
      8.30965713e-02 2.80463070e-01 2.80463070e-01 2.48717070e-01
      1.33130536e-03 0. 2.03138101e-03 1.46617480e-02 6.34070262e-02
      6.50767684e-02 2.49773249e-01 2.92612821e-01 1.71217129e-01
      2.73755211e-02 1.90767031e-02 5.32056317e-02 9.39792022e-02
      1.14014670e-01 1.07763484e-01 1.78053677e-01 2.92612821e-01
      2.01656610e-01 1.38120204e-01 7.00054243e-02 4.03107144e-02
      9.27251428e-02 2.92612821e-01 1.95708141e-01 2.92612821e-01
      2.92612821e-01 1.24928474e-01 3.56027596e-02 3.90825234e-02
      1.30879030e-01 2.46183828e-01 2.92612821e-01 2.28249460e-01
      1.76424474e-01 1.40870973e-01 4.12130468e-02 2.22317815e-01
      9.15218592e-02 8.22314247e-02 9.15420353e-02 3.61684039e-02
      2.38575172e-02 8.77855048e-02 2.59989738e-01 2.59989738e-01
      2.59989738e-01 1.37106597e-01 5.87308556e-02 3.51386704e-02
      1.78601444e-02 1.40789542e-02 7.61820674e-02 1.97094738e-01
      2.59989738e-01 2.59989738e-01 2.59989738e-01 2.37788782e-01
      2.59989738e-01 1.15612231e-01 7.22413585e-02 9.61875096e-02
      1.11123309e-01 8.69322345e-02 2.59989738e-01 2.59989738e-01
      1.87053502e-01 1.23971656e-01 9.91657898e-02 7.64689147e-02
      9.73203257e-02 1.54084161e-01 1.85295641e-01 1.29136781e-03
      8.52879696e-03 8.46817642e-02 2.99742281e-01 3.10639828e-01
      1.90903693e-01 1.36447717e-02 0. 2.01375689e-03 1.68167951e-03
      4.99574514e-03 5.46934381e-02 2.70922393e-01 3.10639828e-01
      3.10639828e-01 7.56847560e-02 9.79415700e-03 0. 5.39345574e-03
      5.56571269e-03 6.26421049e-02 2.15483412e-01 3.10639828e-01
      3.00402910e-01 3.50021049e-02 1.93134870e-03 2.69062212e-03
      2.22423859e-03 3.94166866e-03 2.09911652e-02 2.10264012e-01
      3.10639828e-01 3.10639828e-01 1.23550676e-01 1.05969887e-02
      1.25285180e-03 4.40676603e-03 1.10010384e-02 1.20723555e-02
      5.88169396e-02 2.50548631e-01 2.88706094e-01 2.21738219e-01
      3.98730822e-02 4.21398552e-04 3.39060724e-02 3.17225829e-02
      1.73646882e-02 3.57115120e-02 1.49703860e-01 2.88706094e-01
      2.88706094e-01 2.12709904e-01 7.57046863e-02 7.29220733e-03
      1.31818410e-02 9.51404031e-03 8.35784078e-02 2.85334259e-01
      2.88706094e-01 2.88706094e-01 7.15590194e-02 5.69724245e-03
      5.61633557e-02 4.73405756e-02 2.42995415e-02 8.69157985e-02
      2.59575754e-01 2.88706094e-01 2.88706094e-01 1.93796396e-01
      8.31224024e-02 7.51860440e-02 5.54711930e-02 4.55806926e-02
      1.29392564e-01 2.92736024e-01 2.52624661e-01 1.43588543e-01
      1.96191832e-01 1.49366111e-01 5.99899180e-02 2.47057900e-02
      9.49316323e-02 2.92736024e-01 2.92736024e-01 2.92736024e-01
      3.59636098e-02 5.74253574e-02 8.43338668e-02 1.30481452e-01
      6.02096096e-02 5.91163300e-02 1.25696644e-01 2.14151725e-01
      8.83770660e-02 7.86377490e-02 1.88126504e-01 1.93800509e-01
      1.26751125e-01 3.51160765e-02 1.21796302e-01 2.92736024e-01
      2.84273028e-01 1.14736408e-01 6.74774721e-02 1.84819654e-01
      1.82535022e-01 6.84224144e-02 7.26742810e-03 4.73581590e-02
      2.70317525e-01 2.70317525e-01 2.35853150e-01 6.42284602e-02
      1.03054091e-01 1.14098519e-01 2.25459486e-01 1.60443529e-01
      2.41960231e-02 6.68054819e-02 9.36844572e-02 1.02878354e-01
      1.16064370e-01 1.77955121e-01 2.09938869e-01 1.69249028e-01
      6.31004944e-02 1.20958425e-01 2.70317525e-01 1.76578447e-01
      1.02157556e-01 7.85618722e-02 1.78108528e-01 2.24354878e-01
      2.70317525e-01 2.70317525e-01 2.55963862e-01 1.07030220e-01
      4.05598506e-02 2.74026748e-02 3.91444750e-02 1.42477602e-01
      2.70317525e-01 2.66657650e-01 2.66657650e-01 1.81316584e-02
      3.03919539e-02 8.86217412e-03 2.06033327e-02 3.51345278e-02
      9.70490873e-02 1.51788205e-01 2.66657650e-01 2.26567760e-01
      1.65374372e-02 1.34664821e-02 3.67301777e-02 6.17580414e-02
      9.59791467e-02 1.52632415e-01 2.05322579e-01 2.66657650e-01
      2.66657650e-01 1.61377445e-01 3.34911123e-02 1.86512433e-02
      2.84985714e-02 3.61395776e-02 1.25230163e-01 1.92570180e-01
      2.66657650e-01 2.66657650e-01 4.55548875e-02 1.96254943e-02
      1.68653980e-01 2.66657650e-01 1.85931295e-01 2.43202522e-01
      2.33240321e-01 2.43741348e-01 9.02858898e-02 4.80393618e-02
      6.47443384e-02 2.16400772e-01 1.46280006e-01 1.90881833e-01
      1.82649389e-01 1.94845453e-01 3.22599150e-02 4.65203971e-02
      8.26409087e-02 2.34503984e-01 2.74018705e-01 1.18385330e-01
      7.68715665e-02 4.34027538e-02 4.82727401e-02 1.61840916e-01
      5.84370941e-02 3.00269127e-02 5.67249693e-02 2.74018705e-01
      2.74018705e-01 2.74018705e-01 2.44808286e-01 2.16431603e-01
      5.14630340e-02 4.08478156e-02 1.37777179e-01 2.74018705e-01
      2.74018705e-01 1.35653898e-01 1.00737870e-01 8.10882375e-02
      9.27598402e-02 6.05662093e-02 1.14016660e-01 1.38568223e-01
      3.00032109e-01 1.51233688e-01 1.05116971e-01 6.93827495e-02
      6.98393956e-02 3.07668224e-02 1.10865571e-01 1.33960366e-01
      1.07220836e-01 1.70500830e-01 1.03202261e-01 1.83098555e-01
      1.39639154e-01 1.25340208e-01 7.02686459e-02 1.64750218e-02
      4.14754674e-02 1.99866220e-01 3.00032109e-01 3.00032109e-01
      1.50906786e-01 9.94439796e-02 5.28097823e-02 2.21503954e-02
      5.11367060e-02 3.74616273e-02 1.12013154e-01 3.00032109e-01
      3.00032109e-01 3.00032109e-01 3.00032109e-01 1.68209895e-01
      9.25903842e-02 2.88720671e-02 3.81007642e-02 7.41194561e-02
      1.71209797e-01 3.43264312e-01 2.46390238e-01 3.07655893e-02
      7.52079580e-03 1.35025633e-02 1.41060483e-02 1.43953674e-02
      3.10205799e-02 1.34052739e-01 3.43264312e-01 3.43264312e-01
      8.62231776e-02 1.28766811e-02 1.08804554e-02 2.91680750e-02
      4.15870138e-02 5.22711948e-02 1.15471147e-01 3.43264312e-01
      3.43264312e-01 8.61661732e-02 1.74232796e-02 3.38817202e-02
      1.58122107e-02 1.93851143e-02 3.16258445e-02 9.08951089e-02
      3.43264312e-01 3.43264312e-01 8.48231092e-02 2.11056154e-02
      2.57782098e-02 1.76598281e-02 1.49565451e-02 1.39996912e-02
      6.67157620e-02 2.49265462e-01 2.49265462e-01 2.49265462e-01
      1.42072469e-01 7.25170225e-02 1.16433494e-01 1.51808888e-01
      7.41215199e-02 1.10294573e-01 1.72863871e-01 2.49265462e-01
      2.34486848e-01 2.29496643e-01 1.76078722e-01 1.21668223e-02
      1.39258374e-02 3.01203020e-02 9.83977765e-02 2.49265462e-01
      2.49265462e-01 8.40582922e-02 1.18869819e-01 1.03056416e-01
      2.13962898e-01 2.34089911e-01 1.78965166e-01 2.10054055e-01
      1.54258579e-01 1.14824511e-01 1.06440127e-01 2.03379318e-01
      2.49265462e-01 1.31016269e-01 1.50788143e-01 7.75524899e-02
      8.36046413e-02 9.06391889e-02 4.40667346e-02 5.49252741e-02
      2.45367706e-01 1.85382813e-01 7.48252720e-02 6.00501671e-02
      7.67450258e-02 5.85882626e-02 7.28575289e-02 5.28826788e-02
      8.23937207e-02 3.03849280e-01 2.06068233e-01 3.01716894e-01
      2.33174935e-01 1.39172703e-01 9.83863845e-02 3.73016596e-02
      1.58814322e-02 1.09397493e-01 3.03849280e-01 3.03849280e-01
      1.10860199e-01 5.66074401e-02 3.96550819e-02 1.91642065e-02
      1.93132963e-02 2.46782359e-02 3.03849280e-01 3.03849280e-01
      3.03849280e-01 8.34014565e-02 8.31505433e-02 1.65575728e-01
      1.76911041e-01 1.17583342e-01 6.17727786e-02 8.03122818e-02
      1.65159851e-01 1.37716055e-01 1.75368547e-01 2.87430435e-01
      2.87430435e-01 2.87430435e-01 1.25828654e-01 4.88231629e-02
      3.55266780e-02 2.98708547e-02 7.96261802e-02 9.36823115e-02
      6.18003272e-02 1.67163759e-01 8.72810781e-02 6.53024614e-02
      5.49321622e-02 2.87430435e-01 2.87430435e-01 2.37382293e-01
      1.20101653e-01 1.84098884e-01 2.87430435e-01 2.87430435e-01
      1.37018174e-01 7.71963522e-02 8.41762051e-02 1.09884195e-01
      1.20128177e-01 1.19511709e-01 2.75511444e-01 2.75511444e-01
      2.65568048e-01 9.50412601e-02 3.89037617e-02 3.70266996e-02
      5.10477386e-02 5.35447113e-02 7.64453933e-02 1.64876595e-01
      1.17214456e-01 2.49445647e-01 2.75511444e-01 2.75511444e-01
      1.06642015e-01 1.02316745e-01 6.30619675e-02 3.57331373e-02
      1.08399995e-01 2.75511444e-01 2.75511444e-01 2.04095945e-01
      8.61299410e-02 4.89054807e-02 2.81861611e-02 1.85777079e-02
      4.81483154e-02 8.39644819e-02 1.64388329e-01 2.75511444e-01
      2.75511444e-01 2.13915482e-01 5.80515377e-02 3.78311090e-02
      2.00271811e-02 2.54588462e-02 3.04903761e-02 3.65253687e-02
      1.65296391e-01 2.99699515e-01 2.99699515e-01 8.16826746e-02
      5.42656071e-02 3.38401012e-02 1.68649293e-02 8.08119308e-03
      1.03275917e-01 2.99699515e-01 2.99699515e-01 8.94558057e-02
      3.65114063e-02 2.75437534e-02 2.76110955e-02 3.08971759e-02
      2.80886535e-02 1.04786314e-01 2.99699515e-01 2.99699515e-01
      2.99699515e-01 6.30313009e-02 1.71720553e-02 1.52278021e-02
      1.59376506e-02 3.56157450e-03 6.91798925e-02 2.99699515e-01
      2.99699515e-01 2.99699515e-01 1.16207540e-01 6.26513408e-03
      1.09068593e-02 1.32877631e-02 1.65627226e-02 1.03052296e-01
      3.09638917e-01 3.09638917e-01 8.06466788e-02 2.27350332e-02
      5.23675419e-03 5.02405828e-03 4.12813686e-02 2.97968294e-02
      3.77357379e-02 2.98211992e-01 3.09638917e-01 1.82599157e-01
      1.04547255e-01 7.37830326e-02 5.45760952e-02 1.09658111e-02
      9.00861342e-03 6.03891946e-02 3.09638917e-01 3.09638917e-01
      3.09638917e-01 7.76690245e-02 2.11998029e-03 3.93700553e-03
      4.28281501e-02 3.09839118e-02 3.74355391e-02 1.96506292e-01
      3.09638917e-01 3.09638917e-01 9.02642310e-02 4.93224226e-02
      5.30930646e-02 3.29403882e-03 4.63397661e-03 7.87144341e-03
      3.03814895e-02 2.93283433e-01 2.93283433e-01 2.26098180e-01
      9.21785757e-02 1.42886005e-02 1.96538307e-03 3.30283819e-03
      6.23624213e-03 3.60964797e-02 2.93283433e-01 2.93283433e-01
      1.52973697e-01 6.71050474e-02 1.05416048e-02 5.35947271e-03
      9.67633678e-04 4.56512580e-03 1.44039020e-02 2.71890134e-01
      1.44749224e-01 2.93283433e-01 2.93283433e-01 4.42696288e-02
      8.76956247e-03 8.79154599e-04 1.21998345e-03 1.06417546e-02
      1.60571232e-01 2.93283433e-01 2.93283433e-01 2.93283433e-01
      9.82461050e-02 2.12278380e-03 3.29147209e-03 1.51894540e-02
      6.87245652e-02 2.82615662e-01 2.82615662e-01 6.54999167e-02
      3.32747325e-02 2.31288671e-02 8.81034881e-02 8.83684978e-02
      1.34730116e-01 2.21357584e-01 2.82615662e-01 2.58383691e-01
      4.70833667e-02 4.73336279e-02 9.47870091e-02 8.77734553e-03
      2.49471306e-03 2.46700388e-03 2.55903341e-02 1.72509477e-01
      2.82615662e-01 2.68073171e-01 2.82615662e-01 1.36819750e-01
      3.53741869e-02 3.03009879e-02 3.99807692e-02 1.50419369e-01
      2.82615662e-01 2.82615662e-01 1.20330378e-01 2.82615662e-01
      1.49715960e-01 1.59492195e-01 8.68409798e-02 1.05638996e-01
      1.36429504e-01 1.82582423e-01 1.51444122e-01 9.92855281e-02
      2.15168118e-01 2.20665708e-01 7.15927035e-02 1.37717193e-02
      2.45305076e-02 4.23474312e-02 5.96249849e-02 8.37338418e-02
      2.73946851e-01 2.73946851e-01 2.19440684e-01 5.71865216e-02
      3.47982720e-02 5.54893315e-02 2.08661541e-01 2.73946851e-01
      2.73946851e-01 1.01276502e-01 9.33423415e-02 8.57785568e-02
      7.88999200e-02 1.41832635e-01 6.66048974e-02 1.64070874e-01
      2.51603335e-01 2.46622518e-01 2.46224016e-01 2.73946851e-01
      1.08846329e-01 3.36762592e-02 8.47597420e-03 5.53187430e-02
      4.32504192e-02 4.14182469e-02 9.34811160e-02 2.90745229e-01
      2.90745229e-01 1.00981861e-01 3.92177366e-02 3.95257995e-02
      1.81817800e-01 1.49422750e-01 9.85484496e-02 1.23123050e-01
      2.12040290e-01 1.12763263e-01 8.31490979e-02 6.06331863e-02
      1.53929353e-01 5.14620133e-02 6.16565458e-02 9.24137607e-02
      2.85375655e-01 2.90745229e-01 2.90745229e-01 9.22837257e-02
      6.70592189e-02 5.94844893e-02 3.06270886e-02 9.73832011e-02
      1.60174832e-01 2.32811153e-01 2.90745229e-01 2.90745229e-01
      2.90745229e-01 1.48295416e-02 3.07399854e-02 1.22647479e-01
      2.19163060e-01 1.90126628e-01 2.38030776e-01 9.79879200e-02
      4.16247472e-02 3.43038775e-02 2.42791045e-02 4.21408936e-02
      1.85498580e-01 2.38030776e-01 2.38030776e-01 2.38030776e-01
      6.06381260e-02 4.34511565e-02 2.30653826e-02 1.20148323e-01
      5.45223430e-02 4.80815805e-02 1.09319717e-01 2.38030776e-01
      2.38030776e-01 2.20487088e-01 2.38030776e-01 2.38030776e-01
      2.38030776e-01 1.56667918e-01 2.38030776e-01 1.66756213e-01
      2.18547985e-01 1.65575087e-01 6.44217506e-02 8.14782754e-02
      2.38030776e-01 4.06980962e-02 4.06964496e-02 1.63627431e-01
      2.12660328e-01 2.82103509e-01 1.97185874e-01 7.63250142e-02
      6.32502437e-02 6.06052466e-02 4.73385379e-02 1.20106377e-02
      4.30067852e-02 1.65021673e-01 2.82103509e-01 2.82103509e-01
      1.32555738e-01 3.92966680e-02 6.25521094e-02 2.82103509e-01
      1.59601197e-01 2.82103509e-01 1.24211133e-01 1.19692422e-01
      6.75380528e-02 8.59711096e-02 1.22429997e-01 2.30621189e-01
      2.82103509e-01 1.44723922e-01 6.07374571e-02 9.50272158e-02
      1.56817302e-01 1.77186564e-01 1.83479622e-01 1.15919612e-01
      2.55717993e-01 4.03986536e-02 1.67641900e-02 4.54996638e-02
      1.19597182e-01 3.08634967e-01 3.08634967e-01 1.01697072e-01
      1.22239683e-02 3.30220275e-02 6.85995817e-02 6.26114458e-02
      8.69373828e-02 8.88632983e-02 3.08634967e-01 3.08634967e-01
      1.12445049e-01 9.82767623e-03 3.98495719e-02 3.08634967e-01
      1.36699617e-01 4.50486951e-02 4.59000207e-02 1.39783010e-01
      1.84028581e-01 1.34233862e-01 4.83551994e-02 2.57836014e-01
      3.08634967e-01 2.23751202e-01 1.26205072e-01 2.40093097e-02
      9.64300483e-02 1.32734850e-01 7.15950206e-02 1.31128952e-02
      3.08634967e-01 1.88169815e-02 5.69917541e-03 2.54659578e-02
      4.31376807e-02 3.64403754e-01 1.21556163e-01 1.47133335e-01
      3.64403754e-01 7.19281957e-02 6.13128915e-02 1.79711673e-02
      1.69362705e-02 1.62972957e-02 3.14242989e-02 1.21612392e-01
      3.58179599e-01 3.64403754e-01 3.54583830e-01 3.12641375e-02
      1.65777635e-02 6.01896755e-02 1.09413147e-01 3.64403754e-01
      9.23373774e-02 2.57180221e-02 5.18497899e-02 3.14770751e-02
      8.51265490e-02 3.67963240e-02 4.83329520e-02 4.55254130e-02
      4.58153114e-02 5.52468635e-02 4.92174104e-02 2.45899126e-01
      1.88438118e-01 4.09101434e-02 1.87919065e-02 4.52127913e-03
      1.10245086e-02 1.93508938e-02 6.61134943e-02 1.89670995e-01
      3.23991805e-01 3.23991805e-01 1.18251465e-01 6.40829355e-02
      1.46121578e-02 1.04658186e-01 1.67982474e-01 3.23991805e-01
      9.99735445e-02 3.23991805e-01 3.23991805e-01 6.22523241e-02
      3.04550529e-02 1.40304863e-02 6.25640480e-03 7.41636148e-03
      1.71113480e-02 4.17440459e-02 2.73073673e-01 2.06852734e-01
      1.37868196e-01 6.47920072e-02 3.06655094e-02 2.73994356e-02
      1.91397388e-02 2.93884780e-02 3.15530859e-02 3.23991805e-01
      3.23991805e-01 2.41241425e-01 1.05894201e-01 2.88756583e-02
      1.49681970e-01 2.71788806e-01 2.71788806e-01 7.56153986e-02
      2.00868800e-01 2.71788806e-01 2.71788806e-01 2.71788806e-01
      6.17745258e-02 1.00456856e-01 1.80702120e-01 1.90077841e-01
      9.24483687e-02 1.10727720e-01 1.31790593e-01 2.71788806e-01
      1.29228041e-01 3.63195203e-02 2.87906416e-02 3.10617965e-02
      4.78568710e-02 1.68227218e-02 1.71806276e-01 2.71788806e-01
      2.71788806e-01 2.71788806e-01 3.68861333e-02 6.46936335e-03
      1.53455902e-02 2.52013057e-02 1.50829675e-02 5.61866909e-02
      1.23767838e-01 2.84532636e-01 2.84532636e-01 6.08729385e-02
      3.17718349e-02 4.55766805e-02 1.64450645e-01 2.74229974e-01
      1.35549903e-01 1.10174231e-01 2.20672578e-01 1.19735003e-01
      1.78264193e-02 2.96844710e-02 5.59402034e-02 1.02604903e-01
      2.84532636e-01 2.84532636e-01 2.84532636e-01 2.84532636e-01
      2.84532636e-01 3.19978222e-02 2.21341033e-03 5.32993861e-03
      5.15253842e-03 8.14630743e-03 2.46453360e-02 5.43878712e-02
      2.84532636e-01 1.46268755e-01 1.04182446e-02 4.84615826e-04
      1.84960593e-03 3.91927967e-03 1.31588504e-02 1.57089293e-01
      2.84532636e-01 1.92370981e-01 3.33410501e-02 1.14511475e-02
      2.88505480e-02 5.59483878e-02 3.05136759e-02 7.25983605e-02
      3.22631985e-01 3.35175186e-01 3.35175186e-01 8.31629112e-02
      9.52239409e-02 3.72764058e-02 3.69441658e-02 1.67389289e-02
      1.92078911e-02 7.33508542e-02 3.35175186e-01 3.35175186e-01
      9.37023684e-02 2.19449680e-03 2.26436285e-04 3.30638053e-04
      8.74696067e-04 3.82074248e-03 1.12425320e-01 3.35175186e-01
      3.35175186e-01 1.02701165e-01 9.13217082e-04 1.02925587e-04
      6.30221912e-04 1.61185817e-04 1.06652512e-03 3.14946063e-02
      3.35175186e-01 4.03233349e-01 9.28969309e-02 6.74137920e-02
      1.93661302e-02 1.11745661e-02 2.55886535e-03 1.49199842e-02
      2.39545107e-02 2.38366425e-01 4.03233349e-01 1.23566583e-01
      1.32892411e-02 5.67039941e-03 8.20858404e-03 1.17892092e-02
      4.23233397e-02 2.79329289e-02 1.48481354e-01 4.03233349e-01
      7.42877796e-02 2.70810066e-04 0. 4.48366132e-04 0. 9.03884356e-05
      3.87922465e-03 3.37243587e-01 4.03233349e-01 1.55284494e-01
      5.89436910e-04 0. 2.98910763e-05 0. 3.32241732e-04 6.72456110e-03
      3.00930589e-01 3.73442799e-01 9.38109830e-02 1.23910420e-02
      2.32634903e-03 6.49859291e-03 1.32822488e-02 2.97200084e-02
      1.56967435e-02 1.61667317e-01 3.73442799e-01 1.03207327e-01
      1.87368002e-02 1.11822935e-03 4.26016189e-03 9.75606032e-03
      3.25589837e-03 5.63422171e-03 2.43918031e-01 3.73442799e-01
      1.62551820e-01 1.19661959e-03 0. 0. 0. 5.05993550e-04
      8.57849792e-03 3.19227040e-01 3.73442799e-01 2.51744032e-01
      3.14700138e-03 6.42156447e-05 0. 1.28693340e-04 7.28554733e-04
      9.04189702e-03 3.73442799e-01 5.59120625e-02 1.49424924e-02
      2.11584810e-02 2.17448585e-02 1.80389747e-01 2.35755127e-02
      2.02010870e-02 2.07264852e-02 8.68814737e-02 9.57135931e-02
      1.90566294e-02 1.92040466e-02 1.04933521e-02 1.17097273e-02
      1.41766500e-02 2.09011324e-02 1.88465659e-02 9.33842883e-02
      4.76302236e-01 4.63759825e-02 1.60791129e-02 1.54400440e-02
      1.10486105e-01 2.91269813e-02 4.09107134e-02 5.41756675e-02
      4.76302236e-01 4.76302236e-01 2.50673629e-02 7.98477232e-03
      5.51043544e-03 5.83103066e-03 7.80444313e-03 2.86389068e-02
      1.52211888e-02 4.76302236e-01 9.23318341e-02 1.92750301e-02
      1.31678591e-02 4.46600467e-03 9.48590226e-03 7.62085430e-03
      1.33753568e-02 1.93263665e-02 1.04394935e-01 1.33200526e-01
      3.58779915e-02 2.23036278e-02 3.94706428e-03 4.75998782e-03
      9.53628158e-04 5.34969242e-03 2.63169426e-02 1.47186860e-01
      4.82532740e-01 1.07730953e-02 4.98047750e-03 2.68143625e-03
      7.78626977e-03 4.49276809e-03 1.76822152e-02 8.81474186e-03
      4.82532740e-01 4.82532740e-01 1.78822931e-02 4.98567708e-03
      1.60196936e-03 3.96177266e-03 1.14435388e-04 2.96208845e-03
      1.40738226e-02 4.82532740e-01 1.30932063e-01 3.48132849e-02
      1.76077355e-02 4.26834961e-03 1.92097318e-03 8.86676644e-05
      1.71839632e-03 1.63349379e-02 9.98070687e-02 2.23074451e-01
      1.65423498e-01 3.53121012e-02 2.93874927e-03 2.68961210e-03 0.
      1.95533480e-03 8.44258722e-03 5.85016198e-02 4.29833740e-01
      3.33554000e-02 4.54756571e-03 1.85711775e-03 1.30737654e-03 0.
      9.23854124e-04 7.68542103e-03 4.29833740e-01 4.29833740e-01
      4.29833740e-01 5.55640310e-02 2.01455317e-03 1.77313120e-03
      1.14627590e-03 1.05879502e-03 4.36952710e-03 3.76241684e-01
      2.92153507e-01 2.69823074e-01 4.68864143e-02 9.93325957e-04
      2.63499352e-03 1.79424824e-05 1.14246737e-03 3.06271994e-03
      2.57253069e-02 3.62279862e-01 3.62279862e-01 2.13003866e-02
      3.63889449e-05 6.83934719e-04 2.69137236e-04 1.45947421e-03
      1.78968359e-03 9.64374691e-02 3.62279862e-01 3.62279862e-01
      1.01663932e-01 3.08787986e-03 1.78853399e-03 1.91527698e-03
      3.31007323e-04 1.99918216e-03 9.30078849e-02 3.62279862e-01
      3.62279862e-01 5.31447120e-02 3.14389728e-03 2.09501502e-03
      1.82799995e-03 1.69847033e-03 1.73739344e-03 1.27472505e-01
      3.52188438e-01 2.59970635e-01 1.06304255e-03 1.20297159e-06 0.
      1.65350051e-04 4.76286805e-04 1.31548569e-03 2.19572157e-01
      3.52188438e-01 1.60108209e-01 1.94979162e-04 0. 0. 0.
      6.91796376e-05 1.27057265e-03 3.52188438e-01 3.52188438e-01
      2.24540845e-01 4.03416436e-03 7.14338094e-04 1.08744658e-03
      8.41417117e-04 2.47276784e-03 4.54638200e-03 2.31068373e-01
      3.52188438e-01 8.29810053e-02 1.70864002e-03 4.34562302e-04
      9.97597352e-04 1.17814649e-04 2.95155146e-03 8.34206957e-03
      3.52188438e-01 3.45660031e-01 9.84129980e-02 0. 0. 0. 0.
      3.31957490e-05 9.61164013e-04 3.45660031e-01 3.45660031e-01
      1.62285462e-01 3.06626927e-04 0. 0. 0. 5.25568466e-05
      1.48934813e-03 3.45660031e-01 3.45660031e-01 4.39948365e-02
      5.14971907e-04 1.68264646e-03 4.02058382e-03 1.20990654e-03
      1.53652334e-03 3.27601447e-03 3.45660031e-01 3.45660031e-01
      5.16700111e-02 7.72170955e-04 1.41905167e-03 4.62127849e-03
      2.28559924e-03 2.07557925e-03 1.40919106e-03 3.45660031e-01
      3.36314410e-01 1.93950042e-01 2.18906673e-03 0. 0. 0.
      3.33928532e-04 3.07124946e-03 3.36314410e-01 3.36314410e-01
      2.24341422e-01 1.21141169e-02 2.80484586e-04 0. 5.62113710e-04
      1.62907992e-03 8.95971805e-03 3.36314410e-01 3.36314410e-01
      5.04527539e-02 2.67963344e-03 1.94081716e-04 2.81120325e-03
      1.41603383e-03 2.35781563e-03 2.59023020e-03 3.36314410e-01
      3.36314410e-01 2.89071109e-02 1.02752782e-02 2.18154688e-04
      3.01455520e-03 1.36212388e-03 3.07799759e-03 7.34252483e-03
      3.36314410e-01</_>
    <_>
      3.02913100e-01 6.52511343e-02 8.46594051e-02 2.48600170e-02
      3.02913100e-01 3.37198377e-02 4.30075899e-02 4.80205119e-02
      3.02913100e-01 3.02913100e-01 9.84525979e-02 1.98329940e-01
      1.04953885e-01 3.48871574e-02 8.88051186e-03 5.79988584e-02
      5.05982786e-02 3.02913100e-01 8.18288401e-02 1.44294530e-01
      1.31651074e-01 4.65813875e-02 3.02913100e-01 6.49047345e-02
      3.59365083e-02 2.93758120e-02 4.50119972e-02 1.32814810e-01
      3.02913100e-01 3.02913100e-01 3.02913100e-01 8.13834220e-02
      2.96229925e-02 5.81416115e-02 4.42414396e-02 2.60238200e-02
      1.50357783e-01 1.80422083e-01 2.97293603e-01 1.20206788e-01
      1.81905944e-02 7.39919720e-04 1.80237386e-02 1.36381621e-02
      1.61210120e-01 1.67588383e-01 2.97293603e-01 2.97293603e-01
      1.46578372e-01 4.46577035e-02 8.60930607e-03 4.95009590e-03
      5.52842766e-03 1.91681042e-01 6.17914423e-02 2.86645144e-01
      2.97293603e-01 2.97293603e-01 1.07811451e-01 1.31799085e-02
      2.24136189e-02 1.92814581e-02 6.21172646e-03 4.99131978e-02
      2.08827168e-01 2.97293603e-01 2.97293603e-01 1.93551928e-01
      7.09415302e-02 6.37032688e-02 4.15047295e-02 1.99731942e-02
      2.15283364e-01 2.69214123e-01 2.69214123e-01 1.10518232e-01
      8.20436627e-02 1.78010650e-02 4.48136125e-03 2.77384487e-03
      1.78487256e-01 2.69214123e-01 2.69214123e-01 1.56106144e-01
      5.64207844e-02 4.77231108e-02 6.80421852e-03 1.64680870e-03
      1.23185848e-04 2.69214123e-01 2.44167298e-02 1.31810993e-01
      1.96010664e-01 1.58920765e-01 2.58697927e-01 1.72903225e-01
      1.90643370e-01 5.25913164e-02 1.32996850e-02 8.49540010e-02
      2.33839855e-01 1.95842654e-01 1.56871751e-01 2.68933982e-01
      2.48641670e-01 1.71455070e-01 2.35989243e-02 2.89389733e-02
      3.40697676e-01 2.03230977e-01 5.30827604e-02 1.84784774e-02
      1.44651653e-02 9.70112567e-04 1.97509024e-03 2.70133261e-02
      3.40697676e-01 3.40697676e-01 2.75211558e-02 3.53386300e-03
      2.40268698e-03 5.69394557e-03 1.85815894e-04 5.15794242e-03
      1.70674533e-01 3.40697676e-01 1.91359624e-01 1.89026013e-01
      1.14974156e-01 9.18966979e-02 1.59640297e-01 1.10913970e-01
      5.52227236e-02 8.96996409e-02 1.94923222e-01 1.97558373e-01
      3.80113237e-02 1.78433824e-02 2.44236533e-02 3.15498412e-02
      9.49348789e-03 3.75555232e-02 3.40697676e-01 3.40697676e-01
      3.15975130e-01 6.52478561e-02 4.62324778e-03 0. 4.13294788e-03 0.
      1.21468343e-02 2.45522231e-01 3.15975130e-01 3.15975130e-01
      1.20790869e-01 7.79783586e-03 0. 5.98120969e-03 4.08258615e-03
      4.55490910e-02 2.91190445e-01 3.15975130e-01 1.24071792e-01
      1.84555131e-03 3.44011554e-04 1.03058628e-04 1.50484266e-04
      6.25414308e-04 2.40383837e-02 3.15975130e-01 3.15975130e-01
      5.38268797e-02 2.41116271e-03 0. 4.89976350e-03 1.30686378e-02
      1.88360121e-02 1.11343354e-01 3.15975130e-01 3.15975130e-01
      2.81714946e-01 4.95236255e-02 6.04682323e-03 1.39326812e-03
      2.44573038e-02 2.26236172e-02 8.08747336e-02 2.44857892e-01
      2.81714946e-01 2.81714946e-01 5.67017542e-03 2.44669616e-02
      6.33484423e-02 4.86135297e-02 6.98175654e-02 2.38829285e-01
      2.81714946e-01 2.81714946e-01 4.97114435e-02 1.57636043e-03
      1.24970106e-02 2.45633870e-02 4.38594744e-02 5.79394512e-02
      1.90196157e-01 2.81714946e-01 2.81714946e-01 6.87739179e-02
      1.73530858e-02 1.16268821e-01 1.09637082e-01 4.40997407e-02
      1.25131503e-01 2.25911632e-01 2.81714946e-01 2.81714946e-01
      2.05618590e-01 7.83195894e-04 1.05031002e-02 4.77462672e-02
      2.04972830e-02 7.39291757e-02 3.11353594e-01 3.11353594e-01
      1.60521448e-01 1.42757207e-01 0. 9.05048277e-04 7.49641052e-03
      1.49595803e-02 1.37933597e-01 3.11353594e-01 3.11353594e-01
      3.11353594e-01 2.13775858e-02 1.70635115e-02 6.25537634e-02
      5.28702214e-02 1.26081957e-02 7.77250081e-02 2.11878106e-01
      3.11353594e-01 1.33754790e-01 2.94667333e-02 9.07409098e-03
      6.41260529e-03 6.59574009e-03 5.36378007e-03 5.63675277e-02
      3.11353594e-01 3.11353594e-01 1.57071412e-01 2.61479039e-02
      8.87466520e-02 1.81396917e-01 8.82485062e-02 3.11440676e-01
      5.27895391e-02 2.67468002e-02 1.53636336e-02 1.46283330e-02
      1.01791084e-01 3.11440676e-01 3.11440676e-01 1.96851835e-01
      1.00200765e-01 2.77195666e-02 2.47329883e-02 2.10729446e-02
      8.02932028e-03 3.59898917e-02 8.75792429e-02 2.08544239e-01
      1.95422575e-01 3.11440676e-01 1.29579619e-01 2.26195678e-02
      1.23351030e-02 5.44878617e-02 5.14091328e-02 1.79004103e-01
      3.11440676e-01 3.11440676e-01 3.11440676e-01 2.36889228e-01
      3.25626396e-02 1.46049345e-02 2.30316557e-02 1.15722895e-01
      2.77553320e-01 2.77553320e-01 2.77553320e-01 1.48731202e-01
      7.67545477e-02 6.30885363e-02 3.15135978e-02 5.16123464e-03
      4.19902541e-02 8.31747949e-02 9.76925567e-02 2.12956771e-01
      2.60955274e-01 2.46221513e-01 1.22967742e-01 4.70694304e-02
      9.11589712e-03 5.85540421e-02 1.70323849e-01 1.82262287e-01
      1.75077051e-01 2.77553320e-01 2.77553320e-01 1.48736343e-01
      2.68197600e-02 3.22973100e-03 3.28933597e-02 7.55923986e-02
      3.11895888e-02 1.57592431e-01 2.77553320e-01 2.77553320e-01
      2.21312940e-01 3.32554728e-02 1.13712472e-03 7.71615887e-03
      2.86882222e-02 2.01266780e-02 5.28504066e-02 1.61561519e-01
      2.72100955e-01 2.77130663e-01 8.10275376e-02 4.86974604e-03
      1.98287982e-03 2.45066490e-02 3.07244975e-02 4.25414294e-02
      1.85911953e-01 3.05456191e-01 3.05456191e-01 6.87335879e-02
      2.67505576e-03 1.07966587e-02 2.79551074e-02 2.47011576e-02
      1.13268062e-01 3.05456191e-01 3.05456191e-01 2.53453195e-01
      7.17426389e-02 1.44039327e-03 8.47984455e-04 1.16052944e-02
      2.31361408e-02 1.51798517e-01 3.05456191e-01 3.05456191e-01
      3.05456191e-01 7.82021061e-02 1.84929790e-03 1.93588007e-02
      2.87999790e-02 3.80206518e-02 7.32675716e-02 2.76917487e-01
      2.84410387e-01 2.07258373e-01 7.47949257e-02 3.88948619e-02
      7.99029097e-02 3.16375941e-02 3.21464911e-02 5.03195859e-02
      1.01203918e-01 3.40597108e-02 9.65925232e-02 2.25044191e-01
      2.54779011e-01 4.62516546e-02 1.84791312e-02 1.61936749e-02
      2.72906989e-01 2.84410387e-01 2.84410387e-01 2.56588310e-01
      4.64271642e-02 1.76261421e-02 2.84410387e-01 2.84410387e-01
      5.92888221e-02 2.13891357e-01 2.84410387e-01 8.12031254e-02
      9.20326114e-02 6.93911538e-02 1.23081140e-01 1.56342611e-01
      3.45768817e-02 2.65655518e-02 2.20132582e-02 1.61169786e-02
      1.03538893e-02 3.38696651e-02 2.79035062e-01 2.79035062e-01
      9.80093181e-02 2.48307288e-02 6.35251179e-02 1.24256819e-01
      1.17079191e-01 7.35809430e-02 1.26580283e-01 2.79035062e-01
      2.79035062e-01 2.79035062e-01 2.79035062e-01 8.77480656e-02
      7.43131563e-02 6.39991462e-02 2.89932806e-02 5.50927334e-02
      7.50586689e-02 2.48584002e-01 2.67524511e-01 2.79035062e-01
      1.91502899e-01 2.79035062e-01 1.89324215e-01 7.82828927e-02
      7.73166791e-02 6.70943260e-02 1.78399965e-01 1.90413315e-02
      8.17016605e-03 9.91299748e-02 1.63662896e-01 1.49057239e-01
      8.47250670e-02 1.33635402e-01 2.31000751e-01 1.68873176e-01
      5.66822700e-02 6.17452376e-02 2.51318961e-01 2.19739363e-01
      7.75819570e-02 1.00609511e-01 9.98897403e-02 1.37300655e-01
      1.19936615e-01 6.60449490e-02 1.15769237e-01 2.51318961e-01
      2.51318961e-01 2.51318961e-01 8.62987936e-02 6.79192021e-02
      5.85232824e-02 5.87853976e-02 1.38257220e-01 1.23962581e-01
      2.51318961e-01 2.51318961e-01 2.51318961e-01 1.88891798e-01
      2.51318961e-01 2.51318961e-01 2.03292266e-01 1.10466950e-01
      9.78548899e-02 2.40337923e-01 1.15805686e-01 2.50138268e-02
      9.77240652e-02 1.18904434e-01 2.20261216e-01 1.46558657e-01
      8.66262466e-02 3.51920128e-02 2.91630756e-02 2.13508736e-02
      3.72778960e-02 5.47139049e-02 2.59399325e-01 2.59399325e-01
      1.83752388e-01 2.44662464e-01 1.38557583e-01 2.08814055e-01
      1.34391114e-01 9.88708884e-02 2.23335907e-01 2.59399325e-01
      2.59399325e-01 2.59399325e-01 1.30467489e-01 6.31626546e-02
      8.24733526e-02 1.49898171e-01 1.67688146e-01 9.39104632e-02
      2.15529114e-01 2.53162414e-01 1.65434897e-01 2.63893530e-02
      7.49929994e-02 8.09428617e-02 1.69914350e-01 3.37099999e-01
      1.42841548e-01 8.08412582e-03 1.60957046e-03 3.62255685e-02
      1.37440246e-02 1.26204034e-02 6.07341267e-02 1.94603562e-01
      3.37099999e-01 3.37099999e-01 4.92373668e-02 1.00677926e-03
      1.36705823e-02 1.11153377e-02 6.62852079e-02 1.04033157e-01
      2.15858042e-01 3.37099999e-01 2.98966765e-01 5.63476942e-02 0.
      8.58421251e-03 8.83911271e-03 1.83691159e-02 7.39794225e-02
      1.57122642e-01 3.37099999e-01 3.37099999e-01 1.46934167e-01
      1.89510651e-03 5.73704578e-03 1.20334309e-02 1.70221739e-02
      3.07497326e-02 7.37133548e-02 3.13729554e-01 3.13729554e-01
      1.31636620e-01 9.38282069e-03 1.93090818e-03 4.40900661e-02
      4.10394780e-02 1.91155244e-02 8.26756656e-02 2.80336440e-01
      3.13729554e-01 2.18407869e-01 5.72436973e-02 2.14241929e-02
      1.75013430e-02 1.82325523e-02 2.86227725e-02 5.23587242e-02
      3.13729554e-01 3.13729554e-01 2.33667091e-01 2.02831402e-02
      1.74090993e-02 8.25555250e-02 1.24464758e-01 7.77401626e-02
      1.43179357e-01 1.51549101e-01 3.13729554e-01 3.13729554e-01
      8.92758146e-02 5.90806827e-02 7.08356947e-02 9.45163593e-02
      7.70346820e-02 2.12431833e-01 2.59003788e-01 2.56074607e-01
      1.06730685e-01 4.50349003e-02 2.60878000e-02 4.35392708e-02
      9.74826962e-02 1.28527209e-01 2.59003788e-01 2.59003788e-01
      2.59003788e-01 9.32763144e-02 2.74099074e-02 1.64773241e-02
      2.01544106e-01 2.59003788e-01 2.00568095e-01 2.27334246e-01
      9.57777798e-02 1.07559435e-01 9.57315564e-02 5.26500829e-02
      8.62314925e-02 2.03178972e-01 2.59003788e-01 2.57811368e-01
      2.59003788e-01 2.07382336e-01 9.83021259e-02 3.52619700e-02
      3.81403863e-02 9.87036154e-02 1.29204318e-01 1.49818629e-01
      6.65226653e-02 2.18441367e-01 2.89586395e-01 2.88337946e-01
      6.02469072e-02 4.25317325e-02 4.15830240e-02 2.89586395e-01
      2.89586395e-01 6.99037611e-02 9.42688957e-02 1.55197248e-01
      5.71532845e-02 2.42958050e-02 3.11409086e-02 8.29342008e-02
      1.83558166e-01 2.61942506e-01 1.76645458e-01 1.45671636e-01
      1.96254805e-01 1.27441302e-01 8.59681964e-02 7.10235164e-02
      8.71963650e-02 2.89586395e-01 2.89586395e-01 2.40451589e-01
      9.13794190e-02 1.71748966e-01 6.40006512e-02 7.75099099e-02
      5.75165600e-02 8.97189304e-02 2.76661068e-01 2.76661068e-01
      6.15962148e-02 2.58262306e-02 4.62385081e-02 7.33730942e-02
      1.05436057e-01 3.70145366e-02 1.45302922e-01 2.57940799e-01
      2.76661068e-01 9.27989036e-02 1.00376792e-01 7.42599815e-02
      1.49206951e-01 1.53575569e-01 5.39768301e-02 1.08213603e-01
      2.76661068e-01 2.76661068e-01 2.05871657e-01 1.03393249e-01
      1.80557176e-01 1.74439833e-01 1.91999719e-01 6.56617433e-02
      1.04059383e-01 1.62737429e-01 1.55131474e-01 1.12204544e-01
      7.73177966e-02 1.12994604e-01 2.76661068e-01 2.76661068e-01
      9.34690312e-02 7.69931450e-02 1.09115265e-01 1.60750329e-01
      1.46524429e-01 2.34902456e-01 1.88981727e-01 1.12309791e-01
      6.95980862e-02 7.23917037e-02 5.81793636e-02 1.25432700e-01
      8.83509889e-02 1.18508488e-01 2.34902456e-01 2.34902456e-01
      2.34902456e-01 2.34902456e-01 2.34902456e-01 2.34902456e-01
      7.08767474e-02 1.20899767e-01 1.52157933e-01 1.97649077e-01
      1.73523709e-01 2.01196551e-01 1.20018274e-01 6.71825111e-02
      3.82596962e-02 7.83169642e-02 9.64033976e-02 2.14420021e-01
      2.34902456e-01 2.34902456e-01 2.34902456e-01 1.83315575e-01
      9.44915935e-02 1.02459773e-01 8.78015682e-02 3.76524739e-02
      3.23909596e-02 4.11710404e-02 9.72785503e-02 2.34481707e-01
      2.62257665e-01 2.74628699e-01 2.16961965e-01 5.00941537e-02
      2.60669272e-02 4.76794727e-02 1.51114210e-01 2.04683125e-01
      1.62885755e-01 1.49430558e-01 1.98568106e-01 1.06694467e-01
      4.14278731e-02 7.35308379e-02 1.17711708e-01 1.22631520e-01
      2.74628699e-01 2.74628699e-01 2.02786803e-01 1.56568065e-01
      1.23391010e-01 2.62710340e-02 3.41054425e-02 1.07283510e-01
      2.74628699e-01 2.74628699e-01 2.74628699e-01 1.69015944e-01
      1.35840356e-01 7.37182945e-02 1.94710726e-03 4.04147804e-02
      1.40068561e-01 1.72294378e-01 3.08840245e-01 1.89128920e-01
      3.30451019e-02 0. 1.72501849e-03 3.51163140e-03 3.77280675e-02
      2.20783517e-01 2.35275179e-01 3.08840245e-01 3.08840245e-01
      8.03909972e-02 4.43788292e-03 5.20528993e-03 1.70295709e-03
      1.18779931e-02 7.26709887e-02 1.59561574e-01 3.08840245e-01
      2.99773484e-01 2.62224656e-02 0. 1.05016062e-03 3.47464025e-04
      2.14992817e-02 1.90935969e-01 2.72570103e-01 3.08840245e-01
      2.89601147e-01 5.48022427e-02 2.33700871e-02 9.03577264e-03
      1.58233587e-02 2.96358299e-02 9.14058909e-02 1.34089455e-01
      2.55120605e-01 2.55120605e-01 2.21683308e-01 6.17712475e-02
      3.15713063e-02 9.02267024e-02 1.46421462e-01 1.62188739e-01
      1.79062769e-01 8.36745873e-02 2.55120605e-01 2.55120605e-01
      1.66042045e-01 8.78718719e-02 1.17819579e-02 2.71841679e-02
      1.13771237e-01 1.85383365e-01 2.55120605e-01 2.46574685e-01
      1.53838515e-01 1.19918421e-01 5.97644560e-02 1.82551816e-01
      1.60481527e-01 2.55120605e-01 2.55120605e-01 8.58257785e-02
      1.37786373e-01 1.62828624e-01 1.96333066e-01 1.70548692e-01
      1.79944679e-01 1.85744926e-01 1.82567924e-01 1.22867279e-01
      2.24331766e-02 5.77028506e-02 6.58486560e-02 5.20325676e-02
      1.48927242e-01 2.75996655e-01 1.27498254e-01 1.07362852e-01
      4.78655472e-02 1.26083130e-02 2.02232096e-02 3.09880059e-02
      3.34485620e-02 3.11535567e-01 2.85876840e-01 1.37329042e-01
      2.07454249e-01 1.22781783e-01 3.21434140e-02 8.68639871e-02
      8.87210071e-02 2.18600988e-01 3.11535567e-01 2.98363835e-01
      4.91935126e-02 5.51079661e-02 2.77634412e-02 1.93031952e-02
      1.34151414e-01 1.21895686e-01 3.11535567e-01 3.11535567e-01
      2.58397251e-01 7.23466501e-02 5.87932579e-02 3.30603607e-02
      2.60502882e-02 2.57978328e-02 7.52458721e-02 5.92451990e-02
      3.04527611e-01 3.04527611e-01 2.15948567e-01 1.18578598e-01
      8.00060332e-02 1.08044527e-01 5.32275625e-02 8.68940428e-02
      5.94043210e-02 1.89352676e-01 2.96014994e-01 2.35210266e-02
      9.24296957e-03 1.34622343e-02 2.26142853e-02 9.51028764e-02
      1.47572339e-01 3.04527611e-01 3.04527611e-01 3.04527611e-01
      1.76825076e-01 3.67216319e-02 6.97158948e-02 7.87477344e-02
      8.97461921e-02 1.40589610e-01 1.83451116e-01 3.04527611e-01
      2.01396808e-01 1.86065972e-01 1.38813630e-01 1.15641497e-01
      1.51812062e-01 1.75675750e-01 1.12296797e-01 5.76068424e-02
      7.26117566e-02 6.26013279e-02 1.28535375e-01 1.70754284e-01
      1.48915544e-01 1.23947598e-01 2.20955715e-01 1.24124810e-01
      6.68065548e-02 7.93876946e-02 2.39189252e-01 2.39189252e-01
      1.22122787e-01 1.08043797e-01 1.62232980e-01 2.39189252e-01
      1.59160912e-01 1.42483398e-01 1.45805612e-01 1.96274400e-01
      2.39189252e-01 2.39189252e-01 2.39189252e-01 2.39189252e-01
      2.39189252e-01 1.05577528e-01 1.18920684e-01 1.06024250e-01
      6.20159246e-02 8.65442604e-02 1.57012194e-01 1.62494168e-01
      1.40547648e-01 1.45669952e-01 5.20880409e-02 3.09990533e-02
      5.62176704e-02 1.62723869e-01 1.17785223e-01 2.35443562e-01
      2.36693829e-01 2.49249369e-01 1.85945749e-01 8.46119076e-02
      3.68955024e-02 3.84263955e-02 1.46262720e-01 1.32350892e-01
      2.12548748e-01 2.49249369e-01 2.49249369e-01 2.32795879e-01
      6.78600073e-02 5.29043451e-02 8.81842077e-02 2.49249369e-01
      2.13785350e-01 2.49249369e-01 2.49249369e-01 2.49249369e-01
      2.01101154e-01 8.93587396e-02 4.55841757e-02 7.98689052e-02
      7.78340548e-02 1.05075009e-01 1.87963903e-01 1.62372693e-01
      2.47548848e-01 1.50366470e-01 7.18304440e-02 2.89107766e-02
      2.66298223e-02 7.54585341e-02 7.17752799e-02 1.35651499e-01
      2.60081381e-01 2.60081381e-01 2.17687070e-01 6.56516254e-02
      2.07342189e-02 4.76853922e-02 1.64967597e-01 2.60081381e-01
      2.60081381e-01 2.49362081e-01 2.06381798e-01 4.27629463e-02
      4.07831669e-02 1.77742224e-02 4.49275635e-02 2.60081381e-01
      2.60081381e-01 2.60081381e-01 2.28439808e-01 1.46477938e-01
      7.64413103e-02 9.52657163e-02 8.53130594e-02 1.92908570e-01
      3.72911501e-03 1.90653609e-05 8.14000145e-03 5.40078208e-02
      3.36736977e-01 3.36736977e-01 3.20289880e-02 0. 1.02525391e-03
      9.33428353e-04 6.40121242e-03 4.61067073e-02 1.22913644e-01
      3.36736977e-01 3.36736977e-01 4.70562689e-02 1.76665820e-02
      5.63464453e-03 3.16892168e-03 1.40149132e-04 4.79765143e-03
      3.27514932e-02 3.36736977e-01 3.36736977e-01 7.34621361e-02
      3.94303614e-04 8.73908633e-04 1.57215330e-03 5.61080780e-03
      2.94235330e-02 6.69246539e-02 3.36736977e-01 3.36736977e-01
      2.31722489e-01 6.89237146e-03 4.34576767e-03 7.00118439e-03
      2.13554129e-02 8.34271833e-02 1.48919374e-01 2.90824026e-01
      1.56460524e-01 8.50357488e-02 5.85281327e-02 2.89618298e-02
      9.38692391e-02 8.64492059e-02 2.61361003e-01 3.20997536e-01
      3.20997536e-01 6.53373003e-02 6.82395175e-02 5.38898483e-02
      7.19536692e-02 7.31269689e-03 1.57285072e-02 6.70126826e-02
      1.70905083e-01 3.20997536e-01 3.20997536e-01 1.80316135e-01
      2.94801053e-02 1.59778353e-02 2.85145883e-02 2.33921092e-02
      1.16794862e-01 3.20997536e-01 3.20997536e-01 1.96695983e-01
      6.29913360e-02 3.09536457e-02 2.24413611e-02 1.36622757e-01
      6.38472736e-02 1.54209942e-01 1.71052963e-01 1.24002308e-01
      8.93477499e-02 7.30052590e-02 1.34661689e-01 1.92984283e-01
      8.46896097e-02 1.92198027e-02 5.19661568e-02 1.06108539e-01
      1.20539665e-01 2.50338972e-01 1.83995634e-01 2.50338972e-01
      2.50338972e-01 8.07093233e-02 3.37919071e-02 8.20325837e-02
      2.50338972e-01 2.50338972e-01 1.54145703e-01 8.89857560e-02
      7.56489933e-02 7.55422786e-02 2.00356930e-01 1.30880669e-01
      2.34010532e-01 2.50338972e-01 2.05289155e-01 2.50338972e-01
      1.88804835e-01 1.72584593e-01 2.27977291e-01 4.92053181e-02
      8.97051115e-03 3.51209342e-02 1.37853622e-01 1.95864901e-01
      2.14546800e-01 1.94884673e-01 2.62503773e-01 2.54104167e-01
      1.35780960e-01 8.05059224e-02 3.64705771e-02 7.90741071e-02
      1.00834213e-01 8.04156736e-02 1.44888505e-01 1.80395231e-01
      1.66164547e-01 2.62503773e-01 1.63252428e-01 2.62503773e-01
      2.62503773e-01 2.62503773e-01 1.67757645e-01 1.13066912e-01
      1.02732763e-01 1.82514206e-01 2.62503773e-01 2.62503773e-01
      9.97424051e-02 1.32968456e-01 1.10552788e-01 3.76443677e-02
      6.60275221e-02 9.86056179e-02 9.09010693e-02 1.58605710e-01
      2.06306070e-01 9.06947926e-02 5.35757951e-02 5.18056527e-02
      1.06702767e-01 6.97351247e-02 8.94761011e-02 6.82878792e-02
      2.89227575e-01 3.65275800e-01 1.72733679e-01 1.25859499e-01
      1.18582502e-01 1.30646080e-01 4.85068038e-02 5.88362515e-02
      4.00682092e-02 3.74537170e-01 3.74537170e-01 4.09099124e-02
      2.41440833e-02 7.31443940e-03 8.76975618e-03 2.58133486e-02
      6.19654395e-02 5.74972108e-02 3.74537170e-01 3.74537170e-01
      8.93635750e-02 3.73310037e-02 2.07400788e-02 1.76428612e-02
      1.57989226e-02 3.03023160e-02 4.39981334e-02 2.36856207e-01
      3.01171362e-01 1.13640003e-01 1.61018819e-01 1.90916732e-01
      1.33195147e-01 6.36011809e-02 4.51867431e-02 3.87929641e-02
      2.28952408e-01 3.30821365e-01 1.40834227e-01 1.58069059e-01
      1.53178215e-01 1.12982117e-01 5.81522919e-02 4.39181551e-02
      8.78550038e-02 3.30821365e-01 3.30821365e-01 7.63291791e-02
      3.54467630e-02 4.89392988e-02 5.05805053e-02 2.52793804e-02
      2.52844710e-02 4.38404046e-02 3.30821365e-01 3.30821365e-01
      6.66279942e-02 2.79217158e-02 3.19502912e-02 6.54930770e-02
      6.33087307e-02 9.67017263e-02 1.28183275e-01 1.93358451e-01
      2.83311903e-01 2.57340670e-01 8.55641365e-02 5.25191911e-02
      5.64448647e-02 4.01399545e-02 4.42293100e-02 1.10708147e-01
      2.52686560e-01 2.83311903e-01 2.83311903e-01 3.70488092e-02
      2.79137511e-02 6.41935095e-02 1.58553138e-01 2.24490106e-01
      2.08392009e-01 2.42173180e-01 2.83311903e-01 9.11606029e-02
      2.95660663e-02 1.94782037e-02 8.56242329e-02 1.26321942e-01
      1.28776863e-01 1.41764909e-01 1.74068436e-01 2.04704598e-01
      1.13637149e-01 2.52662152e-02 2.53855661e-02 8.77114758e-02
      2.16552481e-01 2.56925911e-01 1.38346896e-01 1.14373686e-02
      6.34913752e-03 1.12457562e-03 1.73896439e-02 3.02138239e-01
      3.02138239e-01 1.50641859e-01 3.91423143e-02 1.19925365e-02
      1.76704656e-02 2.70438218e-03 3.13856336e-03 6.05130149e-03
      2.06063449e-01 3.02138239e-01 3.02138239e-01 2.32231468e-01
      1.31739110e-01 2.91226637e-02 2.13918500e-02 1.20148128e-02
      1.84309147e-02 3.02138239e-01 1.01956733e-01 1.27994746e-01
      9.40827057e-02 3.50524932e-02 9.64498743e-02 2.96509843e-02
      2.00884379e-02 1.58966575e-02 4.84532788e-02 2.75478989e-01
      3.02138239e-01 3.02138239e-01 3.02138239e-01 6.91567734e-02
      3.16571556e-02 3.85999158e-02 1.03750691e-01 2.29018927e-01
      2.60889709e-01 1.79848388e-01 1.62490666e-01 1.81822747e-01
      1.49413511e-01 1.44757450e-01 1.36667907e-01 2.60889709e-01
      2.60889709e-01 1.49498448e-01 3.49771604e-02 6.01966903e-02
      1.28768161e-01 2.38656163e-01 7.93192983e-02 5.38513027e-02
      4.57915962e-02 5.40645234e-02 1.24488160e-01 1.11599118e-01
      2.60889709e-01 2.60889709e-01 2.60889709e-01 2.60889709e-01
      2.24575713e-01 1.31980091e-01 9.88380611e-02 4.00249511e-02
      1.56337507e-02 7.91530013e-02 2.60889709e-01 2.94022441e-01
      1.66786894e-01 8.96424651e-02 2.13554397e-01 2.70219028e-01
      1.19230695e-01 4.93836552e-02 7.54505694e-02 1.89140379e-01
      2.94022441e-01 1.81188479e-01 1.88220203e-01 1.45087823e-01
      8.21819305e-02 8.52539763e-02 7.40646273e-02 8.94630551e-02
      2.94022441e-01 2.94022441e-01 2.71795094e-01 1.42031431e-01
      5.03581278e-02 4.71191034e-02 2.47512572e-02 1.19396634e-02
      3.65596600e-02 1.67859420e-01 2.94022441e-01 1.30934820e-01
      3.75097282e-02 6.84818579e-03 1.06429551e-02 9.36319120e-03
      1.11201191e-02 3.09381839e-02 2.94022441e-01 3.32977235e-01
      1.78946376e-01 1.78515956e-01 1.28435761e-01 5.27384877e-02
      2.08247434e-02 3.10185365e-02 2.54512392e-02 3.32977235e-01
      3.32977235e-01 3.32977235e-01 4.77773100e-02 3.53525020e-02
      1.66965276e-02 2.05482938e-03 8.05655122e-03 3.05797812e-02
      2.05148071e-01 3.32977235e-01 7.43200928e-02 1.60443969e-02
      3.90922977e-03 4.45999531e-03 4.76956042e-03 7.64431385e-03
      2.22985335e-02 3.32977235e-01 3.32977235e-01 1.64951771e-01
      5.72768971e-03 4.11960064e-03 5.31172904e-04 8.48160300e-04
      2.86732567e-03 4.38387208e-02 2.29913309e-01 3.58558625e-01
      3.58558625e-01 6.19569654e-03 4.81671141e-03 1.41386676e-03
      8.33781203e-04 4.92049428e-03 7.06273690e-02 1.24819703e-01
      3.58558625e-01 3.58558625e-01 2.36582253e-02 9.24818870e-03
      3.42741172e-04 5.67848980e-03 9.08199884e-03 6.86930269e-02
      1.11380406e-01 3.58558625e-01 1.55768946e-01 3.82608967e-03
      3.43158236e-03 2.23766809e-04 8.93654433e-05 3.89263057e-03
      9.08981636e-02 2.38933980e-01 3.58558625e-01 1.59265861e-01
      1.01022469e-02 2.78884033e-03 2.66576477e-04 3.46046244e-03
      6.73569692e-03 7.40034059e-02 2.56561965e-01 3.46530169e-01
      3.46530169e-01 2.87270173e-02 1.14503819e-02 5.86225512e-03
      2.38552745e-02 1.24760447e-02 2.99493074e-02 6.92759529e-02
      3.45204681e-01 2.95741647e-01 3.06444261e-02 3.40017080e-02
      1.77996531e-02 5.53524792e-02 7.30129108e-02 1.05826519e-01
      1.12193771e-01 3.46530169e-01 3.34065497e-01 1.19356709e-02
      1.32579764e-03 1.69203768e-03 8.37443955e-03 6.87303441e-03
      1.91547368e-02 1.17700070e-01 3.46530169e-01 3.46530169e-01
      3.04783229e-02 1.23350574e-02 4.65288339e-03 1.34844696e-02
      1.64090935e-02 2.26590093e-02 1.39053196e-01 1.59165859e-01
      1.01635613e-01 1.89967435e-02 3.71496789e-02 1.21036274e-02
      3.77180241e-02 7.54746944e-02 7.13709816e-02 5.43157607e-02
      2.25054607e-01 1.76987201e-01 5.10527305e-02 6.99988380e-02
      5.49194962e-02 3.03423665e-02 5.57745248e-02 7.08060116e-02
      6.71868995e-02 3.90249789e-01 3.90249789e-01 1.53595377e-02
      1.57928318e-02 4.00282582e-03 6.48103328e-03 9.94689204e-03
      1.96625888e-02 2.28908464e-01 3.90249789e-01 3.90249789e-01
      4.52382118e-02 7.91895837e-02 6.18719123e-02 4.73975902e-03
      1.63373481e-02 9.99718606e-02 3.90249789e-01 2.00623088e-02
      1.68483444e-02 2.48693544e-02 4.40079756e-02 2.68977553e-01
      4.03595343e-02 5.02068475e-02 4.39918526e-02 2.16193497e-02
      6.92746192e-02 3.66733335e-02 3.84919569e-02 3.32651250e-02
      1.66580845e-02 2.01708302e-02 6.38217330e-02 1.09388217e-01
      1.40764087e-01 4.38927978e-01 6.44722134e-02 2.54472960e-02
      5.03855906e-02 2.70236641e-01 4.56992239e-02 5.70425615e-02
      4.50987853e-02 4.38927978e-01 4.38927978e-01 6.60487488e-02
      3.42524461e-02 2.32435260e-02 2.01081987e-02 6.05066679e-03
      2.07417477e-02 5.36448509e-02 4.38927978e-01 1.11223020e-01
      4.81061116e-02 3.98579277e-02 2.21491791e-02 4.62850183e-03
      7.85358436e-03 2.45848726e-02 6.10963777e-02 1.62508249e-01
      2.12310925e-01 1.75578237e-01 8.74604061e-02 2.29640435e-02
      4.55947453e-03 2.50820094e-03 2.82616587e-03 1.78409144e-02
      1.49772733e-01 4.31032032e-01 1.42259374e-01 2.73537859e-02
      2.14073416e-02 7.44103920e-03 2.47267541e-03 7.29957456e-03
      1.71536189e-02 4.31032032e-01 4.31032032e-01 4.31032032e-01
      2.11490318e-01 1.66987311e-02 7.47525832e-03 1.82009907e-03
      1.40343548e-03 5.03398385e-03 1.76449463e-01 1.97944254e-01
      1.73368707e-01 3.20188031e-02 3.86741990e-03 2.35558162e-03
      1.09085557e-03 1.74424087e-03 4.33224253e-03 3.65092196e-02
      4.02979225e-01 2.16602847e-01 1.19347358e-02 1.70753628e-03
      1.50156289e-03 1.23179471e-03 1.58532336e-03 4.45765490e-03
      1.01497285e-01 4.02979225e-01 4.02979225e-01 1.41441882e-01
      9.60806385e-04 1.98863680e-03 6.56644814e-04 1.29693525e-03
      1.96789345e-03 3.63362543e-02 4.02979225e-01 4.02979225e-01
      2.63988283e-02 3.82259546e-04 1.60363177e-03 1.80793300e-04
      1.75996439e-03 3.40796961e-03 1.81469634e-01 3.74048561e-01
      6.78491294e-02 3.41624487e-03 1.44350005e-03 1.81118376e-04
      1.37590058e-03 8.02939641e-04 6.97027659e-03 1.96019053e-01
      3.74048561e-01 2.93125659e-02 2.06999714e-03 1.84369064e-03
      1.21348145e-04 3.17515514e-04 7.25042250e-04 1.00805573e-02
      3.57954621e-01 3.74048561e-01 1.33169621e-01 1.25615241e-03
      8.05422969e-05 6.57875265e-04 8.32263759e-05 1.43585110e-03
      3.42252385e-03 3.25809211e-01 3.74048561e-01 2.44401582e-02
      1.19143701e-03 1.22912708e-04 1.60050706e-03 1.92060852e-05
      5.51819045e-04 2.38630106e-03 3.74048561e-01 3.69604498e-01
      6.66813403e-02 9.85620660e-04 3.13083670e-04 1.32150935e-05 0.
      5.46367199e-04 9.13323741e-03 3.23638111e-01 3.69604498e-01
      9.96064171e-02 1.60612934e-03 0. 0. 0. 4.22015117e-04
      6.18343428e-03 2.86529958e-01 3.69604498e-01 7.29017928e-02
      1.42839178e-03 3.70365917e-04 1.65533985e-03 1.77590307e-04
      7.72165877e-05 1.62268162e-03 3.69604498e-01 3.69604498e-01
      9.67952386e-02 4.52794321e-03 1.81235198e-03 1.04315928e-03
      1.44445896e-03 8.08176992e-04 2.55034468e-03 3.11784685e-01
      3.71017784e-01 2.95197189e-01 7.38453493e-03 3.65064079e-05
      7.45725265e-05 0. 4.50629828e-04 2.02159700e-03 1.59305602e-01
      3.71017784e-01 3.71017784e-01 2.87513305e-02 2.80276232e-04
      3.73324903e-04 3.47511777e-05 6.09069190e-04 3.25701130e-03
      1.12456955e-01 3.71017784e-01 1.90857440e-01 8.24025366e-03
      1.48677058e-03 1.56092632e-03 8.34598381e-04 1.12573383e-03
      3.84108163e-03 1.62363663e-01 3.71017784e-01 3.33319426e-01
      1.88492276e-02 1.93466118e-03 3.40588111e-03 0. 8.70284042e-04
      8.28089379e-03 8.68320093e-02 3.54748815e-01 3.54748815e-01
      1.85688250e-02 1.03944819e-03 1.99818076e-03 3.48156993e-03
      3.28126689e-03 2.78042965e-02 3.49497288e-01 3.54748815e-01
      3.54748815e-01 1.23040602e-02 1.40249627e-02 1.85593758e-02
      3.68942618e-02 1.97308175e-02 1.21892817e-01 3.54748815e-01
      2.72215456e-01 1.90658092e-01 1.60466786e-02 6.44173240e-03
      1.07093509e-02 1.12932045e-02 8.31567030e-03 3.15224864e-02
      1.52499557e-01 9.24335271e-02 2.38159839e-02 8.46071448e-03
      1.05813360e-02 3.06052249e-02 1.13547355e-01 6.30570725e-02
      6.59281686e-02 2.44679019e-01</_>
    <_>
      2.93699026e-01 1.05066471e-01 1.17843017e-01 5.41423485e-02
      2.93699026e-01 2.87235864e-02 2.18521189e-02 2.16674618e-02
      2.93699026e-01 2.93699026e-01 1.77026168e-01 1.53125316e-01
      1.25319630e-01 4.28946838e-02 1.65784284e-02 3.55304703e-02
      1.70525666e-02 2.93699026e-01 9.89785120e-02 1.86970413e-01
      1.50967762e-01 1.16466500e-01 2.93699026e-01 6.49577230e-02
      4.81540523e-02 4.27188277e-02 5.32286428e-02 2.02938631e-01
      2.93699026e-01 2.93699026e-01 2.17928782e-01 9.36266929e-02
      4.72131744e-02 4.98157106e-02 3.65706161e-02 8.60591680e-02
      1.89306110e-01 1.21329814e-01 2.47062489e-01 1.58875018e-01
      4.92345951e-02 4.23355773e-03 1.18930964e-02 4.09019506e-03
      1.69571519e-01 2.15698034e-01 2.81171530e-01 2.90659636e-01
      1.85256734e-01 4.95303012e-02 1.67455189e-02 1.33112641e-02
      3.84891778e-03 1.97813675e-01 1.25432983e-01 2.01399311e-01
      2.90659636e-01 2.90659636e-01 1.70254260e-01 1.78914834e-02
      1.88630372e-02 6.88511692e-03 4.17775698e-02 7.13450760e-02
      1.41396776e-01 2.90659636e-01 2.90659636e-01 2.90659636e-01
      5.30972816e-02 6.10008091e-02 1.13261575e-02 2.32947357e-02
      1.70054704e-01 2.50810355e-01 2.50810355e-01 8.77866000e-02
      6.15336671e-02 7.97757804e-02 2.32094750e-02 6.06174208e-03
      2.14650422e-01 2.50810355e-01 2.50810355e-01 2.29269937e-01
      8.34022984e-02 7.14550689e-02 6.88926429e-02 1.09245256e-02
      5.07700397e-03 2.50810355e-01 5.12258857e-02 7.92873502e-02
      2.40424573e-01 2.50810355e-01 2.15950400e-01 2.08902419e-01
      2.12764576e-01 4.87153418e-02 4.26106788e-02 5.06245568e-02
      7.97884241e-02 1.76749438e-01 1.89334959e-01 2.12437093e-01
      2.50810355e-01 2.50810355e-01 4.24878150e-02 4.36393470e-02
      3.24793577e-01 1.82341129e-01 1.49136394e-01 4.83243912e-02
      2.03195531e-02 7.42215384e-03 1.82303876e-04 5.37344767e-03
      3.24793577e-01 3.24793577e-01 6.62759021e-02 3.60378288e-02
      1.16883870e-02 7.37837097e-03 1.18693174e-03 2.30410253e-03
      8.26355219e-02 3.24793577e-01 1.77093521e-01 1.19539239e-01
      2.11915359e-01 1.61766812e-01 1.69129625e-01 2.29275912e-01
      1.49801195e-01 1.73645429e-02 4.78042699e-02 3.24793577e-01
      1.19555317e-01 8.53691697e-02 7.69333541e-02 8.23611543e-02
      1.19649097e-01 1.07176244e-01 1.56081289e-01 3.01471800e-01
      3.23942512e-01 1.81931071e-02 2.58993288e-03 6.88948960e-04
      3.93632427e-03 7.19103555e-05 2.89022969e-03 1.92233607e-01
      3.23942512e-01 3.23942512e-01 6.83901012e-02 1.66466590e-02 0.
      4.03146539e-03 4.37900744e-04 2.20977478e-02 2.54716396e-01
      3.23942512e-01 2.30385050e-01 3.32937203e-02 8.21674429e-03
      9.81544331e-03 9.90060158e-03 2.65951455e-02 5.71056232e-02
      2.80848861e-01 3.23942512e-01 1.15825094e-01 1.16440086e-02
      2.78730411e-04 0. 0. 3.53243668e-03 6.06705397e-02 3.23942512e-01
      3.23942512e-01 3.13629091e-01 1.22576602e-01 3.78329121e-02
      2.67501874e-03 3.78797995e-03 2.52763671e-03 6.77709803e-02
      2.55862504e-01 3.13629091e-01 3.13629091e-01 8.89226347e-02
      3.53335626e-02 3.43930977e-03 1.81048233e-02 1.18692014e-02
      6.35781214e-02 3.13629091e-01 3.13629091e-01 4.79810275e-02
      1.44000500e-02 5.94396610e-03 2.08056998e-03 2.21706941e-04
      4.30656085e-03 1.62900895e-01 3.13629091e-01 3.13629091e-01
      2.77847368e-02 3.97124588e-02 2.02937517e-02 4.16987436e-03
      1.65594909e-02 2.14578528e-02 1.78669378e-01 3.13629091e-01
      2.12601006e-01 2.63094127e-01 3.75948846e-02 1.78579614e-02
      6.02648733e-03 4.79693562e-02 7.31644705e-02 1.21111035e-01
      2.92027801e-01 2.92027801e-01 2.82327712e-01 7.95619097e-03
      3.72221670e-03 1.85508132e-02 6.38561770e-02 1.25308514e-01
      2.92027801e-01 2.92027801e-01 2.92027801e-01 1.02616651e-02
      4.35923897e-02 1.86327547e-02 8.92696064e-03 5.71529940e-02
      9.88091379e-02 1.74534246e-01 2.92027801e-01 1.76748022e-01
      1.32304113e-02 1.15612559e-02 4.42433450e-03 2.39443816e-02
      7.52121955e-02 1.74743503e-01 2.92027801e-01 2.92027801e-01
      8.58070850e-02 4.47288193e-02 7.63653442e-02 1.47754654e-01
      1.16543882e-01 3.05656552e-01 4.50977683e-02 2.76034977e-02
      2.37479024e-02 4.21107896e-02 8.80179182e-02 2.18754366e-01
      3.05656552e-01 2.62664407e-01 6.71252087e-02 3.00040189e-02
      2.49215998e-02 1.98048167e-02 6.57257512e-02 7.77027532e-02
      1.19371064e-01 1.93946719e-01 2.16826826e-01 3.05656552e-01
      2.03275457e-01 1.37533881e-02 8.32519960e-03 2.63799317e-02
      2.50306372e-02 9.81214419e-02 3.05656552e-01 3.05656552e-01
      3.05656552e-01 3.05656552e-01 2.65121330e-02 1.39876418e-02
      3.01323012e-02 1.06032401e-01 1.57408178e-01 2.87140340e-01
      2.21304476e-01 1.47361010e-01 7.87762180e-02 4.60860729e-02
      2.06978302e-02 7.15119317e-02 4.45915423e-02 5.42929024e-02
      1.64655447e-01 2.87140340e-01 2.87140340e-01 1.41697511e-01
      7.76486769e-02 2.64145993e-02 3.46025378e-02 1.81947984e-02
      5.54778203e-02 2.33976752e-01 2.48107851e-01 2.87140340e-01
      2.87140340e-01 9.08117667e-02 3.28341499e-02 3.81490029e-02
      1.16316704e-02 3.69847417e-02 9.87982750e-02 2.76999593e-01
      2.87140340e-01 2.87140340e-01 1.39537334e-01 3.34360115e-02
      1.66439004e-02 2.80768219e-02 3.10985316e-02 7.63339922e-02
      2.19605580e-01 2.35410959e-01 1.77330568e-01 1.82679892e-01
      3.67270634e-02 3.43780927e-02 1.89642385e-02 1.78643949e-02
      4.17710729e-02 7.59642869e-02 1.98000371e-01 3.08088839e-01
      3.08088839e-01 3.71893644e-02 2.69562379e-02 2.53065526e-02
      8.30166489e-02 1.24445722e-01 2.03627557e-01 3.08088839e-01
      3.08088839e-01 1.36754274e-01 1.89269762e-02 1.63124725e-02
      2.76383907e-02 1.41965434e-01 1.56182304e-01 1.38998657e-01
      3.08088839e-01 3.08088839e-01 2.23948583e-01 2.22606268e-02
      1.53550077e-02 8.52614362e-03 1.12100039e-02 4.15690690e-02
      9.45382714e-02 2.84698099e-01 3.22066158e-01 2.55021542e-01
      4.80464287e-02 1.03694117e-02 9.57440436e-02 4.51036319e-02
      3.16023976e-02 1.41590819e-01 1.36762276e-01 1.73581615e-01
      2.07156658e-01 1.56372264e-01 1.13266736e-01 6.47149235e-03
      5.64835817e-02 5.77268861e-02 1.36751056e-01 3.22066158e-01
      3.22066158e-01 1.82723418e-01 3.20420489e-02 6.96517294e-03
      4.41271849e-02 1.32060237e-02 3.42919752e-02 3.00106078e-01
      3.22066158e-01 2.72495031e-01 1.39016479e-01 1.06414221e-01
      5.68851940e-02 2.30030745e-01 3.92922908e-02 1.17628314e-02
      6.93367943e-02 2.95186862e-02 4.90355045e-02 1.49761468e-01
      2.30185136e-01 2.81086087e-01 1.56935871e-01 3.55665246e-03
      2.44855694e-03 3.50174960e-03 5.78427874e-03 1.13553163e-02
      8.55442211e-02 2.81086087e-01 2.81086087e-01 2.81086087e-01
      6.33248240e-02 4.79889065e-02 2.29141787e-01 1.88096851e-01
      5.49658574e-02 1.30745500e-01 1.55163482e-01 2.69154698e-01
      2.81086087e-01 2.28068843e-01 2.04019055e-01 5.98004013e-02
      4.59875278e-02 4.20620441e-02 8.27621296e-02 1.84709162e-01
      2.81086087e-01 3.07273772e-02 3.19964201e-05 6.50759414e-03
      1.07718613e-02 4.44410630e-02 5.39756529e-02 1.82208061e-01
      2.68452287e-01 2.68452287e-01 3.43099143e-03 1.07774809e-02
      1.30315721e-02 3.27780694e-02 1.26785234e-01 1.23994336e-01
      2.35319868e-01 2.68452287e-01 1.95536464e-01 1.40765518e-01
      2.05711961e-01 2.68452287e-01 9.77777317e-02 1.58145726e-01
      1.21164709e-01 1.45005226e-01 1.81550056e-01 2.45876908e-01
      2.49631517e-02 1.60261482e-01 2.31566772e-01 2.50271022e-01
      2.68452287e-01 2.58141428e-01 1.49621740e-01 1.08787812e-01
      4.59554829e-02 7.45235058e-03 4.24279012e-02 3.70960087e-02
      3.51417586e-02 1.28656253e-01 1.21668458e-01 1.82502940e-01
      2.53456295e-01 2.10769176e-01 2.41996031e-02 2.92260796e-02
      3.55080590e-02 1.74511299e-02 1.11921072e-01 1.87878698e-01
      2.53456295e-01 2.53456295e-01 9.46099386e-02 6.61562979e-02
      2.53456295e-01 2.53456295e-01 2.53456295e-01 2.53456295e-01
      2.06001803e-01 8.83175805e-02 6.17088787e-02 3.02157309e-02
      1.03340894e-01 2.48473659e-01 2.53456295e-01 1.70251042e-01
      2.12571725e-01 2.30267078e-01 1.95062876e-01 1.02214254e-01
      5.26008569e-02 5.82252890e-02 9.92144495e-02 7.51795545e-02
      1.61602408e-01 2.93919772e-01 2.22634688e-01 1.08206188e-02
      2.69644021e-04 9.16533079e-03 1.35088693e-02 1.44550959e-02
      9.42601413e-02 2.37123370e-01 2.93919772e-01 2.93919772e-01
      1.15466714e-01 5.94442990e-03 7.57313846e-03 3.34197506e-02
      8.97117630e-02 1.17713407e-01 2.32114121e-01 2.93919772e-01
      2.35261872e-01 6.27468005e-02 8.65422189e-03 7.35503109e-03
      6.95100985e-03 9.24096443e-03 1.26327559e-01 2.57231295e-01
      2.93919772e-01 2.93919772e-01 2.93919772e-01 7.13258050e-03
      4.41898452e-03 6.73105288e-03 9.64259543e-03 4.88547273e-02
      1.04620963e-01 3.28904808e-01 3.28904808e-01 1.21404439e-01
      1.04024308e-02 8.94851889e-03 4.94508166e-03 1.42810354e-02
      3.75220217e-02 7.84133598e-02 3.28904808e-01 3.28904808e-01
      1.00306854e-01 9.67378449e-03 5.93506498e-03 4.99466620e-03
      1.17616751e-03 4.34941798e-02 1.13054998e-01 3.28904808e-01
      3.28904808e-01 2.12133735e-01 8.45702644e-03 6.95617404e-03
      1.71219558e-02 1.57702304e-02 3.14634256e-02 6.39607161e-02
      3.28904808e-01 3.28904808e-01 1.33450583e-01 2.92680394e-02
      2.83749569e-02 2.06298493e-02 1.24621272e-01 1.60230353e-01
      1.04739331e-01 2.63792992e-01 2.63792992e-01 8.56450796e-02
      3.83797884e-02 3.81724872e-02 2.95898039e-02 2.61258900e-01
      2.63792992e-01 1.78193912e-01 2.63792992e-01 2.63792992e-01
      1.05078995e-01 5.92386946e-02 6.41444698e-02 9.38777179e-02
      1.26739800e-01 1.07486449e-01 8.69150534e-02 2.63792992e-01
      2.63792992e-01 1.25034437e-01 8.70791897e-02 9.74324197e-02
      1.18844606e-01 2.63792992e-01 2.63792992e-01 1.48817301e-01
      1.67681888e-01 1.17066994e-01 1.08000629e-01 1.00525513e-01
      1.10056289e-01 1.69642847e-02 1.08722068e-01 1.44663215e-01
      1.56201914e-01 2.67811835e-01 2.67811835e-01 6.61703646e-02
      2.77180001e-02 3.14836018e-02 1.61657244e-01 7.94712007e-02
      3.25998217e-02 1.33397505e-01 2.67811835e-01 2.52552867e-01
      5.92175536e-02 6.91736192e-02 1.21795356e-01 9.51426476e-02
      2.67811835e-01 2.67811835e-01 1.65348396e-01 2.67811835e-01
      1.72350973e-01 4.96705174e-02 5.36374301e-02 6.77357614e-02
      2.67811835e-01 2.67811835e-01 1.18383490e-01 1.25905260e-01
      2.12359414e-01 1.64988264e-01 5.50394803e-02 8.04052278e-02
      1.84505537e-01 3.02939743e-01 2.20155925e-01 2.43376102e-02
      6.84294999e-02 9.63973030e-02 3.99774760e-02 3.79108824e-02
      5.95596656e-02 1.58517584e-01 3.02939743e-01 3.02939743e-01
      1.35422900e-01 2.64753364e-02 2.12159753e-02 2.30806023e-02
      6.13729395e-02 7.92167932e-02 1.88089147e-01 3.02939743e-01
      3.02939743e-01 1.38032019e-01 1.16073810e-01 6.93340451e-02
      4.22076881e-02 2.35673822e-02 4.79417555e-02 1.40077546e-01
      3.02939743e-01 3.02939743e-01 1.74426436e-01 8.15362409e-02
      6.13789596e-02 1.22047029e-01 1.67938069e-01 1.29736558e-01
      1.78929299e-01 2.34814525e-01 2.34814525e-01 2.34814525e-01
      5.70114292e-02 5.57556190e-02 4.77508195e-02 1.07157022e-01
      1.04986124e-01 1.36345252e-01 6.58631697e-02 1.80386722e-01
      2.34814525e-01 2.34814525e-01 2.34814525e-01 1.10304654e-01
      5.31540811e-02 3.45183536e-02 4.28477935e-02 2.29606301e-01
      2.27450326e-01 1.36047259e-01 4.30403650e-02 7.54764900e-02
      2.13693038e-01 2.34814525e-01 1.71778277e-01 1.71061859e-01
      1.70878902e-01 1.34329289e-01 1.71840653e-01 2.25273207e-01
      2.34814525e-01 2.07122624e-01 1.87942550e-01 6.95270523e-02
      7.99780339e-02 3.63882221e-02 1.54580235e-01 2.33438253e-01
      2.63159484e-01 2.64578015e-01 2.42681891e-01 7.92402998e-02
      1.14244474e-02 1.07085966e-02 4.76570576e-02 1.30785376e-01
      2.07894519e-01 1.89061344e-01 1.55593827e-01 2.40210339e-01
      1.19171463e-01 1.46360090e-02 3.40755545e-02 5.81120774e-02
      5.27507588e-02 1.09700181e-01 2.64578015e-01 2.64578015e-01
      2.64578015e-01 1.50339574e-01 2.15468667e-02 3.29266153e-02
      6.55357465e-02 1.51267692e-01 1.43255830e-01 2.15310559e-01
      2.64578015e-01 2.64578015e-01 1.61623538e-01 1.86262447e-02
      6.52961731e-02 1.24816168e-02 6.06643520e-02 9.49738324e-02
      1.58638015e-01 2.88056523e-01 1.58008009e-01 5.64854704e-02
      8.55752453e-03 1.63377833e-03 1.68517733e-03 3.21490541e-02
      1.91192225e-01 2.64256716e-01 2.65010536e-01 2.88056523e-01
      2.46010646e-01 6.14396343e-03 1.11605006e-03 1.69739965e-03
      2.14044061e-02 7.25041255e-02 1.82032838e-01 2.88056523e-01
      2.51186460e-01 1.22730089e-02 5.70501667e-04 7.44448917e-04
      3.56420671e-04 4.22058403e-02 2.88056523e-01 2.88056523e-01
      2.88056523e-01 2.88056523e-01 8.90484080e-02 2.50313594e-03
      7.44033459e-05 3.79353412e-04 8.29264801e-03 8.51582438e-02
      1.44083083e-01 2.79953897e-01 2.88388580e-01 2.49633640e-01
