<?xml version="1.0"?>
<opencv_storage>
<opencv_ml_svm>
  <format>3</format>
  <svmType>C_SVC</svmType>
  <kernel>
    <type>RBF</type>
    <gamma>1.</gamma></kernel>
  <C>1.</C>
  <term_criteria><epsilon>1.1920928955078125e-07</epsilon>
    <iterations>1000</iterations></term_criteria>
  <var_count>1764</var_count>
  <class_count>2</class_count>
  <class_labels type_id="opencv-matrix">
    <rows>2</rows>
    <cols>1</cols>
    <dt>i</dt>
    <data>
      0 1</data></class_labels>
  <sv_total>10</sv_total>
  <support_vectors>
    <_>
      0. 0. 0. 0. 0. 0. 0. 0. 0. 0. 0. 0. 0. 0. 0. 0. 0. 0. 0. 0. 0. 0.
      0. 0. 0. 0. 0. 0. 0. 0. 0. 0. 0. 0. 0. 0. 0. 0. 0. 0. 0. 0. 0. 0.
      0. 0. 0. 0. 0. 0. 0. 0. 0. 0. 0. 0. 0. 0. 0. 0. 0. 0. 0. 0. 0. 0.
      0. 0. 0. 0. 0. 0. 0. 0. 0. 0. 0. 0. 0. 0. 0. 0. 0. 0. 0. 0. 0. 0.
      0. 0. 0. 0. 0. 0. 0. 0. 0. 0. 0. 0. 0. 0. 0. 0. 0. 0. 0. 0. 0. 0.
      0. 0. 0. 0. 0. 0. 0. 0. 0. 0. 0. 0. 0. 0. 0. 0. 0. 0. 0. 0. 0. 0.
      0. 0. 0. 0. 0. 0. 0. 0. 0. 0. 0. 0. 0. 0. 0. 0. 0. 0. 0. 0. 0. 0.
      0. 0. 0. 0. 0. 0. 0. 0. 0. 0. 0. 0. 0. 0. 0. 0. 0. 0. 0. 0. 0. 0.
      0. 0. 0. 0. 0. 0. 0. 0. 0. 0. 0. 0. 0. 0. 0. 0. 0. 0. 0. 0. 0. 0.
      0. 0. 0. 0. 0. 0. 0. 0. 0. 0. 0. 0. 0. 0. 0. 0. 0. 0. 0. 0. 0. 0.
      0. 0. 0. 0. 0. 0. 0. 0. 0. 0. 0. 0. 0. 0. 0. 0. 0. 0. 0. 0. 0. 0.
      0. 0. 0. 0. 0. 0. 0. 0. 0. 0. 1.87489539e-02 0. 0. 0. 0. 0. 0. 0.
      1.87489539e-02 1.60225970e-03 0. 0. 0. 0. 0. 0. 0. 1.60225970e-03
      5.66414535e-01 1.63167585e-02 4.88257818e-02 0. 1.84929609e-01 0.
      3.10357630e-01 3.48234683e-01 5.66414535e-01 1.24011859e-01
      1.26908133e-02 3.79756056e-02 0. 1.46660820e-01 0. 1.67374536e-01
      1.12361096e-01 1.35704204e-01 0. 0. 0. 0. 0. 0. 0. 0. 0. 0. 0. 0.
      0. 0. 0. 0. 0. 0. 0. 0. 0. 0. 9.25537050e-01 0. 0. 0. 0. 0. 0. 0.
      0. 0. 0. 0. 0. 0. 0. 0. 0. 0. 0. 0. 0. 0. 0. 6.07752241e-03 0. 0.
      0. 0. 0. 0. 0. 6.07752241e-03 0. 0. 0. 0. 0. 0. 0. 0. 0.
      9.11628306e-02 2.09402218e-01 6.26608849e-01 0. 7.27776766e-01 0.
      0. 0. 9.11628306e-02 1.02352863e-02 0. 0. 0. 0. 0. 0. 0.
      1.02352863e-02 2.98065729e-02 0. 0. 0. 0. 0. 0. 0. 2.98065729e-02
      2.47168377e-01 9.59985927e-02 2.78213710e-01 1.60638094e-02
      2.31491551e-01 0. 0. 0. 2.45997936e-01 5.42558134e-01
      1.62398502e-01 2.66443729e-01 6.96098357e-02 1.98930919e-01 0. 0.
      0. 5.42558134e-01 1.40900109e-02 0. 0. 0. 0. 0. 0. 0.
      1.40900109e-02 1.61461383e-02 0. 0. 0. 0. 0. 0. 0. 1.61461383e-02
      4.82241452e-01 8.83871242e-02 1.36775047e-01 1.25612132e-02
      3.19246463e-02 0. 8.64206348e-04 2.88802577e-04 4.82241452e-01
      4.82241452e-01 1.54975131e-01 1.04413517e-01 0. 3.51267345e-02 0.
      1.29630957e-02 4.33203857e-03 4.82241452e-01 1.02324411e-02 0. 0.
      0. 0. 0. 0. 0. 1.02324411e-02 1.48539171e-02 0. 0. 0. 0. 0. 0. 0.
      1.48539171e-02 4.86074030e-01 5.62283359e-02 2.55490001e-02
      1.63151906e-03 9.53066815e-03 1.72617671e-03 5.70991123e-03
      1.90815213e-03 4.86074030e-01 4.86074030e-01 1.99669540e-01
      4.31211255e-02 2.44727861e-02 4.97885793e-02 2.58926507e-02 0. 0.
      4.86074030e-01 1.53050972e-02 0. 0. 0. 0. 0. 0. 0. 1.53050972e-02
      2.46044900e-02 0. 0. 0. 0. 0. 0. 0. 2.46044900e-02 4.94689196e-01
      1.12153828e-01 1.43043790e-02 1.10547198e-02 3.64376456e-02
      1.16960937e-02 0. 0. 4.94689196e-01 4.94689196e-01 4.01373580e-03
      0. 0. 1.11548528e-02 0. 0. 0. 4.94689196e-01 2.95266002e-01
      1.82730760e-02 5.46799079e-02 0. 1.09083772e-01 5.19018769e-02
      1.31850496e-01 1.60834432e-01 2.95266002e-01 1.56910956e-01
      1.61695499e-02 5.00022061e-02 3.30719561e-03 8.79030153e-02
      3.46012530e-03 8.42735618e-02 4.99128513e-02 1.61534935e-01
      2.95266002e-01 4.44561206e-02 1.33029476e-01 0. 2.15386733e-01
      1.28675207e-01 2.77115375e-01 2.40831673e-01 2.95266002e-01
      2.95266002e-01 3.56907174e-02 1.31052554e-01 4.96079400e-02
      2.08475351e-01 2.50754301e-02 1.96118250e-01 1.45229235e-01
      2.95266002e-01 1.08525977e-01 1.64572627e-03 8.89336690e-03
      8.11793841e-03 8.89758915e-02 0. 5.83782233e-02 1.95090231e-02
      1.08525977e-01 1.67087349e-03 0. 2.64581759e-04 5.41195855e-04
      1.60473064e-02 0. 3.79200443e-03 1.26722455e-03 1.67087349e-03
      4.14897680e-01 9.65494476e-03 8.84220973e-02 1.21769086e-01
      3.71835619e-01 0. 1.90479055e-01 2.27746755e-01 4.14897680e-01
      4.14897680e-01 0. 3.96872638e-03 8.11793841e-03 7.98132792e-02
      4.47821757e-03 4.88559566e-02 1.16601661e-01 4.14897680e-01 0. 0.
      0. 0. 0. 0. 0. 0. 0. 9.77273379e-03 4.41527031e-02 1.32121220e-01
      0. 5.29121578e-01 0. 0. 0. 9.77273379e-03 3.63106519e-01 0. 0. 0.
      1.99225713e-02 3.72857116e-02 1.26860216e-01 2.69370139e-01
      4.11400527e-01 5.89453951e-02 5.92221739e-03 1.77214630e-02 0.
      5.29121578e-01 2.89999992e-02 7.21907839e-02 9.11938697e-02
      7.38245472e-02 6.20766133e-02 3.78781706e-02 1.05627298e-01
      1.37004647e-02 3.38139057e-01 4.80182003e-03 2.77628587e-03
      1.43282872e-04 6.10783510e-02 3.38139057e-01 1.04132719e-01
      1.24386184e-01 5.93686774e-02 3.38139057e-01 2.08078846e-02
      1.66039616e-02 2.14924291e-03 3.38139057e-01 4.99170609e-02
      6.35937182e-03 1.55213242e-02 6.22748304e-03 3.38139057e-01
      3.21714059e-02 4.80078049e-02 1.07873483e-02 4.94633093e-02
      2.95702904e-01 3.80997397e-02 2.89096776e-02 2.69857626e-02
      3.38139057e-01 1.39409423e-01 2.31378481e-01 5.91165349e-02
      2.89843470e-01 3.02438170e-01 7.68259838e-02 1.04181178e-01
      1.50782578e-02 1.25881061e-01 5.28471777e-03 6.98699150e-03
      1.47153472e-03 3.02438170e-01 3.02438170e-01 1.22281298e-01
      1.04294546e-01 0. 1.59837857e-01 0. 2.60368325e-02 8.70105159e-03
      3.02438170e-01 2.30761245e-01 2.52681281e-02 2.92240772e-02
      1.44720981e-02 2.69504130e-01 4.12059426e-02 1.69000328e-01
      6.52356073e-02 2.34851673e-01 3.02438170e-01 7.70043731e-02
      1.07601769e-01 1.14275157e-01 3.02438170e-01 2.51299050e-02
      1.37558445e-01 6.54234588e-02 3.02438170e-01 3.25452060e-01
      4.56448421e-02 4.50964384e-02 4.23433725e-03 5.75082377e-02
      3.07786651e-03 1.16397683e-02 5.45901060e-03 3.25452060e-01
      3.25452060e-01 1.28350720e-01 5.22179976e-02 6.35150596e-02
      1.25329584e-01 4.61679995e-02 2.09512897e-02 1.41719542e-02
      3.25452060e-01 3.25452060e-01 4.73899581e-02 7.57063404e-02
      4.93268594e-02 1.36375204e-01 8.44259746e-03 3.87788303e-02
      4.97556739e-02 3.25452060e-01 3.25452060e-01 3.87833789e-02
      4.55865487e-02 5.96638732e-02 1.41087577e-01 3.59084457e-02
      8.19889903e-02 1.78736106e-01 3.25452060e-01 3.36243361e-01
      8.15681666e-02 1.50612732e-02 3.33915949e-02 9.71424431e-02
      2.42717750e-02 1.56681966e-02 9.93908476e-03 3.36243361e-01
      3.36243361e-01 1.31560015e-02 1.07425805e-02 3.72016616e-03
      2.40926892e-02 0. 8.65990645e-04 5.05353557e-03 3.36243361e-01
      3.36243361e-01 2.82146335e-02 7.80289620e-03 3.13669257e-02
      9.51010883e-02 1.88780483e-02 5.50981611e-02 1.42752305e-01
      3.36243361e-01 3.36243361e-01 1.24740444e-01 4.23766263e-02
      5.58024943e-02 2.99851801e-02 0. 1.46999685e-02 1.29030004e-01
      3.36243361e-01 4.02339883e-02 7.47404387e-03 2.23651435e-02 0.
      4.37113978e-02 1.47206616e-02 4.77503128e-02 2.45202985e-02
      4.25066762e-02 1.01401255e-01 4.65516932e-03 1.76448077e-02
      7.59854959e-03 3.36703360e-02 5.14751766e-03 2.74831150e-02
      3.27359885e-02 1.06455661e-01 5.14237225e-01 3.25010084e-02
      1.43860448e-02 0. 1.09885642e-02 7.16055394e-04 4.32490092e-03
      1.32832141e-03 4.06885177e-01 5.14237225e-01 2.35988740e-02
      1.81031192e-03 0. 2.39354325e-03 3.25479719e-04 1.71366893e-03
      5.63128293e-03 5.14237225e-01 5.15436344e-02 3.67134955e-04
      3.03602684e-03 3.96295451e-03 9.24843550e-03 0. 3.41917621e-03
      1.56591870e-02 5.45516275e-02 5.30571789e-02 0. 1.29161534e-04
      2.64196948e-04 3.00048082e-03 1.94108079e-03 6.72335830e-03
      1.61912069e-02 5.60123138e-02 4.95590299e-01 1.64456142e-03
      6.45927212e-05 0. 3.12002703e-05 0. 0. 3.34997452e-03
      4.95590299e-01 4.95590299e-01 1.39100244e-02 0. 0. 2.72956258e-03
      1.94867724e-03 6.65706256e-03 8.68331175e-03 4.95590299e-01
      1.59492306e-02 0. 0. 0. 3.42879235e-03 5.32347290e-03
      1.03220353e-02 1.70917045e-02 1.91687737e-02 1.48545578e-02
      2.77942105e-04 1.23074118e-04 0. 1.08452020e-02 4.14047902e-03
      8.69683269e-03 1.05408337e-02 1.63874645e-02 4.68035668e-01
      9.98852476e-02 0. 6.64405944e-03 8.05587973e-03 8.97400174e-03
      1.17043331e-02 1.66143067e-02 4.30370271e-01 4.68035668e-01
      3.71907234e-01 1.84611208e-03 1.46169309e-02 1.08129028e-02
      1.98853631e-02 1.40342265e-02 3.52410302e-02 4.68035668e-01
      1.13349697e-02 2.33480183e-04 1.64668905e-04 0. 1.38906827e-02
      8.58590298e-04 5.45787113e-03 3.85058578e-03 1.23489145e-02
      2.10081097e-02 1.30024666e-04 3.53483745e-04 0. 1.50401909e-02
      3.72055778e-03 1.27743455e-02 5.10267867e-03 2.35175230e-02
      4.83711809e-01 2.27471083e-01 2.47003417e-03 2.45769182e-03
      4.35642526e-03 4.36024275e-03 7.66525557e-03 2.96732988e-02
      4.83711809e-01 4.83711809e-01 6.02138564e-02 5.30225597e-03 0.
      3.94471642e-03 0. 4.28679027e-03 2.99470127e-02 4.83711809e-01
      2.40465738e-02 9.93649664e-05 3.99483572e-04 1.07122166e-03
      1.35060987e-02 2.37490470e-03 1.93404891e-02 1.02551561e-02
      2.77191084e-02 3.60856242e-02 4.06450452e-03 6.49541663e-03
      1.60683226e-02 2.21012421e-02 5.83644258e-03 2.50841379e-02
      1.74669772e-02 5.03312610e-02 4.88449961e-01 2.01807753e-03
      3.88849224e-03 3.08702089e-04 3.09532601e-03 3.89088644e-04
      6.12278329e-03 9.59189013e-02 4.88449961e-01 4.88449961e-01
      3.82803474e-03 3.04622599e-03 4.63053118e-03 6.07105577e-03
      5.86769823e-03 2.31156815e-02 1.52465969e-01 4.88449961e-01
      7.34457970e-02 7.62748206e-03 1.11771636e-02 1.33046415e-02
      1.24216806e-02 3.28839477e-03 1.13571174e-02 1.99429318e-02
      8.67840052e-02 1.04907766e-01 2.43673045e-02 1.27310138e-02
      9.10477620e-03 1.40814437e-02 2.02485453e-03 1.25757381e-02
      4.22200672e-02 1.28532782e-01 4.13198471e-01 3.78529243e-02
      2.14419886e-02 1.60801839e-02 5.49626444e-03 9.11326986e-03
      2.97718272e-02 7.90679753e-02 4.13198471e-01 4.13198471e-01
      4.13198471e-01 2.88024068e-01 4.68018278e-02 2.80260313e-02
      7.40505988e-03 1.83541942e-02 4.46500555e-02 4.13198471e-01
      5.58676869e-02 2.90853512e-02 2.08757184e-02 3.36803775e-03
      7.08419830e-03 1.96907297e-03 5.42111229e-03 1.60264652e-02
      5.38621023e-02 2.02744544e-01 2.72745878e-01 1.25951260e-01
      3.39974859e-03 3.00989882e-03 2.47649453e-03 4.45041899e-03
      3.08742430e-02 1.32180423e-01 3.43844980e-01 3.43844980e-01
      2.98888266e-01 3.71855609e-02 2.05741283e-02 9.12918802e-03
      1.36031536e-02 1.75353400e-02 1.56135350e-01 3.43844980e-01
      3.43844980e-01 3.43844980e-01 4.76729013e-02 3.14923711e-02
      3.65856998e-02 5.16563319e-02 7.95991644e-02 3.43844980e-01
      3.59375685e-01 9.45566967e-02 3.00955437e-02 4.25895397e-03
      4.54142969e-03 3.84611572e-04 5.59123175e-04 5.76633913e-03
      1.30239353e-01 3.59375685e-01 4.93695885e-02 3.02523021e-02
      2.91046011e-03 0. 0. 0. 3.26328771e-03 2.30778724e-01
      3.59375685e-01 3.32262576e-01 2.02541232e-01 5.70861921e-02
      6.45864457e-02 1.34635149e-02 4.13262956e-02 5.94267063e-02
      2.32674092e-01 3.59375685e-01 1.89680263e-01 1.03379220e-01
      1.39791984e-02 7.53581431e-03 2.75287544e-03 1.01146819e-02
      4.13004644e-02 3.59375685e-01 3.47864598e-01 1.31149255e-02
      5.81685407e-03 2.08407314e-03 5.41889051e-04 1.60888408e-03
      2.74842884e-03 1.74717568e-02 2.46935710e-01 3.47864598e-01
      2.14770101e-02 4.07462055e-03 6.47207582e-03 1.20976483e-02
      2.19220407e-02 1.74176451e-02 2.50610299e-02 2.79345751e-01
      3.47864598e-01 4.95383032e-02 3.54692861e-02 8.62028264e-03
      4.65170434e-03 9.20493435e-03 4.48738746e-02 1.36163607e-01
      3.47864598e-01 3.47864598e-01 9.60613862e-02 6.71259016e-02
      3.09004299e-02 7.83062130e-02 1.12592407e-01 1.27138212e-01
      2.33970150e-01 3.47864598e-01 3.19009870e-01 6.88303486e-02
      4.71695885e-03 1.52160861e-02 1.49622196e-02 4.58758697e-02
      3.67213674e-02 2.84178294e-02 2.37976983e-01 3.19009870e-01
      1.53070480e-01 4.96427435e-03 1.70559436e-02 9.77501180e-03
      3.05697545e-02 2.22347248e-02 4.98688221e-02 3.19009870e-01
      3.19009870e-01 1.56080231e-01 7.94783905e-02 7.53455013e-02
      1.02188945e-01 1.69778019e-01 1.28900170e-01 1.50739864e-01
      3.19009870e-01 3.19009870e-01 1.77398026e-01 5.87332733e-02
      7.45232180e-02 7.61456564e-02 1.06165938e-01 6.86876178e-02
      1.15561754e-01 3.19009870e-01 3.34078044e-01 1.00244440e-01
      2.97412323e-03 5.51123032e-03 2.80740601e-03 3.48682259e-03
      7.67008262e-03 7.32052028e-02 3.34078044e-01 3.34078044e-01
      2.34547220e-02 1.05191197e-03 6.07787224e-04 1.07049302e-04
      8.81615051e-05 1.62753870e-03 4.95900288e-02 3.34078044e-01
      3.34078044e-01 7.18174800e-02 4.48859148e-02 3.33561823e-02
      3.08842715e-02 5.06775081e-02 6.27418086e-02 1.64246306e-01
      3.34078044e-01 3.34078044e-01 7.48988241e-02 8.24048892e-02
      6.63803965e-02 4.56441194e-02 7.74131864e-02 7.99102932e-02
      1.06151961e-01 3.34078044e-01 3.39569867e-01 4.65419749e-03
      3.18696979e-03 1.09328236e-03 2.97070819e-05 6.51296568e-06
      5.99255087e-03 5.50445989e-02 3.39569867e-01 3.00464809e-01
      3.19917081e-03 3.33741121e-03 1.40564865e-03 1.28730695e-04
      5.58010710e-04 2.30063275e-02 8.41745213e-02 3.39569867e-01
      3.39569867e-01 9.31332111e-02 1.20094270e-01 8.13639089e-02
      5.19713461e-02 7.88265094e-02 5.69658615e-02 8.66318867e-02
      3.39569867e-01 3.13227504e-01 7.19295740e-02 1.08441085e-01
      7.38710612e-02 3.35820951e-02 4.51649651e-02 9.63572413e-02
      1.46319836e-01 3.39569867e-01 2.83843845e-01 9.18659940e-03
      3.36253084e-03 2.03456846e-03 3.91087000e-04 1.37542421e-03
      1.19626643e-02 4.11997475e-02 3.41644466e-01 3.41644466e-01
      1.67321563e-01 6.76068068e-02 5.87603310e-03 1.77441700e-03
      1.64529064e-03 2.36057956e-03 3.79720517e-02 3.41644466e-01
      3.23041081e-01 4.61495854e-02 3.67974602e-02 3.60846482e-02
      2.60581970e-02 3.05085070e-02 7.50893727e-02 1.48673937e-01
      3.41644466e-01 3.41644466e-01 7.31032863e-02 4.57043275e-02
      3.10610328e-02 2.35359631e-02 3.80568840e-02 6.55343086e-02
      1.62811667e-01 3.41644466e-01 2.89630860e-01 2.89630860e-01
      1.77590877e-01 2.60223020e-02 1.09672286e-02 4.56785643e-03
      1.33512318e-02 3.22380401e-02 2.89630860e-01 2.89630860e-01
      2.89630860e-01 2.54266620e-01 4.68383133e-02 2.34632213e-02
      2.16355212e-02 4.91669439e-02 4.87692766e-02 2.89630860e-01
      2.89630860e-01 8.02964270e-02 6.18891455e-02 3.78710851e-02
      9.69881192e-03 1.69234909e-02 3.19835357e-02 8.70915726e-02
      2.89630860e-01 2.89630860e-01 9.67311934e-02 4.49420847e-02
      3.39922123e-02 2.48745680e-02 7.49988034e-02 8.29066187e-02
      7.52432346e-02 2.89630860e-01 1.98431924e-01 1.66208982e-01
      1.40059993e-01 5.97067066e-02 9.69121903e-02 3.22379284e-02
      8.57373178e-02 1.61431685e-01 3.64259213e-01 3.64259213e-01
      1.09143496e-01 4.59271856e-02 8.57636146e-03 1.70999356e-02
      1.10219223e-02 2.87522841e-02 1.18454456e-01 3.64259213e-01
      1.70783684e-01 1.34874415e-02 1.02825426e-02 1.10789984e-02
      2.91419812e-02 1.65886711e-02 4.00227457e-02 1.34092599e-01
      3.64259213e-01 3.31334025e-01 2.67664604e-02 1.33228116e-03
      7.78018672e-04 8.25723168e-03 8.85958876e-03 1.78254936e-02
      9.10770372e-02 3.64259213e-01 3.17365795e-01 7.58139342e-02
      6.49835542e-02 3.43617960e-03 9.43627115e-03 1.15052629e-02
      3.51493992e-02 1.23092309e-01 3.17365795e-01 2.58773983e-01
      1.75401092e-01 1.55052304e-01 2.44305581e-02 9.79796275e-02
      9.98265073e-02 1.21605352e-01 2.34245807e-01 2.89739311e-01
      2.34448269e-01 5.05360849e-02 3.27214599e-02 3.29770235e-04
      8.18330050e-03 8.12282227e-03 5.42485761e-03 1.06799826e-01
      3.17365795e-01 2.57643610e-01 1.21127062e-01 9.98502150e-02
      1.16267074e-02 5.98844588e-02 4.89041619e-02 6.16243295e-02
      3.17365795e-01 3.17365795e-01 2.01842189e-01 1.43484265e-01
      1.04378134e-01 7.08597600e-02 1.47855252e-01 1.18489236e-01
      1.47247389e-01 1.87706351e-01 2.57615983e-01 2.85204887e-01
      1.21329352e-01 6.69083446e-02 6.83228150e-02 1.02152266e-01
      7.39990771e-02 9.55244526e-02 1.12428226e-01 3.08426261e-01
      2.73128122e-01 7.39611983e-02 5.90087697e-02 3.69208790e-02
      9.73286107e-02 6.12480082e-02 1.32737845e-01 2.92912036e-01
      3.08426261e-01 3.08426261e-01 6.17098510e-02 2.11456437e-02
      3.03869583e-02 6.06130958e-02 4.12926674e-02 9.32795256e-02
      1.27621904e-01 3.08426261e-01 3.23416978e-01 6.75304234e-02
      7.47985989e-02 3.97185944e-02 2.97229458e-02 5.41613139e-02
      6.26931563e-02 6.07036129e-02 2.68461555e-01 3.44303101e-01
      1.04050919e-01 1.25678197e-01 8.51859301e-02 5.75543717e-02
      1.13456286e-01 8.64658132e-02 3.56597416e-02 3.44303101e-01
      3.44303101e-01 5.88863455e-02 4.62622531e-02 2.46921722e-02
      1.33905206e-02 1.71060525e-02 1.96649022e-02 2.97179893e-02
      3.44303101e-01 3.44303101e-01 1.05215199e-01 7.06868395e-02
      3.24298032e-02 1.41718462e-02 3.20218913e-02 1.80976652e-02
      3.77326971e-03 3.44303101e-01 3.16944927e-01 1.15463980e-01
      1.38418034e-01 8.78430083e-02 6.30986020e-02 1.16281234e-01
      5.13589866e-02 2.82549392e-02 2.92335808e-01 3.32343549e-01
      1.12122767e-01 1.37999564e-01 8.94599110e-02 4.35688831e-02
      6.36532232e-02 5.63616790e-02 6.29425198e-02 3.32343549e-01
      3.32343549e-01 1.23858608e-01 4.01645266e-02 2.04685554e-02
      1.40775554e-02 3.55264582e-02 1.69203058e-02 2.88184034e-03
      3.32343549e-01 3.32343549e-01 9.44007710e-02 4.78236452e-02
      2.57183053e-02 2.22573709e-02 2.83219554e-02 3.77320275e-02
      2.21062619e-02 3.32343549e-01 3.18424910e-01 1.06605269e-01
      9.77234766e-02 7.04760998e-02 7.79479146e-02 6.10537864e-02
      8.21564347e-02 1.48944810e-01 3.18424910e-01 2.11994633e-01
      7.68251494e-02 8.60105678e-02 9.24517959e-02 1.18161485e-01
      5.41878305e-02 9.88890678e-02 2.15044245e-01 3.18424910e-01
      3.18424910e-01 7.58789107e-02 7.75676519e-02 3.46883088e-02
      6.48172647e-02 3.70639153e-02 4.30169292e-02 7.03389198e-02
      3.18424910e-01 3.18424910e-01 7.73011222e-02 8.88039842e-02
      7.93057978e-02 1.12758964e-01 2.43978463e-02 4.27219570e-02
      1.48630679e-01 3.18424910e-01 2.62803555e-01 5.58776855e-02
      5.92805445e-02 9.01451856e-02 5.01395948e-02 1.42954262e-02
      5.53735234e-02 1.25782892e-01 3.32474083e-01 3.32474083e-01
      4.16933075e-02 5.47314696e-02 3.01725157e-02 2.29867212e-02
      6.56784102e-02 5.66157214e-02 6.07723109e-02 3.32474083e-01
      3.32474083e-01 6.20589666e-02 5.40907793e-02 8.02314952e-02
      5.97249009e-02 1.03960298e-02 6.45149201e-02 1.55780375e-01
      3.32474083e-01 3.32474083e-01 6.83598965e-02 7.39034265e-02
      4.11972217e-02 3.75700369e-02 4.09175120e-02 1.24866620e-01
      1.55747250e-01 3.32474083e-01 3.89816195e-01 1.41667500e-02
      1.59019095e-04 0. 2.55813147e-03 3.55742965e-03 1.38521036e-02
      6.36970103e-02 5.02371550e-01 5.02371550e-01 1.99312549e-02
      1.14696042e-03 5.26884454e-04 5.55072259e-03 4.57383832e-03
      9.82609764e-03 2.94430498e-02 5.02371550e-01 1.19150601e-01
      9.51676338e-04 0. 0. 1.39290874e-03 0. 9.08173528e-03
      7.59451278e-03 1.46301135e-01 1.13003179e-01 8.34250532e-04
      1.62836222e-03 4.09799046e-04 5.26885642e-03 0. 4.28222446e-03
      1.00383218e-02 1.77051067e-01 3.02692711e-01 1.18118348e-02
      7.04365410e-03 2.53083673e-03 9.28661507e-03 2.84807337e-03
      3.52527807e-03 1.60247266e-01 4.78885025e-01 3.17769945e-01
      3.82743739e-02 3.44883353e-02 6.83548208e-03 2.02421751e-02
      1.13746049e-02 3.83677483e-02 4.78885025e-01 4.78885025e-01
      7.17834458e-02 2.68150750e-03 4.65724897e-03 1.40588253e-03
      1.23194205e-02 0. 4.58546774e-03 8.98539647e-03 1.06211968e-01
      1.05339132e-01 3.55671300e-03 4.31327848e-03 1.21400983e-03
      1.46374451e-02 0. 2.40538176e-03 4.50398773e-02 2.32021421e-01
      3.10429722e-01 2.61207614e-02 1.70074515e-02 7.37327058e-03
      1.12257171e-02 1.49112456e-02 5.64857796e-02 3.55948418e-01
      4.28432047e-01 4.28432047e-01 4.61577587e-02 2.92412448e-03
      4.37375018e-03 4.80422657e-03 1.39398286e-02 4.22748476e-02
      1.09971844e-01 4.28432047e-01 8.39360207e-02 1.85544335e-03
      9.68724897e-04 2.53964481e-05 5.47950808e-03 0. 2.59708817e-04
      2.70730034e-02 2.27147698e-01 1.92533657e-01 4.37961426e-03
      3.40353465e-04 0. 1.57003908e-03 0. 0. 7.24236481e-03
      3.23448181e-01 4.37853098e-01 5.05408831e-02 1.37495818e-02
      7.48873176e-03 3.44266929e-03 4.46794648e-03 6.92621525e-03
      2.50567403e-02 4.37853098e-01 4.37853098e-01 1.37509435e-01
      2.95175705e-02 8.67646001e-03 2.28424324e-03 1.26625760e-03
      1.32146082e-03 8.45117203e-04 4.37853098e-01 2.22268432e-01
      5.73488697e-03 6.71858215e-05 0. 4.61527176e-04 0. 7.22958139e-05
      1.11684436e-03 2.42036447e-01 2.38124490e-01 2.65241042e-02
      2.82213790e-03 0. 2.33767089e-03 0. 1.23067969e-03 2.94122589e-03
      1.99858770e-01 4.55198050e-01 1.54082209e-01 1.15386453e-02
      1.30903779e-03 1.15760893e-03 0. 1.57446356e-03 3.14477086e-03
      4.55198050e-01 4.55198050e-01 5.93480729e-02 1.02868862e-02
      3.25225806e-03 1.02683697e-02 8.29647668e-03 1.85245425e-02
      2.05645990e-02 4.55198050e-01 2.12789431e-01 3.04299574e-02
      4.04804060e-03 0. 2.56483722e-03 0. 1.63475389e-03 6.65272865e-03
      1.54376745e-01 1.98353842e-01 1.33243110e-02 4.39769169e-03 0.
      4.25954117e-03 0. 6.34609256e-04 9.23041161e-03 1.68555632e-01
      4.41503018e-01 2.71141436e-02 3.09909973e-02 1.06287720e-02
      2.51777787e-02 1.66434497e-02 2.04288512e-02 3.04164551e-02
      4.41503018e-01 4.41503018e-01 5.03194705e-02 4.65760641e-02
      2.76654176e-02 4.07265201e-02 1.67119913e-02 1.18178343e-02
      8.63758400e-02 4.41503018e-01 1.99715436e-01 4.96804249e-03
      3.34663317e-03 0. 2.86647538e-03 1.94625987e-04 0. 8.70164763e-03
      2.05449671e-01 2.22111374e-01 6.67985855e-03 2.57369457e-03 0.
      4.52683354e-03 2.91938987e-03 0. 1.83467064e-02 2.54670888e-01
      3.09685677e-01 3.20831574e-02 2.26204991e-02 2.35285573e-02
      1.73488446e-02 1.32456571e-02 6.48595095e-02 1.60577908e-01
      3.09685677e-01 3.09685677e-01 7.35137984e-02 8.91584456e-02
      3.65286395e-02 8.21454450e-02 9.86311212e-02 3.09685677e-01
      3.09685677e-01 3.09685677e-01 1.45102158e-01 6.26116851e-03
      1.72028702e-03 2.41610967e-03 2.52912752e-03 3.77109973e-03
      2.06785165e-02 4.25909609e-02 2.13007167e-01 2.27299824e-01
      1.44622764e-02 1.58305615e-02 4.37778281e-03 1.91681553e-02
      2.42186449e-02 2.10004792e-01 3.09685677e-01 3.09685677e-01</_>
    <_>
      2.72698611e-01 2.72698611e-01 2.71547914e-01 4.93373945e-02
      3.54374424e-02 5.97579358e-03 2.95281000e-02 5.92298992e-02
      2.24503964e-01 2.72698611e-01 2.72698611e-01 1.71128556e-01
      1.78757627e-02 4.59158346e-02 7.08539188e-02 7.83823133e-02
      5.87836839e-02 2.34244645e-01 2.60019898e-01 1.89586326e-01
      1.60406560e-01 2.70897709e-02 2.25219186e-02 1.75116155e-02
      1.18529812e-01 1.47980317e-01 2.25081816e-01 2.36550242e-01
      2.72698611e-01 2.72698611e-01 1.41217895e-02 3.92379090e-02
      2.90862825e-02 5.99110126e-02 5.51373139e-02 1.87156528e-01
      2.83896416e-01 2.83896416e-01 7.54117295e-02 3.22542130e-03
      1.82256009e-02 5.02796918e-02 5.27064167e-02 4.10618708e-02
      2.41931096e-01 2.83896416e-01 2.68555343e-01 9.81825292e-02 0.
      5.49238594e-03 1.98043580e-03 1.26254316e-02 1.19463028e-02
      2.83896416e-01 2.78907478e-01 2.83896416e-01 2.33821824e-01
      2.53595738e-03 1.72729064e-02 1.28971934e-02 1.40732424e-02
      2.54344940e-02 1.94161579e-01 2.83896416e-01 2.83896416e-01
      1.52176023e-01 0. 0. 2.78242806e-04 2.33669225e-02 5.96224479e-02
      2.83896416e-01 3.13286811e-01 1.37376294e-01 6.82882965e-02 0.
      2.44887173e-02 0. 1.71374474e-02 1.95874199e-02 3.13286811e-01
      3.13286811e-01 1.32079348e-01 2.57843733e-02 0. 2.76543889e-02 0.
      1.01152565e-02 3.31199802e-02 3.13286811e-01 3.13286811e-01
      2.48133510e-01 9.38213617e-02 0. 5.49734943e-03 0. 3.05738822e-02
      4.20448259e-02 3.13286811e-01 3.13286811e-01 2.87747383e-01
      6.99990317e-02 0. 1.79787111e-02 4.21202881e-03 8.18736106e-03
      7.47159794e-02 3.13286811e-01 3.28972995e-01 7.91472122e-02
      5.67094283e-03 0. 2.99469405e-03 0. 3.89002496e-03 4.06115092e-02
      3.28972995e-01 3.28972995e-01 6.25067204e-02 2.47368054e-03 0. 0.
      0. 4.43542562e-02 1.27155185e-01 3.28972995e-01 3.28972995e-01
      2.10420489e-01 5.45290709e-02 0. 3.21634375e-02 1.06017720e-02
      5.18302061e-03 6.42117113e-02 3.28972995e-01 3.28972995e-01
      1.36030197e-01 2.69961935e-02 0. 1.73513424e-02 4.81898757e-03
      5.53855486e-02 1.60425752e-01 3.28972995e-01 3.03580731e-01
      4.49724384e-02 1.57374202e-03 0. 0. 0. 7.90835619e-02
      1.31029844e-01 3.03580731e-01 3.03580731e-01 2.25637387e-02
      6.81954995e-03 0. 1.34223688e-03 0. 8.92406255e-02 2.41119042e-01
      3.03580731e-01 3.03580731e-01 7.17326775e-02 5.39502827e-03 0. 0.
      0. 1.01068608e-01 2.22841069e-01 3.03580731e-01 3.03580731e-01
      6.05818108e-02 2.33784579e-02 0. 0. 0. 7.83788860e-02
      3.03580731e-01 3.03580731e-01 2.73293346e-01 4.46762703e-02
      2.36238912e-02 5.64800622e-03 4.23540268e-03 0. 7.14879930e-02
      2.75041699e-01 2.75041699e-01 2.75041699e-01 5.03402539e-02
      3.21869515e-02 1.24256127e-02 4.84236423e-03 0. 8.82810205e-02
      2.75041699e-01 2.75041699e-01 2.75041699e-01 6.07886240e-02
      2.65957471e-02 7.26172142e-03 7.61330419e-04 2.44614872e-04
      1.10496521e-01 2.75041699e-01 2.75041699e-01 2.75041699e-01
      6.10786043e-02 5.21198101e-02 1.95146296e-02 1.18399402e-02
      3.66922352e-03 2.18018562e-01 2.75041699e-01 2.75041699e-01
      2.59814769e-01 1.88827012e-02 1.41760688e-02 3.17396247e-03
      3.57347820e-03 0. 7.22845122e-02 2.69521207e-01 2.69521207e-01
      2.66353041e-01 1.28332842e-02 7.92592391e-03 0. 1.30971624e-02
      1.27640320e-02 1.58809870e-01 2.69521207e-01 2.69521207e-01
      2.47593477e-01 7.00836778e-02 6.98161200e-02 1.50931859e-02
      1.00842118e-02 2.82775774e-03 2.29245588e-01 2.69521207e-01
      2.69521207e-01 2.15028197e-01 3.95210125e-02 3.77179645e-02
      5.00562647e-03 5.15073678e-03 1.55855371e-02 2.69521207e-01
      2.69521207e-01 2.69521207e-01 2.25767910e-01 1.51469037e-01
      1.69377908e-01 5.41051514e-02 3.68823372e-02 5.23807295e-02
      1.28740489e-01 1.53864309e-01 2.20215172e-01 2.29665652e-01
      2.62157172e-01 2.62157172e-01 7.43881762e-02 4.57594879e-02
      1.55973760e-02 4.42743301e-02 5.60346805e-02 2.10040718e-01
      2.17687786e-01 2.51151234e-01 2.62157172e-01 1.42917231e-01
      1.33467615e-01 3.19823623e-02 6.69096857e-02 4.48083505e-02
      1.89737022e-01 2.60110229e-01 2.62157172e-01 2.62157172e-01
      1.15042910e-01 1.45870239e-01 7.08971592e-03 2.93076131e-02
      2.50210110e-02 2.22754434e-01 2.26046875e-01 2.63805240e-01
      2.63805240e-01 2.82126721e-02 1.85315777e-02 0. 0. 2.00240277e-02
      1.89133540e-01 2.63805240e-01 2.63805240e-01 2.31564879e-01
      1.32400934e-02 0. 0. 1.36128301e-02 6.96751103e-02 2.63805240e-01
      2.28341296e-01 2.63805240e-01 2.63805240e-01 3.54753919e-02
      5.02199791e-02 0. 7.09848199e-03 3.70712928e-03 1.90124825e-01
      2.63805240e-01 2.63805240e-01 2.63805240e-01 2.91282050e-02
      9.79152415e-03 0. 1.86951030e-02 1.91857908e-02 2.45746240e-01
      2.80734837e-01 2.80734837e-01 1.36243597e-01 1.74259134e-02
      2.10664123e-02 1.31612066e-02 5.44076152e-02 6.84274882e-02
      2.80734837e-01 2.80734837e-01 2.80734837e-01 7.67897516e-02
      1.58068053e-02 4.96683680e-02 2.57140696e-02 4.90788855e-02
      7.23363534e-02 2.80734837e-01 2.46468559e-01 1.56289309e-01
      2.08759204e-01 2.70966142e-02 3.18618715e-02 7.15785325e-02
      1.76227614e-01 1.07889839e-01 2.20189378e-01 2.80734837e-01
      1.37577206e-01 7.87120685e-02 2.03230362e-02 5.30045293e-02
      9.40585807e-02 2.06820086e-01 1.26029536e-01 2.80734837e-01
      3.26193273e-01 1.92388594e-01 4.30437438e-02 2.02848180e-03
      4.69116420e-02 2.48348694e-02 1.35076698e-02 4.93780598e-02
      3.26193273e-01 3.26193273e-01 6.00478128e-02 2.69553009e-02 0.
      3.25860828e-02 1.35430228e-02 3.99232954e-02 1.32108346e-01
      3.26193273e-01 3.26193273e-01 1.23280793e-01 5.60548678e-02
      2.60804803e-03 1.82683133e-02 1.70401186e-02 4.90772277e-02
      5.94044589e-02 3.26193273e-01 3.26193273e-01 1.08793065e-01
      5.08484729e-02 0. 4.85429652e-02 1.07579352e-02 9.29101482e-02
      1.61731869e-01 3.26193273e-01 1.58780217e-01 1.22838141e-02
      7.42835691e-03 0. 4.90678474e-03 6.36505568e-03 3.93397100e-02
      8.48209262e-02 1.99213296e-01 1.47455692e-01 2.33810656e-02
      1.14566619e-02 0. 4.55553737e-03 5.48775075e-03 6.06041588e-02
      1.29006639e-01 1.93432957e-01 4.19265419e-01 1.91931993e-01
      2.66574752e-02 1.31082197e-03 2.65222285e-02 1.69991627e-02
      5.39114960e-02 7.88219720e-02 3.86086196e-01 4.19265419e-01
      2.93347389e-01 5.16137220e-02 1.78992823e-02 2.50336546e-02
      2.32691485e-02 1.21187165e-01 1.12833731e-01 4.19265419e-01
      6.04130626e-02 1.01803495e-02 4.76406142e-03 3.74045805e-04
      9.22101457e-03 1.88070454e-03 4.73923385e-02 9.21055004e-02
      8.76794234e-02 6.37453422e-02 9.05440189e-03 1.27366753e-02
      3.04356217e-03 1.79989059e-02 9.77353845e-03 9.07672346e-02
      1.04424782e-01 8.96689519e-02 4.75825280e-01 5.03297374e-02
      2.03597359e-02 1.77919082e-02 2.52452493e-02 9.66828316e-03
      5.11185601e-02 7.58948550e-02 4.75825280e-01 4.75825280e-01
      9.51271877e-02 2.37992574e-02 6.75628893e-03 3.89546156e-02
      1.55568616e-02 4.76268940e-02 9.66922864e-02 4.75825280e-01
      3.72883491e-02 1.05653554e-02 1.34879844e-02 4.22109943e-03
      1.53325293e-02 7.62559334e-03 5.43158203e-02 6.02136515e-02
      4.85342480e-02 3.14824767e-02 7.73359975e-03 1.40798185e-02
      4.79392288e-03 1.76398531e-02 2.02263147e-02 6.88330233e-02
      7.60030448e-02 4.05560620e-02 4.85703319e-01 9.19068977e-02
      2.39168163e-02 3.68408160e-03 3.55159976e-02 1.54162254e-02
      3.31817716e-02 5.70243262e-02 4.85703319e-01 4.85703319e-01
      4.83584665e-02 3.22818421e-02 1.26108341e-02 3.59796472e-02
      3.13192047e-02 4.75438721e-02 5.89906201e-02 4.85703319e-01
      1.28831808e-02 9.73860174e-03 8.19931179e-03 5.68338251e-03
      1.48550430e-02 4.51119093e-04 1.69400591e-03 1.84165628e-03
      1.03317192e-02 3.42218056e-02 1.09621398e-02 9.83027276e-03
      3.57836671e-03 1.48925344e-02 3.69165238e-04 4.02470585e-03
      2.68959906e-03 2.79826205e-02 4.55738842e-01 4.55738842e-01
      5.34280986e-02 6.08586892e-03 1.61743276e-02 2.45620450e-03
      6.84901932e-03 7.88318459e-03 2.81070024e-01 4.55738842e-01
      2.72127450e-01 7.56110158e-03 1.94188475e-03 1.11013688e-02
      1.29583827e-03 7.93388113e-03 7.04424605e-02 4.55738842e-01
      3.56143937e-02 1.11177126e-02 1.37550421e-02 1.79075764e-03
      7.79053755e-03 1.21207838e-03 3.55682732e-03 1.47059013e-03
      3.16659696e-02 1.63463037e-02 1.08205518e-02 1.97958387e-02
      1.07880426e-03 5.45453560e-03 5.50944707e-04 1.18444674e-03
      1.21089804e-03 1.56163275e-02 4.07134384e-01 1.23821184e-01
      3.25742178e-02 1.92421337e-03 6.41475851e-03 2.96561420e-02
      8.36843327e-02 3.84833395e-01 4.07134384e-01 2.80690879e-01
      8.68576393e-02 6.52212277e-02 2.75051757e-03 7.87830260e-03
      9.01672468e-02 2.40787879e-01 4.07134384e-01 4.07134384e-01
      3.34008485e-02 2.47293413e-02 5.96312284e-02 1.64587272e-03
      4.57006060e-02 2.07916796e-02 4.40654568e-02 2.13396959e-02
      3.47079858e-02 7.47863576e-02 1.59252863e-02 2.20276136e-02
      6.00151950e-03 6.48764148e-02 4.30989340e-02 5.94076961e-02
      2.93248687e-02 7.27746263e-02 1.97489426e-01 7.05868080e-02
      8.45647454e-02 2.33514700e-02 6.81487247e-02 1.47526070e-01
      3.33980232e-01 3.33980232e-01 3.33980232e-01 2.08656415e-01
      3.33980232e-01 3.33980232e-01 3.33980232e-01 2.57389963e-01
      5.30194379e-02 2.69278325e-02 1.31373227e-01 2.91902155e-01
      4.34830412e-02 7.30790421e-02 2.33488325e-02 4.13494557e-03
      1.38465650e-02 6.41295733e-03 2.83175264e-03 3.25988163e-03
      1.69290714e-02 3.18037629e-01 3.06619734e-01 5.39235882e-02
      3.80324107e-03 1.21684093e-02 3.70469317e-03 3.74783529e-03
      7.04948418e-03 1.45422563e-01 1.75871864e-01 3.30703437e-01
      3.30703437e-01 1.35391146e-01 1.60670742e-01 1.49732269e-02
      8.27131234e-03 5.80080133e-03 5.20121865e-02 3.30703437e-01
      3.30703437e-01 3.30703437e-01 1.09316528e-01 1.49257451e-01
      8.70298967e-03 1.60823446e-02 6.76542800e-03 3.30703437e-01
      3.58296603e-01 1.56500980e-01 1.30577488e-02 2.15148815e-04
      2.00473075e-03 7.25570542e-04 2.07725377e-03 3.22751864e-03
      1.75665513e-01 3.58296603e-01 8.55407566e-02 9.13546886e-03
      5.69667434e-03 1.00871152e-03 1.01728900e-03 5.33923041e-03
      1.06076216e-02 2.94970036e-01 3.58296603e-01 2.51299798e-01
      3.53360102e-02 7.56857777e-03 8.78344942e-03 2.53193872e-03
      3.40322708e-03 2.26917979e-03 3.58296603e-01 3.58296603e-01
      1.01857245e-01 9.10410658e-03 7.80408876e-03 3.25272116e-03
      3.43627995e-03 3.21196811e-03 3.04652490e-02 3.58296603e-01
      3.47779363e-01 2.21827123e-02 9.16146953e-03 7.76867056e-03
      9.11201234e-04 5.31141472e-04 2.66565406e-03 3.31248119e-02
      3.38319987e-01 3.47779363e-01 2.64217146e-02 5.38490387e-03
      1.97768980e-03 1.77457591e-03 3.23984772e-04 7.04748090e-04
      2.94960681e-02 3.47779363e-01 3.47779363e-01 5.11513166e-02
      1.08886743e-02 9.23078042e-03 1.03486259e-03 1.25691027e-03
      1.74826535e-03 1.24461256e-01 3.47779363e-01 3.47779363e-01
      3.30829620e-02 5.68665564e-03 2.15995614e-03 5.97569859e-04
      8.73060490e-04 1.42417592e-03 1.12310007e-01 3.47779363e-01
      3.53773832e-01 3.99687737e-02 5.53231593e-03 4.16081864e-04
      4.00494412e-03 5.94054989e-04 3.98743479e-03 1.75541081e-02
      2.77444005e-01 3.53773832e-01 4.09816988e-02 7.98504706e-03
      9.27232497e-04 5.54985367e-03 1.08591875e-03 6.41968893e-03
      2.01106388e-02 3.52781624e-01 3.53773832e-01 3.67405973e-02
      4.11330257e-03 6.29623173e-05 2.39009922e-03 1.16829749e-03
      4.18890342e-02 8.50290954e-02 3.53773832e-01 3.53773832e-01
      1.10833757e-01 1.69098768e-02 1.26578249e-02 1.31106479e-02
      3.11564142e-03 6.69595823e-02 1.10250957e-01 3.53773832e-01
      2.86070704e-01 2.86070704e-01 1.59183010e-01 4.55658473e-02
      1.03848726e-02 6.32139016e-03 9.65908449e-03 5.78061026e-03
      1.61997169e-01 2.86070704e-01 2.07363889e-01 6.08420894e-02
      1.55478716e-02 1.35441367e-02 2.03437097e-02 4.50512655e-02
      4.65677083e-02 2.86070704e-01 2.08490923e-01 2.14728519e-01
      2.49837711e-01 1.65466785e-01 8.14374760e-02 6.07674420e-02
      7.91810602e-02 1.96072817e-01 1.73047394e-01 2.86070704e-01
      1.80394083e-01 2.00038671e-01 8.28347355e-02 5.23906797e-02
      5.83183542e-02 1.24165878e-01 1.87375024e-01 2.86070704e-01
      2.64839560e-01 1.39932960e-01 7.68254623e-02 5.26972041e-02
      2.80369911e-02 3.89848240e-02 8.86428505e-02 1.81497037e-01
      2.64839560e-01 1.79184571e-01 1.17602207e-01 8.20754543e-02
      8.52385089e-02 2.79392600e-02 5.89111820e-02 1.72811717e-01
      2.64839560e-01 2.64839560e-01 2.64839560e-01 1.69127390e-01
      1.87034428e-01 1.46894619e-01 1.24496281e-01 8.50017965e-02
      1.35850593e-01 1.18858740e-01 2.56030321e-01 1.94735974e-01
      1.86628580e-01 1.48165852e-01 2.00735182e-01 1.11769110e-01
      5.75827695e-02 8.66788253e-02 2.16216981e-01 2.64839560e-01
      7.12842420e-02 3.61732841e-02 2.75160111e-02 3.91625427e-02
      2.34311409e-02 3.59159037e-02 1.00442171e-01 2.50103533e-01
      2.50103533e-01 1.51360542e-01 1.82416677e-01 2.06341401e-01
      1.55569181e-01 2.54472420e-02 1.34929726e-02 2.84108985e-02
      1.45171151e-01 2.50103533e-01 2.01683119e-01 1.55051410e-01
      1.35592967e-01 1.75288126e-01 9.34820399e-02 4.77866121e-02
      6.90545291e-02 2.50103533e-01 2.50103533e-01 2.50103533e-01
      2.50103533e-01 2.29165971e-01 2.50103533e-01 1.17201999e-01
      9.39618424e-02 5.71487844e-02 2.45525539e-01 2.50103533e-01
      1.75832048e-01 2.27219269e-01 2.27219269e-01 1.65296808e-01
      6.68506548e-02 5.31186629e-03 1.51350563e-02 6.47218823e-02
      2.07190678e-01 2.27219269e-01 2.15527490e-01 2.27219269e-01
      7.27514327e-02 7.07905889e-02 2.65241712e-02 9.03060660e-02
      1.27740234e-01 2.27219269e-01 2.24572942e-01 1.93619475e-01
      2.18562216e-01 1.95447266e-01 6.79841265e-02 4.88074496e-02
      4.08741161e-02 1.17445946e-01 2.27219269e-01 1.84154719e-01
      1.36027187e-01 1.93900123e-01 1.28577515e-01 1.65481776e-01
      1.54180706e-01 2.27219269e-01 2.02085927e-01 2.22292885e-01
      3.03450376e-01 1.89869776e-01 3.55240218e-02 1.93377826e-02
      4.06273790e-02 7.29737133e-02 1.33810475e-01 1.22249149e-01
      3.03450376e-01 3.03450376e-01 1.70257807e-01 2.66734697e-02
      2.78784540e-02 3.23928446e-02 2.45161541e-02 2.56239343e-02
      3.29369865e-02 3.03450376e-01 1.18178152e-01 1.05650879e-01
      1.78334370e-01 2.16772050e-01 3.03450376e-01 3.03450376e-01
      3.03450376e-01 1.98692411e-01 1.15617692e-01 6.40065745e-02
      9.78822857e-02 4.15102094e-02 1.02815688e-01 1.99045762e-01
      1.00909755e-01 6.99664801e-02 4.58479747e-02 3.83865908e-02
      3.18207592e-01 1.58674315e-01 3.53536494e-02 3.28064375e-02
      9.31636691e-02 3.34736183e-02 2.46148538e-02 1.07300617e-01
      3.18207592e-01 3.18207592e-01 1.13842882e-01 2.98708435e-02
      2.26167571e-02 1.17757551e-01 2.49741040e-02 8.97863880e-03
      1.12629965e-01 3.18207592e-01 2.08144471e-01 1.25162184e-01
      5.45639135e-02 1.62860930e-01 3.18207592e-01 1.12951994e-01
      6.63228780e-02 7.78329447e-02 1.33126259e-01 2.80077785e-01
      1.18134178e-01 5.67740574e-02 1.65249750e-01 3.18207592e-01
      8.56626555e-02 1.47102224e-02 6.56030178e-02 1.84456244e-01
      2.92277426e-01 4.33617048e-02 2.40926147e-02 2.23889761e-02
      1.35068633e-02 4.02226439e-03 3.52821946e-02 7.34901130e-02
      2.58748353e-01 2.92277426e-01 1.55046433e-01 9.80971679e-02
      8.47143903e-02 2.54702084e-02 9.87001881e-03 5.54637350e-02
      9.38973874e-02 2.82548189e-01 1.65768832e-01 9.01663303e-02
      1.71664223e-01 2.34644219e-01 1.71463132e-01 5.10066189e-02
      3.48184444e-02 5.90937659e-02 8.75466168e-02 2.92277426e-01
      2.92277426e-01 2.92277426e-01 2.92277426e-01 1.14629209e-01
      5.09415604e-02 4.87101711e-02 8.00915137e-02 2.92277426e-01
      1.58908293e-01 4.00707573e-02 6.74925745e-02 8.27792734e-02
      6.13625608e-02 5.46451285e-02 1.09603807e-01 3.11300486e-01
      3.11300486e-01 3.11300486e-01 1.08292684e-01 1.18921958e-01
      7.69861192e-02 3.77799161e-02 3.85924727e-02 9.40355808e-02
      3.11300486e-01 3.11300486e-01 1.71093807e-01 1.40654435e-02
      4.79963748e-03 4.21443023e-03 6.15864992e-03 3.99113772e-03
      3.87704447e-02 2.51739591e-01 3.11300486e-01 3.11300486e-01
      7.25066960e-02 1.07058138e-02 1.18515445e-02 5.76773146e-03
      7.29007227e-03 3.05716582e-02 1.41651839e-01 3.11300486e-01
      2.74828643e-01 2.51353621e-01 1.55054763e-01 1.26295760e-01
      1.23416349e-01 6.88850060e-02 1.20942764e-01 1.57240450e-01
      2.74828643e-01 2.74828643e-01 2.74828643e-01 1.47105634e-01
      1.27757370e-01 1.01123296e-01 4.50817272e-02 3.32283042e-02
      5.07179201e-02 2.70241231e-01 2.74828643e-01 2.27043927e-01
      4.55392078e-02 2.24898923e-02 2.12960895e-02 1.31886145e-02
      4.83785681e-02 6.55224472e-02 2.74828643e-01 2.74828643e-01
      2.74828643e-01 5.80535829e-02 1.54459449e-02 1.87819693e-02
      4.81653726e-03 8.99361726e-03 3.44412518e-03 1.95226490e-01
      2.56541938e-01 1.94530323e-01 1.37664542e-01 1.22514203e-01
      5.32046594e-02 1.82462912e-02 1.36979874e-02 1.20705962e-01
      2.56541938e-01 2.56541938e-01 2.19358638e-01 1.43755421e-01
      1.99131384e-01 1.17074467e-01 1.19741037e-01 8.94445926e-02
      2.56541938e-01 2.56541938e-01 2.56541938e-01 8.79958719e-02
      3.26179899e-02 1.21230651e-02 7.43054086e-03 8.50256300e-04
      5.60259726e-03 7.79325515e-02 2.56541938e-01 1.71551839e-01
      1.36318296e-01 6.78233057e-02 2.11108886e-02 1.25691324e-01
      1.45328686e-01 2.56541938e-01 2.56541938e-01 2.56541938e-01
      1.86616868e-01 2.56587029e-01 1.28845587e-01 1.03903659e-01
      8.74888524e-02 9.44984332e-02 8.24330822e-02 1.40769675e-01
      1.28792271e-01 1.69874251e-01 2.56587029e-01 2.56587029e-01
      1.54147550e-01 1.48463890e-01 9.28796902e-02 9.73087028e-02
      5.53391911e-02 6.51737601e-02 1.92336038e-01 2.56587029e-01
      1.14501975e-01 2.41904892e-02 1.27907753e-01 1.52389854e-01
      2.56587029e-01 2.56587029e-01 9.98678505e-02 2.56587029e-01
      2.56587029e-01 1.93511918e-01 4.43433635e-02 5.81669509e-02
      4.41177674e-02 2.02152893e-01 1.50373667e-01 2.00504303e-01
      8.87008235e-02 2.53006697e-01 3.09990376e-01 2.80921489e-01
      3.09990376e-01 1.84380665e-01 1.19728014e-01 6.80348873e-02
      8.14381316e-02 2.30047237e-02 1.92556940e-02 1.92868989e-02
      6.85234964e-02 1.25456735e-01 7.08254129e-02 7.73565695e-02
      1.19028792e-01 6.55659661e-02 3.09990376e-01 2.32819304e-01
      1.72714427e-01 6.53641894e-02 2.96980385e-02 2.40813680e-02
      3.33723575e-02 1.32667810e-01 3.09990376e-01 3.09990376e-01
      2.60160603e-02 8.05418752e-03 1.29315434e-02 1.00934170e-02
      1.98630337e-02 4.50823344e-02 2.16456845e-01 3.09990376e-01
      1.56024441e-01 5.20451441e-02 2.18552910e-02 1.26091182e-01
      3.37472230e-01 6.83802366e-02 8.46791640e-02 1.83907241e-01
      1.32278323e-01 2.50104398e-01 7.64767900e-02 2.39929147e-02
      1.34320140e-01 3.37472230e-01 5.04886657e-02 1.56957563e-02
      1.09348156e-01 1.98853299e-01 3.37472230e-01 1.03548504e-01
      4.75598872e-03 1.12471692e-02 3.13766561e-02 6.89725252e-03
      3.15226987e-02 1.74708128e-01 3.37472230e-01 3.37472230e-01
      1.12591922e-01 7.35052768e-03 1.28830811e-02 5.14371730e-02
      3.91623378e-03 6.02048077e-03 7.98761174e-02 3.37472230e-01
      1.31264448e-01 8.84421170e-02 1.29100099e-01 1.88021973e-01
      2.00349852e-01 6.63388893e-02 7.36252293e-02 1.25058353e-01
      1.37802586e-01 3.07733953e-01 2.77195036e-01 2.10986733e-01
      2.32652381e-01 1.40427887e-01 6.60459176e-02 9.76075679e-02
      1.71501905e-01 3.07733953e-01 3.07733953e-01 4.42311764e-02
      1.48281213e-02 1.40036820e-02 3.03389151e-02 1.06531447e-02
      2.47769430e-02 7.03267828e-02 3.07733953e-01 3.07733953e-01
      9.26566049e-02 1.41423233e-02 1.29169794e-02 2.26512160e-02
      1.15615316e-02 3.36426720e-02 9.41439047e-02 3.07733953e-01
      4.18399572e-01 5.59259094e-02 7.74512440e-02 3.49959806e-02
      4.23875153e-02 4.50976921e-04 8.16174038e-03 2.64728934e-01
      4.56286818e-01 4.56286818e-01 2.02799156e-01 9.39858034e-02
      4.62577045e-02 5.98708354e-02 0. 1.94522482e-03 6.38426468e-02
      4.56286818e-01 3.44219357e-02 4.69134189e-02 8.29813778e-02
      4.61239591e-02 1.03619434e-01 2.15805303e-02 2.20021959e-02
      7.03349011e-03 2.01837588e-02 2.53344551e-02 3.54235917e-02
      7.14399591e-02 5.08252978e-02 1.38345510e-01 8.47673509e-03
      8.90621915e-03 2.97630974e-03 1.74503103e-02 3.97217482e-01
      3.97217482e-01 1.32039204e-01 4.36818525e-02 9.14407670e-02 0. 0.
      7.20452797e-03 3.97217482e-01 3.97217482e-01 3.52313489e-01
      1.20691672e-01 1.99535489e-02 8.21938515e-02 0. 6.31374866e-03
      5.97878685e-03 3.36021036e-01 3.42560560e-02 4.62212376e-02
      6.29706830e-02 4.58058864e-02 1.83401406e-01 0. 0. 0.
      2.75272578e-02 8.45397115e-02 4.45013270e-02 3.59049588e-02
      1.09239630e-02 1.32566914e-01 0. 1.45701889e-03 4.61079646e-03
      8.01119283e-02 1.92840576e-01 7.78092295e-02 5.00947498e-02
      2.02433188e-02 4.54609618e-02 2.41671479e-03 2.09666900e-02
      5.93028404e-02 1.89446881e-01 1.75628543e-01 2.36317858e-01
      1.39669135e-01 3.94389406e-02 4.07812744e-01 4.07812744e-01
      4.07812744e-01 4.07812744e-01 2.23402068e-01 5.83726205e-02
      1.29688894e-02 2.13472024e-02 7.88083649e-04 1.14273764e-01
      5.31677250e-03 9.26748943e-03 2.09041238e-02 6.68632463e-02
      5.48688248e-02 8.83394014e-03 2.72455774e-02 1.00795664e-02
      1.81688234e-01 5.78134470e-02 1.06786318e-01 6.95715249e-02
      7.93532059e-02 8.44794437e-02 1.43283293e-01 6.11155406e-02
      3.04738749e-02 1.84892580e-01 1.31307781e-01 2.93342233e-01
      2.93342233e-01 9.95693952e-02 2.93342233e-01 2.51993656e-01
      9.64760333e-02 5.16197272e-02 1.34222806e-01 8.78044888e-02
      2.93342233e-01 2.93342233e-01 2.93342233e-01 1.66224223e-02
      2.63126232e-02 1.82559416e-02 9.58495587e-03 5.85092381e-02
      2.75127329e-02 7.43644461e-02 1.57864422e-01 7.67337382e-02
      2.05629915e-01 8.64142701e-02 4.06297408e-02 2.38907170e-02
      4.67206612e-02 3.40296179e-02 1.28741637e-01 2.93342233e-01
      2.93342233e-01 3.46133769e-01 4.43579741e-02 1.61993150e-02
      1.16899451e-02 6.52482128e-03 1.40488166e-02 2.54353341e-02
      1.66627645e-01 3.46133769e-01 3.46133769e-01 1.59429051e-02
      1.20853796e-03 1.18451356e-03 9.46959772e-04 3.11702793e-03
      5.33942971e-03 9.30060372e-02 3.46133769e-01 1.92658320e-01
      2.08365284e-02 8.52013007e-03 7.82104302e-03 1.74728082e-03
      8.61460436e-03 2.70559601e-02 2.59350330e-01 3.46133769e-01
      3.38494658e-01 7.99697824e-03 6.22531166e-04 8.23518145e-04
      4.16322611e-04 5.74306992e-04 2.16492894e-03 1.31604239e-01
      3.46133769e-01 3.50345999e-01 7.58220702e-02 1.28883388e-04 0.
      1.21589903e-04 2.82370183e-05 1.04142621e-03 3.18405330e-02
      3.50345999e-01 3.50345999e-01 6.91451728e-02 5.94334095e-04
      5.72877005e-04 0. 0. 8.09113611e-04 1.16989156e-02 3.50345999e-01
      3.50345999e-01 3.31663229e-02 0. 0. 1.57601491e-04 3.10839619e-04
      1.60124782e-03 2.86814421e-02 3.50345999e-01 3.50345999e-01
      2.96393763e-02 3.11090844e-05 6.36331242e-05 7.00819364e-05
      4.37831623e-04 2.06185109e-03 8.34807940e-03 3.50345999e-01
      3.52877587e-01 9.53186676e-03 1.73282891e-03 1.59176567e-03
      1.57856601e-04 0. 4.38948366e-04 8.38454720e-03 3.52877587e-01
      3.52877587e-01 5.82427345e-03 1.60383689e-03 1.16858201e-03
      2.67401221e-04 0. 9.02911590e-04 7.17469025e-03 3.52877587e-01
      3.52877587e-01 3.49542964e-03 5.19274545e-05 1.06216750e-04
      4.34683752e-04 1.59834191e-04 8.98552709e-04 3.75278573e-03
      3.52877587e-01 3.52877587e-01 1.42519886e-03 1.66643673e-04
      2.45115571e-05 1.15402683e-03 4.77615104e-05 1.45974930e-03
      1.89225492e-03 3.52877587e-01 6.39271811e-02 8.81558806e-02
      1.52251720e-01 1.19668595e-01 3.71973515e-01 1.32965043e-01
      1.27053633e-01 4.78944704e-02 4.57873680e-02 3.75937931e-02
      4.51103523e-02 1.39945403e-01 1.63676694e-01 3.71973515e-01
      8.38124305e-02 1.17131725e-01 5.26305586e-02 3.28581519e-02
      6.76486045e-02 2.82168370e-02 9.45391059e-02 1.77657381e-01
      3.71973515e-01 1.18680142e-01 1.48487404e-01 8.57044831e-02
      7.61011317e-02 1.25845447e-01 6.95305094e-02 9.65982974e-02
      1.70722410e-01 3.71973515e-01 1.86960593e-01 2.39995435e-01
      1.31613851e-01 1.29120022e-01 8.99342969e-02 4.79476079e-02
      1.54926628e-01 1.74619704e-01 3.55478585e-01 3.46108004e-02
      1.16598919e-01 8.83829594e-02 9.61684510e-02 1.41314089e-01
      3.90213020e-02 8.05836394e-02 4.12392356e-02 3.55478585e-01
      2.81778276e-02 6.96589053e-02 6.90056980e-02 1.48943201e-01
      1.86768040e-01 7.56046027e-02 6.84145689e-02 4.39715385e-02
      3.55478585e-01 1.04719296e-01 2.88317323e-01 1.84031874e-01
      1.95515543e-01 1.37485698e-01 3.65345553e-02 1.00093640e-01
      4.74624708e-03 3.55478585e-01 6.19912222e-02 2.10485712e-01
      1.31248981e-01 1.51405230e-01 7.55686611e-02 3.02474312e-02
      7.78460875e-02 0. 3.57277602e-01 1.42876618e-02 6.29130006e-02
      4.26262841e-02 8.43377486e-02 1.63031459e-01 4.11743112e-02
      1.26164168e-01 6.04506861e-03 3.57277602e-01 1.20414607e-02
      7.30359927e-02 6.09076023e-02 1.90233365e-01 5.19893356e-02
      3.19484510e-02 9.56017897e-02 0. 3.57277602e-01 4.58182916e-02
      2.57405341e-01 1.20520793e-01 6.76393732e-02 1.82560578e-01
      4.90103699e-02 1.49319276e-01 5.44495601e-03 3.57277602e-01
      6.07705340e-02 3.01774025e-01 2.40678072e-01 2.43709356e-01
      1.06935173e-01 1.75357331e-02 4.77194265e-02 9.30867344e-03
      6.32385612e-02 7.88967824e-04 8.82144049e-02 2.03264922e-01
      2.38885567e-01 4.64351028e-01 6.63665161e-02 5.63593060e-02
      2.05417890e-02 1.73906069e-02 0. 3.39500576e-01 4.64351028e-01
      4.64351028e-01 1.30213201e-01 1.74114481e-02 5.56047037e-02
      7.16568949e-03 1.23066239e-01 7.91995041e-03 7.10452944e-02
      5.08792847e-02 1.41468436e-01 1.23183340e-01 1.05605237e-02
      3.31933722e-02 3.25713167e-03 4.94530685e-02 0. 5.49423248e-02
      1.86617449e-02 1.23245701e-01 2.69161582e-01 1.74274240e-02
      4.92908200e-03 1.59493217e-03 4.32133488e-03 0. 5.12155630e-02
      4.45567340e-01 4.49638337e-01 4.49638337e-01 7.96909723e-03 0. 0.
      1.03882831e-02 0. 3.56465280e-02 3.28828037e-01 4.49638337e-01
      1.80149488e-02 8.71980854e-04 2.27157841e-03 4.36102506e-04
      9.05393716e-03 0. 1.50063233e-02 6.17184164e-03 1.82047728e-02
      3.41807418e-02 3.94436484e-03 4.46317019e-03 1.88977749e-03
      3.08029987e-02 0. 2.60889381e-02 2.19070390e-02 3.37696522e-02
      4.92982000e-01 5.34731371e-05 1.60011419e-04 0. 4.75478033e-03
      4.29398101e-03 2.36341022e-02 6.95071220e-02 4.92982000e-01
      4.92982000e-01 2.93664937e-03 1.13856164e-03 1.60884741e-03
      4.09881584e-03 1.28829908e-02 2.27622483e-02 5.41825444e-02
      4.92982000e-01 3.42833102e-02 3.22117796e-03 6.50001969e-03
      4.67053032e-04 1.74685102e-02 3.81815573e-03 2.17332598e-02
      1.76782906e-02 3.60377245e-02 5.08376025e-02 3.87284858e-03
      9.47378855e-03 1.25132571e-03 1.50855724e-02 1.45206070e-02
      3.43242250e-02 4.56963293e-02 6.20011576e-02 4.93770808e-01
      7.10924063e-03 1.22801389e-03 2.36842409e-03 9.31001920e-03
      1.37656461e-02 1.32408161e-02 3.36653143e-02 4.93770808e-01
      4.93770808e-01 5.96902845e-03 1.99190993e-03 5.46559459e-04
      1.58184804e-02 7.89422728e-03 2.55298298e-02 2.78814994e-02
      4.93770808e-01 3.88934389e-02 2.70804763e-03 2.38539069e-03
      1.84210762e-03 1.45135438e-02 1.96465645e-02 3.74768451e-02
      4.46158238e-02 4.86460738e-02 4.22312655e-02 2.16356385e-03
      9.91782290e-04 4.25101811e-04 1.93633735e-02 2.09222548e-02
      4.67895120e-02 3.82157415e-02 4.76135761e-02</_>
    <_>
      1.27850711e-01 1.51816294e-01 2.28952214e-01 2.28952214e-01
      1.90612003e-01 1.75883263e-01 4.23949212e-02 1.09262057e-01
      1.17572151e-01 1.01247251e-01 2.13895574e-01 2.28952214e-01
      2.28952214e-01 1.82499602e-01 1.60516486e-01 1.05918206e-01
      5.58903031e-02 1.14825025e-01 9.55080912e-02 1.08927168e-01
      2.28952214e-01 2.28952214e-01 2.28952214e-01 2.19876766e-01
      9.06129330e-02 7.71002471e-02 1.03499040e-01 1.36182845e-01
      1.39805913e-01 2.28952214e-01 2.28952214e-01 2.28952214e-01
      1.78007483e-01 9.49018598e-02 5.55386804e-02 1.43631428e-01
      1.82219595e-01 2.11281046e-01 2.10131809e-01 2.11281046e-01
      1.46955162e-01 1.28647968e-01 1.35075152e-01 6.19313233e-02
      1.32634088e-01 2.11281046e-01 2.11281046e-01 1.68141887e-01
      1.88877344e-01 1.52265415e-01 2.11281046e-01 1.28281221e-01
      1.07870542e-01 2.02423275e-01 1.08778514e-01 1.33293733e-01
      2.11281046e-01 2.11281046e-01 2.11281046e-01 1.31683961e-01
      9.96309966e-02 6.25165328e-02 9.99029875e-02 2.09777951e-01
      1.55049801e-01 1.90844610e-01 1.70591742e-01 1.55434489e-01
      2.11281046e-01 1.35791749e-01 1.14427961e-01 1.57274425e-01
      2.43709072e-01 1.78452238e-01 1.09818593e-01 6.97972775e-02
      8.23110715e-02 9.77717564e-02 8.59244540e-02 8.65745619e-02
      1.48688510e-01 2.43709072e-01 2.43709072e-01 1.44226670e-01
      4.42799106e-02 8.66791680e-02 8.36283043e-02 1.76205218e-01
      2.09851205e-01 1.84098348e-01 2.12999895e-01 1.18849993e-01
      1.05793610e-01 1.02317043e-01 1.05662361e-01 2.12154761e-01
      2.14712024e-01 1.43317729e-01 1.55710444e-01 2.01778308e-01
      1.68469444e-01 1.27270341e-01 8.87656808e-02 1.80162609e-01
      2.43709072e-01 2.43709072e-01 2.43709072e-01 1.97500154e-01
      2.16647610e-01 2.16647610e-01 1.62968606e-01 4.51208390e-02
      7.15475082e-02 6.88267499e-02 1.19102195e-01 1.99721590e-01
      1.42425865e-01 2.16647610e-01 1.28188729e-01 2.16647610e-01
      1.34845540e-01 1.33853450e-01 9.21597704e-02 1.61997482e-01
      1.99918985e-01 2.09014729e-01 1.18068330e-01 1.66025892e-01
      1.70895725e-01 7.14436173e-02 1.49339631e-01 2.00026289e-01
      2.16647610e-01 1.97673038e-01 1.19883768e-01 2.16647610e-01
      1.69817820e-01 1.78883553e-01 1.26013771e-01 1.15665972e-01
      1.36015028e-01 2.16647610e-01 2.16647610e-01 1.96066186e-01
      2.17615694e-01 1.01415336e-01 1.80541351e-01 1.03216030e-01
      1.38968363e-01 9.16205868e-02 1.35462210e-01 1.69842169e-01
      2.03972071e-01 1.86612427e-01 1.01453058e-01 1.21664360e-01
      1.99618503e-01 1.88336059e-01 1.78412765e-01 2.32760355e-01
      1.61031514e-01 1.35357723e-01 2.32760355e-01 1.12877853e-01
      8.89021829e-02 9.33790579e-02 1.00265585e-01 8.46564844e-02
      2.10719109e-01 2.02229559e-01 2.32760355e-01 2.32760355e-01
      1.32162794e-01 5.67608103e-02 1.00632258e-01 1.47694409e-01
      1.70699835e-01 2.32760355e-01 2.32760355e-01 1.73892513e-01
      7.78485760e-02 4.54360321e-02 1.08191788e-01 2.20026642e-01
      2.20026642e-01 2.20026642e-01 2.08015963e-01 1.29998639e-01
      7.15841204e-02 7.67020509e-02 7.46226907e-02 8.85754675e-02
      1.81827843e-01 2.20026642e-01 2.20026642e-01 1.54955477e-01
      1.56549349e-01 1.44512638e-01 1.15886845e-01 1.36789724e-01
      1.29650548e-01 1.59325913e-01 1.68454796e-01 2.18177691e-01
      2.20026642e-01 2.20026642e-01 7.67207220e-02 1.71976775e-01
      1.83090657e-01 2.03297466e-01 1.97337732e-01 1.48897871e-01
      1.64287224e-01 1.43132493e-01 2.07920358e-01 1.98956668e-01
      1.63147837e-01 1.56591192e-01 9.46739540e-02 1.09312564e-01
      1.39266133e-01 1.11880019e-01 9.92863774e-02 1.60062417e-01
      2.19587147e-01 2.24327236e-01 2.05534816e-01 1.29706204e-01
      9.60182771e-02 1.22746259e-01 4.79689389e-02 1.00390419e-01
      1.50467440e-01 2.24327236e-01 1.93970934e-01 1.47162467e-01
      1.98355064e-01 1.77790165e-01 1.16197295e-01 7.78080970e-02
      1.68232247e-01 2.24327236e-01 2.24327236e-01 1.89646229e-01
      2.24327236e-01 2.24327236e-01 1.56800941e-01 1.23204306e-01
      8.62552449e-02 1.66967586e-01 2.24327236e-01 2.24327236e-01
      1.43245086e-01 1.43738672e-01 1.91172093e-01 1.95383415e-01
      2.03841761e-01 1.39104635e-01 7.52597749e-02 4.80832271e-02
      1.30746290e-01 1.48009747e-01 1.34883657e-01 1.73795015e-01
      1.90953627e-01 2.07289979e-01 1.64546445e-01 9.22720358e-02
      1.12026095e-01 1.76023304e-01 2.07289979e-01 1.80010661e-01
      1.29933655e-01 1.37186572e-01 2.07289979e-01 1.96045771e-01
      1.42147943e-01 1.37712553e-01 2.06838220e-01 1.08276591e-01
      1.60972401e-01 1.68456420e-01 1.36872470e-01 2.06709564e-01
      2.07289979e-01 2.07289979e-01 2.07289979e-01 1.90729216e-01
      1.95801094e-01 1.05505675e-01 2.01135740e-01 2.09760636e-01
      2.13039026e-01 1.42109334e-01 1.02613248e-01 1.45654425e-01
      1.78338274e-01 2.13039026e-01 1.49128959e-01 1.67939410e-01
      1.07117712e-01 1.34875983e-01 1.32852688e-01 1.25495836e-01
      1.46372870e-01 1.65592492e-01 2.00209230e-01 1.65883064e-01
      1.93644434e-01 1.15593366e-01 1.62525028e-01 1.38531730e-01
      1.98479146e-01 2.13039026e-01 1.95666701e-01 2.13039026e-01
      2.13039026e-01 1.34308487e-01 7.30462223e-02 1.30510807e-01
      9.55295935e-02 1.18792251e-01 2.00358286e-01 2.13039026e-01
      1.95941746e-01 8.77987817e-02 7.83574581e-02 7.23595545e-02
      8.57188553e-02 1.90377235e-01 2.27306217e-01 1.84120998e-01
      1.64096564e-01 2.13422045e-01 1.75535485e-01 1.32779419e-01
      1.27593160e-01 1.89521730e-01 2.53115296e-01 2.53115296e-01
      2.53115296e-01 2.53115296e-01 1.29924655e-01 1.27048448e-01
      1.81154713e-01 7.37749487e-02 7.57705271e-02 8.37065279e-02
      8.47535357e-02 1.48052320e-01 1.33498847e-01 1.93494260e-01
      2.53115296e-01 2.53115296e-01 1.27685547e-01 5.13901487e-02
      7.22512230e-02 7.84675926e-02 1.28687456e-01 1.95023105e-01
      1.18475221e-01 1.99991897e-01 1.39747754e-01 1.25710681e-01
      1.43182769e-01 2.00942680e-01 2.15017423e-01 1.22063830e-01
      1.41043797e-01 2.10833162e-01 1.60721883e-01 1.63207889e-01
      1.57601595e-01 1.45107508e-01 1.32316262e-01 2.24035293e-01
      1.80655107e-01 1.64423466e-01 1.70625508e-01 2.24035293e-01
      2.24035293e-01 1.43002003e-01 5.98147921e-02 3.69084366e-02
      5.65705411e-02 6.39510900e-02 1.79838672e-01 2.24035293e-01
      2.24035293e-01 2.24035293e-01 2.04451904e-01 1.43236786e-01
      6.33599684e-02 1.53015345e-01 1.06185354e-01 2.24035293e-01
      2.28049442e-01 1.13975294e-01 1.13760464e-01 9.35477242e-02
      8.79469886e-02 7.30107650e-02 2.16927916e-01 1.79138288e-01
      2.27255851e-01 2.28049442e-01 2.28049442e-01 1.41174123e-01
      9.17837098e-02 8.95609856e-02 1.31875843e-01 2.28049442e-01
      1.77863300e-01 1.77190587e-01 2.28049442e-01 2.18685955e-01
      1.00086704e-01 8.11052695e-02 1.26299411e-01 1.25784740e-01
      1.84445992e-01 1.17784299e-01 2.28049442e-01 2.28049442e-01
      2.28049442e-01 1.76501617e-01 1.14031821e-01 1.03366561e-01
      1.68252975e-01 1.60510197e-01 7.36225173e-02 1.67058483e-01
      1.89145803e-01 2.39052281e-01 1.78024769e-01 1.04102202e-01
      7.61179179e-02 1.48584709e-01 1.86119959e-01 9.79875252e-02
      1.38961092e-01 2.31381759e-01 2.44493440e-01 2.44493440e-01
      1.16069138e-01 8.76958519e-02 1.15893722e-01 1.00457892e-01
      9.21713337e-02 2.02176943e-01 2.22900778e-01 2.44493440e-01
      2.31510565e-01 1.11188605e-01 3.82488370e-02 1.21040948e-01
      1.17721878e-01 5.58943525e-02 1.60829663e-01 2.44493440e-01
      2.44493440e-01 2.44493440e-01 7.19122812e-02 5.85824847e-02
      8.02937448e-02 1.05073459e-01 9.58938673e-02 2.33516902e-01
      1.61129788e-01 2.01959401e-01 2.33307034e-01 1.41769364e-01
      8.99432600e-02 6.39405623e-02 8.71933475e-02 1.31738111e-01
      1.03424683e-01 2.02668265e-01 2.24579632e-01 2.33307034e-01
      1.90326974e-01 1.09512076e-01 5.24075329e-02 8.72284248e-02
      1.38780996e-01 1.31361216e-01 2.33307034e-01 2.33307034e-01
      2.33307034e-01 1.09047301e-01 1.60116240e-01 3.76707539e-02
      9.57090929e-02 1.37998134e-01 1.41708165e-01 2.33307034e-01
      2.33307034e-01 2.33307034e-01 1.86044112e-01 2.33307034e-01
      6.18149415e-02 1.32900685e-01 1.45637423e-01 1.48187310e-01
      1.83975771e-01 1.26860440e-01 6.24033287e-02 1.16142198e-01
      1.90508053e-01 1.75440952e-01 1.98190853e-01 2.41581991e-01
      1.33611634e-01 1.04389928e-01 1.41006351e-01 1.22974403e-01
      9.58279595e-02 1.55537978e-01 1.39991030e-01 2.41581991e-01
      2.41581991e-01 1.33468837e-01 2.41581991e-01 2.41581991e-01
      1.98260412e-01 1.25652105e-01 1.03033230e-01 8.67601335e-02
      1.09481744e-01 1.57914996e-01 9.89196524e-02 2.41581991e-01
      2.41581991e-01 1.54232100e-01 8.85494277e-02 7.59889483e-02
      5.36681600e-02 1.45229802e-01 2.13452458e-01 2.32273832e-01
      1.06678605e-01 1.16236120e-01 1.59278050e-01 7.03923777e-02
      6.47808686e-02 5.18835112e-02 1.34167373e-01 1.64770469e-01
      9.97090712e-02 1.08478576e-01 1.81203082e-01 2.43636861e-01
      1.43733293e-01 1.38014868e-01 6.49049804e-02 1.03907816e-01
      1.91590637e-01 1.61960691e-01 2.60744661e-01 1.90550968e-01
      1.73504069e-01 5.15884347e-02 4.67101410e-02 2.57817153e-02
      1.22461408e-01 2.41847917e-01 2.60744661e-01 2.60744661e-01
      2.00252309e-01 2.60744661e-01 1.39623851e-01 1.16093338e-01
      4.37786467e-02 1.73944384e-01 2.60744661e-01 2.60744661e-01
      9.36297178e-02 1.88817635e-01 2.58814782e-01 1.33886650e-01
      1.25151694e-01 7.32342899e-02 5.96145689e-02 8.65103304e-02
      8.09126422e-02 1.35684788e-01 2.58814782e-01 2.58814782e-01
      1.08842738e-01 6.22443594e-02 4.47133072e-02 4.70551737e-02
      6.78884983e-02 1.02144107e-01 1.53631702e-01 1.89273313e-01
      2.14398161e-01 1.32593006e-01 1.25878960e-01 8.81963074e-02
      1.79083705e-01 2.58814782e-01 2.11078316e-01 1.95154637e-01
      2.58814782e-01 2.58814782e-01 2.58814782e-01 1.37996301e-01
      8.64866450e-02 1.23156957e-01 1.91035181e-01 1.86229721e-01
      1.59902364e-01 2.83500761e-01 2.83500761e-01 1.10141523e-01
      2.45221555e-02 1.08161839e-02 3.43309641e-02 5.83990254e-02
      1.78455293e-01 2.83500761e-01 2.83500761e-01 2.83500761e-01
      1.02961607e-01 6.97409138e-02 4.98521812e-02 9.34002772e-02
      8.52314383e-02 2.52284586e-01 1.20944507e-01 2.83500761e-01
      2.83500761e-01 2.24282220e-01 7.56777823e-02 2.96625588e-02
      3.36635783e-02 6.27550483e-02 1.00220211e-01 1.18786961e-01
      2.38093913e-01 2.83500761e-01 8.47757384e-02 6.00462183e-02
      4.67088372e-02 6.28835633e-02 4.98450547e-02 6.98688254e-02
      2.14050829e-01 1.87442467e-01 8.28557238e-02 4.89990748e-02
      1.43434867e-01 2.28989169e-01 1.52468905e-01 1.05235733e-01
      2.28989169e-01 2.11141780e-01 1.89067617e-01 8.69957283e-02
      9.37629789e-02 1.73039764e-01 2.28989169e-01 1.67005241e-01
      1.30467653e-01 2.28631869e-01 1.12019256e-01 1.98192090e-01
      2.28989169e-01 6.78500235e-02 7.70718902e-02 1.44379899e-01
      8.99240300e-02 8.82157907e-02 1.68818668e-01 1.48813292e-01
      2.28989169e-01 2.28989169e-01 9.23968032e-02 1.88833550e-01
      1.61645651e-01 8.66767913e-02 1.84830144e-01 2.28989169e-01
      2.48080403e-01 2.48080403e-01 1.47008553e-01 1.12688549e-01
      8.20498019e-02 1.12453915e-01 1.40327021e-01 1.12797074e-01
      1.95768118e-01 2.48080403e-01 2.48080403e-01 2.48080403e-01
      1.16335243e-01 6.90636486e-02 4.15749699e-02 1.01189367e-01
      1.16202883e-01 2.41889820e-01 1.51685700e-01 2.48080403e-01
      1.32015184e-01 1.13708131e-01 2.33000144e-01 8.78070593e-02
      5.25672212e-02 1.24498121e-01 1.50851354e-01 2.48080403e-01
      2.48080403e-01 2.48080403e-01 1.00899853e-01 1.51506752e-01
      6.37538880e-02 5.93928285e-02 5.64704165e-02 1.28886595e-01
      1.86832190e-01 2.30149850e-01 2.30149850e-01 1.45302817e-01
      1.36619583e-01 3.74101438e-02 1.11874960e-01 2.09182441e-01
      1.64742902e-01 2.03667536e-01 2.14525059e-01 2.25110635e-01
      2.30149850e-01 2.30149850e-01 1.30419388e-01 1.42010272e-01
      2.30149850e-01 1.44703060e-01 1.95781991e-01 2.30149850e-01
      2.30149850e-01 8.53173584e-02 5.99397644e-02 3.39235365e-02
      3.78548056e-02 7.07119256e-02 7.42778480e-02 2.10847870e-01
      2.30149850e-01 2.30149850e-01 1.50022209e-01 1.17969379e-01
      7.27730542e-02 3.55391614e-02 9.06100050e-02 8.50745663e-02
      1.64047733e-01 2.44487092e-01 2.44487092e-01 1.69071048e-01
      1.49407819e-01 4.90982644e-02 4.69354950e-02 5.73991388e-02
      1.02967359e-01 2.44487092e-01 2.44487092e-01 1.50470540e-01
      6.54136613e-02 3.63303050e-02 2.48400457e-02 6.60276860e-02
      9.95662734e-02 2.31132656e-01 5.84486835e-02 8.78617838e-02
      2.44487092e-01 1.50533259e-01 2.44487092e-01 2.44487092e-01
      2.44487092e-01 2.44487092e-01 1.90622047e-01 1.26048997e-01
      1.33850142e-01 1.06831282e-01 5.45676164e-02 6.89526722e-02
      8.19295645e-02 1.31779924e-01 2.44487092e-01 2.44487092e-01
      2.63669819e-01 1.98721692e-01 9.46658924e-02 4.92888726e-02
      5.25202565e-02 4.92153987e-02 7.75578767e-02 1.72597215e-01
      2.63669819e-01 2.63669819e-01 1.33297309e-01 1.07136294e-01
      8.16110745e-02 5.98122999e-02 4.72006388e-02 1.55699193e-01
      2.63669819e-01 2.63669819e-01 1.89273745e-01 1.35518000e-01
      7.96484947e-02 8.57836753e-02 9.62900892e-02 9.79253501e-02
      1.05512001e-01 1.76000223e-01 2.62179971e-01 2.47260541e-01
      2.63669819e-01 1.50355235e-01 1.19466580e-01 9.15866047e-02
      6.38956577e-02 9.50423926e-02 1.89129680e-01 2.63669819e-01
      2.03236699e-01 1.08072400e-01 1.02666184e-01 5.42463064e-02
      3.90813388e-02 3.01424172e-02 1.52686730e-01 2.35451937e-01
      2.35451937e-01 2.00885132e-01 1.41945034e-01 1.69422850e-01
      1.75983310e-01 1.01413660e-01 8.60326141e-02 2.33891174e-01
      2.35451937e-01 2.35451937e-01 1.95083246e-01 2.35451937e-01
      2.35451937e-01 7.44957849e-02 5.01613021e-02 1.49340248e-02
      6.63191453e-02 1.60673216e-01 1.54559538e-01 1.66176945e-01
      2.35451937e-01 2.35451937e-01 1.35703072e-01 1.07735030e-01
      9.30330232e-02 2.21636698e-01 1.85840845e-01 1.37693197e-01
      1.16688676e-01 1.26792133e-01 1.96333215e-01 2.41915718e-01
      1.37904659e-01 1.41398042e-01 2.42948800e-01 1.51535347e-01
      1.42344266e-01 9.10227969e-02 1.14105001e-01 2.42948800e-01
      1.66077226e-01 6.83339909e-02 6.06707558e-02 7.00370967e-02
      5.97363748e-02 6.69036880e-02 1.00920998e-01 1.41266301e-01
      2.42948800e-01 1.91300184e-01 1.45917833e-01 2.08392173e-01
      2.42948800e-01 1.76594555e-01 1.08542368e-01 1.27018258e-01
      6.92150965e-02 2.42948800e-01 2.42948800e-01 2.42948800e-01
      2.42948800e-01 1.50563717e-01 9.67877358e-02 1.37144178e-01
      6.55573979e-02 2.61258572e-01 3.09049994e-01 1.95996091e-01
      4.31951843e-02 3.76530476e-02 3.39683518e-02 3.74796391e-02
      7.01909512e-02 7.71303549e-02 3.09049994e-01 3.09049994e-01
      1.79775149e-01 1.26082584e-01 4.62219901e-02 4.67217490e-02
      8.27267319e-02 1.08241856e-01 8.53843987e-02 1.09279990e-01
      3.09049994e-01 3.04837406e-01 2.37639233e-01 1.70971200e-01
      1.16919525e-01 5.94208688e-02 6.82146102e-02 8.40771720e-02
      9.49067175e-02 3.09049994e-01 1.62874863e-01 1.29045010e-01
      7.74605274e-02 1.04945704e-01 1.41596690e-01 6.73354641e-02
      7.86135420e-02 2.19102502e-01 1.98047608e-01 1.98123187e-01
      2.38765165e-01 8.14863369e-02 4.41614352e-02 5.71831837e-02
      6.59080446e-02 2.38765165e-01 2.38765165e-01 2.38765165e-01
      1.81490019e-01 2.38765165e-01 1.22703485e-01 7.47529268e-02
      4.34342846e-02 9.79170501e-02 3.70185412e-02 3.67888398e-02
      1.24803096e-01 2.38765165e-01 2.38765165e-01 2.03169823e-01
      2.08219290e-01 1.05927788e-01 3.52762453e-02 7.40745291e-02
      7.87191615e-02 1.25488505e-01 2.38765165e-01 2.38765165e-01
      2.37775296e-01 2.38765165e-01 8.42349082e-02 8.45059156e-02
      2.71680295e-01 2.71680295e-01 2.71680295e-01 6.05219714e-02
      1.23151749e-01 1.17553808e-01 7.66759515e-02 6.38353750e-02
      1.74698636e-01 2.71680295e-01 2.71680295e-01 2.45270669e-01
      4.12331633e-02 3.95415276e-02 5.77653386e-02 6.50659651e-02
      7.36477003e-02 1.93243816e-01 1.80699855e-01 1.25664577e-01
      6.84482083e-02 9.18835998e-02 1.29027739e-01 1.47829264e-01
      2.07556158e-01 1.61273360e-01 2.71680295e-01 2.63415933e-01
      7.81729668e-02 1.84634142e-02 8.99432506e-03 1.07172644e-02
      4.88376655e-02 6.95261583e-02 2.03263626e-01 2.71680295e-01
      7.80684873e-02 3.20905298e-02 3.73358391e-02 8.98807943e-02
      1.46261796e-01 2.15974450e-01 2.46648863e-01 2.51182556e-01
      1.95818141e-01 1.77114397e-01 5.89408167e-02 2.91904639e-02
      3.65223289e-02 3.67062017e-02 6.60325140e-02 1.46462083e-01
      2.51182556e-01 2.51182556e-01 2.08562523e-01 9.50794816e-02
      1.85597703e-01 2.14632183e-01 1.48052961e-01 1.14657797e-01
      1.03676081e-01 2.51182556e-01 1.41441196e-01 2.51182556e-01
      1.32782161e-01 1.11851856e-01 1.36363909e-01 1.17964938e-01
      1.36022821e-01 1.66765064e-01 2.51182556e-01 2.51182556e-01
      1.97411090e-01 8.55412185e-02 7.14900047e-02 6.23034984e-02
      3.19154114e-02 5.53751215e-02 9.66613069e-02 2.21482188e-01
      2.38577768e-01 2.38577768e-01 2.38577768e-01 1.24105796e-01
      8.96204263e-02 6.91714883e-02 5.82626089e-02 7.42617995e-02
      2.13669702e-01 2.38577768e-01 2.22915947e-01 1.07625134e-01
      1.08702540e-01 1.34986624e-01 1.40740111e-01 1.30863518e-01
      1.66490734e-01 2.38577768e-01 2.38577768e-01 2.38577768e-01
      1.83491439e-01 1.58951804e-01 1.17882684e-01 1.35811776e-01
      1.24170192e-01 1.48781985e-01 2.38577768e-01 2.38577768e-01
      2.06754014e-01 2.39968941e-01 2.39968941e-01 1.15726508e-01
      1.04676753e-01 5.41670769e-02 1.03015430e-01 1.92016616e-01
      1.78446814e-01 8.52583125e-02 2.39968941e-01 2.39968941e-01
      1.20432556e-01 1.53212175e-01 7.65887722e-02 1.34640664e-01
      1.60848185e-01 7.89934620e-02 2.39968941e-01 2.39968941e-01
      2.31487826e-01 1.34449556e-01 1.94579706e-01 1.28183290e-01
      1.21089213e-01 2.39968941e-01 2.39968941e-01 7.58705214e-02
      1.23246573e-01 1.30099267e-01 8.73899385e-02 1.64406091e-01
      1.31462395e-01 1.09042212e-01 1.59186542e-01 1.36168599e-01
      9.39705074e-02 1.05450258e-01 2.48311669e-01 1.53413132e-01
      1.59919724e-01 1.03043206e-01 1.04600564e-01 1.08430639e-01
      9.89503860e-02 1.13211945e-01 6.57652318e-02 2.48311669e-01
      2.16652215e-01 2.48311669e-01 2.48311669e-01 2.10844666e-01
      1.68836191e-01 1.23422422e-01 1.93794385e-01 1.84504837e-01
      1.15387693e-01 7.44918808e-02 1.14389814e-01 8.73049423e-02
      7.24341944e-02 1.07456110e-01 1.71105832e-01 2.48311669e-01
      2.48311669e-01 2.48311669e-01 1.11518495e-01 1.26224905e-01
      8.82384181e-02 9.53615010e-02 1.93179518e-01 2.48311669e-01
      9.84029248e-02 5.08756600e-02 1.47582054e-01 1.14435762e-01
      2.42063984e-01 1.84934124e-01 1.91884175e-01 2.42063984e-01
      1.35935485e-01 1.44489393e-01 8.47379044e-02 6.78700358e-02
      7.83401206e-02 1.19578131e-01 1.33444399e-01 1.80670142e-01
      2.42063984e-01 1.48397639e-01 2.42063984e-01 1.91982269e-01
      2.01921090e-01 4.23241891e-02 6.12397492e-02 4.93151248e-02
      1.14100568e-01 2.42063984e-01 2.42063984e-01 2.42063984e-01
      9.53566805e-02 7.87964761e-02 1.69604182e-01 1.00712374e-01
      1.35842592e-01 1.91633567e-01 2.42063984e-01 2.42063984e-01
      8.00172910e-02 6.59488291e-02 5.56376800e-02 1.12734012e-01
      1.73559785e-01 2.43516684e-01 2.72938043e-01 1.45851880e-01
      5.96065968e-02 4.98175211e-02 7.98304230e-02 6.22787736e-02
      1.03586480e-01 1.52752340e-01 2.72783905e-01 2.72938043e-01
      1.48085982e-01 5.45629375e-02 2.27329433e-01 9.36458185e-02
      8.92660245e-02 2.07809389e-01 1.49204701e-01 1.51952252e-01
      2.34187320e-01 1.56072870e-01 1.82507724e-01 1.27126545e-01
      1.01787902e-01 9.60661173e-02 1.08740166e-01 2.72938043e-01
      2.72938043e-01 2.72938043e-01 1.16720878e-01 8.49317983e-02
      8.40251073e-02 1.02933072e-01 3.46342549e-02 3.96037586e-02
      5.99895567e-02 1.67365611e-01 2.62449920e-01 2.33178541e-01
      1.54846206e-01 2.02831537e-01 8.07954222e-02 1.04680667e-02
      6.07035868e-03 7.20369024e-03 2.49130465e-02 5.22055589e-02
      2.27731884e-01 2.62449920e-01 1.75875157e-01 1.38902053e-01
      1.18145764e-01 1.24738701e-01 2.62449920e-01 2.62449920e-01
      2.62449920e-01 2.04716817e-01 1.11157350e-01 2.62449920e-01
      1.44108117e-01 5.87886274e-02 8.04821774e-02 1.28496990e-01
      7.91741163e-02 1.59343436e-01 2.62449920e-01 2.62449920e-01
      1.95886031e-01 1.04473710e-01 2.20038995e-01 2.20038995e-01
      2.20038995e-01 7.99979344e-02 6.07718341e-02 6.98348060e-02
      8.62905607e-02 1.66474655e-01 7.90743530e-02 1.53710261e-01
      1.66993573e-01 1.91436335e-01 1.51953653e-01 1.26831830e-01
      2.07516938e-01 1.48168802e-01 1.86280265e-01 2.20038995e-01
      2.20038995e-01 2.20038995e-01 2.20038995e-01 8.84930715e-02
      1.00937404e-01 3.95000689e-02 9.08139870e-02 2.09474847e-01
      2.20038995e-01 2.20038995e-01 2.20038995e-01 1.95084229e-01
      1.11474574e-01 8.79644826e-02 1.73138469e-01 1.44913018e-01
      1.05485618e-01 6.61047995e-02 9.95856076e-02 9.88081694e-02
      1.50318384e-01 1.19622260e-01 1.45117089e-01 2.29369268e-01
      1.93126768e-01 2.29369268e-01 1.50654137e-01 1.82534680e-01
      8.63410160e-02 1.00005247e-01 7.30058104e-02 1.12194799e-01
      2.29369268e-01 2.29369268e-01 1.66919917e-01 1.33449510e-01
      1.99193195e-01 1.53025255e-01 7.84436092e-02 9.04059038e-02
      1.68145627e-01 2.29369268e-01 2.19867229e-01 2.29369268e-01
      2.02633217e-01 2.29369268e-01 1.38532490e-01 3.64561528e-02
      7.35361129e-02 1.88923255e-01 2.29369268e-01 2.29369268e-01
      2.29086429e-01 1.59187689e-01 2.04157874e-01 7.22422823e-02
      1.29049182e-01 1.01104185e-01 8.33352804e-02 2.27859065e-01
      2.29086429e-01 1.25874475e-01 1.36854976e-01 1.14741988e-01
      7.55322650e-02 1.34730443e-01 1.24130934e-01 1.04878657e-01
      1.53513357e-01 1.82956412e-01 2.29086429e-01 2.06095621e-01
      2.29086429e-01 1.21321358e-01 4.76716608e-02 7.52688423e-02
      1.33429423e-01 2.07418650e-01 2.29086429e-01 1.86580986e-01
      1.39842689e-01 2.23394245e-01 1.26789406e-01 1.76622599e-01
      1.76657617e-01 1.93837196e-01 1.70063779e-01 2.16974184e-01
      1.98337421e-01 2.52567440e-01 6.11054301e-02 5.12512289e-02
      5.97371943e-02 3.35238762e-02 4.38326523e-02 7.85513148e-02
      1.72461078e-01 2.52567440e-01 2.52567440e-01 2.52567440e-01
      2.56700553e-02 1.28113162e-02 3.40065244e-03 1.82573944e-02
      1.27789423e-01 2.52567440e-01 2.43908316e-01 2.52567440e-01
      9.83487070e-02 7.16413930e-02 1.32148474e-01 1.03805080e-01
      1.34521812e-01 1.50403559e-01 2.40003958e-01 2.52567440e-01
      2.52567440e-01 1.77611426e-01 3.87091264e-02 8.32597762e-02
      5.09713590e-02 1.02082863e-01 2.52567440e-01 2.52567440e-01
      2.62600720e-01 1.51120991e-01 1.67659849e-01 1.26915164e-02
      7.61197298e-04 2.10432056e-03 3.03241927e-02 1.26533121e-01
      2.85526395e-01 2.85526395e-01 3.63201499e-02 4.46308888e-02
      7.37297758e-02 4.47894335e-02 2.84957476e-02 6.16367683e-02
      1.23971075e-01 2.85526395e-01 2.85526395e-01 2.10091949e-01
      1.39533415e-01 4.76843268e-02 3.34301777e-02 1.67782325e-02
      1.24414861e-01 2.80364066e-01 2.85526395e-01 2.85526395e-01
      1.65504962e-01 1.80157349e-01 7.06417039e-02 2.95424089e-02
      1.73401833e-02 6.47341087e-02 1.64822832e-01 2.85526395e-01
      2.14882448e-01 3.05213742e-02 4.52855863e-02 8.77929404e-02
      7.51235187e-02 2.67042108e-02 4.60683852e-02 6.51972666e-02
      1.91469982e-01 1.88597769e-01 1.28962427e-01 1.06791370e-01
      1.34557486e-01 3.11229140e-01 9.95971859e-02 1.01017095e-01
      1.44791268e-02 7.57679492e-02 3.11229140e-01 1.70426488e-01
      1.23621635e-01 3.51982079e-02 6.03917688e-02 1.30306231e-02
      2.47681979e-02 4.99689542e-02 3.11229140e-01 3.11229140e-01
      3.11229140e-01 1.93636775e-01 1.50314569e-01 2.99656779e-01
      3.22541595e-02 4.50928882e-02 3.08252890e-02 3.03530872e-01
      1.29407555e-01 1.47439778e-01 1.39932990e-01 1.81925029e-01
      2.40280673e-01 1.38664782e-01 1.09258987e-01 2.84531508e-02
      6.00869730e-02 1.71881929e-01 1.32163152e-01 1.18640922e-01
      1.36696592e-01 1.66035265e-01 6.14137836e-02 9.20185894e-02
      1.37776837e-01 1.31564215e-01 2.28190050e-01 2.40280673e-01
      2.40280673e-01 2.40280673e-01 2.40280673e-01 9.50800776e-02
      6.76673576e-02 5.55569567e-02 9.68927294e-02 2.05347523e-01
      1.66487128e-01 2.40280673e-01 2.40280673e-01 1.79881588e-01
      8.81375894e-02 1.61664620e-01 1.96952641e-01 2.40280673e-01
      1.83168083e-01 2.22191334e-01 2.17688903e-01 1.98324174e-01
      1.41728923e-01 9.71764699e-02 1.03775620e-01 8.02330673e-02
      9.39702690e-02 2.22191334e-01 2.22191334e-01 2.07205474e-01
      1.51870608e-01 1.14561163e-01 8.50937590e-02 1.16562322e-01
      1.84881777e-01 1.88101023e-01 1.77140340e-01 1.39031559e-01
      1.53811008e-01 1.70268968e-01 1.45606622e-01 8.02293196e-02
      1.18715279e-01 1.85631469e-01 1.24536313e-01 2.22191334e-01
      2.10132465e-01 1.37536183e-01 1.73409879e-01 1.69656545e-01
      8.53670239e-02 1.84369117e-01 2.22191334e-01 2.17527494e-01
      2.14717388e-01 1.97626576e-01 1.76580638e-01 1.18334442e-01
      9.74058658e-02 6.04316667e-02 1.38115525e-01 1.94177777e-01
      2.14717388e-01 2.09501266e-01 2.14717388e-01 1.83572531e-01
      1.34305999e-01 1.31366387e-01 7.98203871e-02 1.72629550e-01
      1.53068051e-01 2.08672017e-01 2.14717388e-01 2.14717388e-01
      1.65676191e-01 1.83026895e-01 2.14717388e-01 6.55594170e-02
      1.11140653e-01 1.19036205e-01 2.11783350e-01 1.49339139e-01
      2.14717388e-01 1.54933885e-01 1.38373747e-01 2.14717388e-01
      7.65739232e-02 1.27987131e-01 9.89342779e-02 1.57250866e-01
      2.13357136e-01 2.17370778e-01 2.17370778e-01 1.54189736e-01
      9.33564380e-02 1.09321408e-01 1.35721415e-01 8.98665786e-02
      2.12367192e-01 1.27494171e-01 1.41315550e-01 2.11232647e-01
      1.78552851e-01 2.06199244e-01 2.17370778e-01 1.57012358e-01
      9.84417424e-02 1.23882383e-01 1.41739056e-01 2.17370778e-01
      1.37062460e-01 1.14808246e-01 1.62424222e-01 1.04019932e-01
      1.70574710e-01 1.46209866e-01 1.81538790e-01 1.64756909e-01
      2.17370778e-01 1.92019120e-01 1.75757512e-01 1.80226699e-01
      1.82506651e-01 1.40276074e-01 1.51535019e-01 1.38054937e-01
      1.42450526e-01 1.55502632e-01 1.66770786e-01 1.36916280e-01
      1.84593990e-01 2.13168383e-01 1.27908856e-01 1.38422981e-01
      1.04779042e-01 2.13168383e-01 2.13168383e-01 1.93639994e-01
      8.86306241e-02 1.52336121e-01 1.76998049e-01 2.13168383e-01
      2.13168383e-01 2.13168383e-01 1.32952422e-01 2.13168383e-01
      2.13168383e-01 1.75314233e-01 1.64497122e-01 1.64929092e-01
      6.25132769e-02 8.15619975e-02 6.08257502e-02 1.41655266e-01
      1.95002228e-01 2.13168383e-01 1.21905915e-01 1.32709414e-01
      1.76195964e-01 2.05836654e-01 1.53965235e-01 1.13105774e-01
      2.31182083e-01 2.31182083e-01 1.77280784e-01 1.16685145e-01
      1.05663441e-01 1.05797052e-01 1.93567261e-01 2.27716073e-01
      2.31182083e-01 2.31182083e-01 2.31182083e-01 2.31182083e-01
      1.77598968e-01 1.07974805e-01 1.20847948e-01 6.64972141e-02
      1.13083340e-01 2.31182083e-01 2.29674444e-01 1.36337727e-01
      1.13998942e-01 1.08388819e-01 1.17959097e-01 1.38657525e-01
      1.87950805e-01 1.25256032e-01 1.23104945e-01 2.27533177e-01
      1.71114266e-01 1.54187843e-01 1.50649101e-01 1.19704537e-01
      1.94564596e-01 7.71544129e-02 5.98276928e-02 8.48871097e-02
      2.57755280e-01 2.57755280e-01 2.37921506e-01 1.02707021e-01
      1.34814337e-01 4.77009974e-02 2.85479911e-02 4.26848158e-02
      2.57755280e-01 2.57755280e-01 2.57755280e-01 2.38045797e-01
      1.46434531e-01 1.79900944e-01 5.90433255e-02 7.43951052e-02
      6.34054393e-02 2.29865432e-01 1.66505873e-01 1.80133253e-01
      1.29954606e-01 1.24720737e-01 1.03922561e-01 8.41567218e-02
      5.67413978e-02 7.00170919e-02 8.05747360e-02 1.47744015e-01
      2.55742162e-01 1.82553783e-01 1.97111800e-01 2.20849290e-01
      1.55124128e-01 1.09872535e-01 1.14572935e-01 1.26806617e-01
      1.61513388e-01 2.15823248e-01 2.01596677e-01 1.73403978e-01
      1.35264650e-01 7.35450909e-02 8.59056711e-02 8.91698375e-02
      1.07450783e-01 2.15823248e-01 1.20169088e-01 2.08413750e-01
      2.00650036e-01 1.40033826e-01 8.49012956e-02 1.41694233e-01
      1.84927419e-01 2.15823248e-01 1.74643174e-01 1.78557277e-01
      1.72732547e-01 1.89341009e-01 2.15823248e-01 1.41999960e-01
      1.14687353e-01 1.24155387e-01 1.49241179e-01 2.15823248e-01
      1.88385174e-01 2.15823248e-01 1.79512292e-01 1.96811244e-01
      9.14596841e-02 1.07194774e-01 1.40704453e-01 2.15823248e-01</_>
    <_>
      1.43245876e-01 6.37135953e-02 1.14416413e-01 1.13879725e-01
      1.96651146e-01 1.39777333e-01 1.55798808e-01 1.50920525e-01
      2.10855648e-01 9.79777128e-02 1.45979688e-01 2.10855648e-01
      2.10855648e-01 1.82529852e-01 6.64520636e-02 1.16863847e-01
      1.83527023e-01 2.10855648e-01 1.87936082e-01 1.02698237e-01
      9.12223905e-02 1.57460153e-01 1.80394650e-01 1.50051847e-01
      2.01074317e-01 1.62265003e-01 1.90219283e-01 1.40293643e-01
      2.10855648e-01 1.90517068e-01 2.10855648e-01 1.64676771e-01
      1.05783351e-01 2.10855648e-01 1.97635457e-01 2.10855648e-01
      9.61008370e-02 1.40941381e-01 9.09444243e-02 7.54877254e-02
      7.51971975e-02 2.81458460e-02 7.09130019e-02 1.56930462e-01
      1.85876623e-01 2.54134476e-01 2.23069236e-01 1.19697124e-01
      1.35240167e-01 1.01764433e-01 4.26355563e-02 1.33060277e-01
      1.94762275e-01 1.56268299e-01 1.46941155e-01 2.59284079e-01
      2.48315945e-01 1.65663496e-01 5.08590527e-02 7.44841993e-02
      8.72229561e-02 1.19370237e-01 1.65571377e-01 2.76780814e-01
      2.76780814e-01 2.76780814e-01 2.76780814e-01 6.89375550e-02
      8.15635994e-02 6.93530589e-02 1.49703577e-01 2.52848953e-01
      1.94649816e-01 1.45929471e-01 1.08533926e-01 1.09143876e-01
      5.78242466e-02 2.91759577e-02 3.78265344e-02 5.38183562e-02
      6.57413006e-02 1.81361750e-01 2.51988739e-01 1.72535390e-01
      1.30454063e-01 1.82131052e-01 1.85490996e-01 5.88776208e-02
      4.60761003e-02 7.09954426e-02 3.23887914e-01 3.23887914e-01
      1.90756559e-01 1.16780646e-01 4.06651236e-02 2.13927254e-02
      1.39636695e-02 5.82907870e-02 1.68307319e-01 3.23887914e-01
      3.23887914e-01 2.12625861e-01 7.72386417e-02 6.87025189e-02
      7.67612830e-02 2.66396925e-02 9.26622748e-02 3.23887914e-01
      1.63055241e-01 2.46755511e-01 1.83337316e-01 1.59102589e-01
      1.76772490e-01 1.69198573e-01 5.27097732e-02 5.27403168e-02
      4.32239398e-02 2.07959771e-01 2.50677556e-01 2.50677556e-01
      2.50677556e-01 1.57111719e-01 1.21253751e-01 3.54661494e-02
      2.45581437e-02 3.91491652e-02 2.50677556e-01 2.50677556e-01
      1.94730029e-01 1.15910850e-01 5.66097945e-02 5.54607287e-02
      2.18203459e-02 7.82498792e-02 2.50677556e-01 2.50677556e-01
      2.50677556e-01 1.89311057e-01 1.61213771e-01 4.29666191e-02
      3.60277966e-02 2.30413731e-02 4.96941954e-02 2.50677556e-01
      3.03241283e-01 2.89103270e-01 2.42111176e-01 1.46392941e-01
      6.05897866e-02 4.35583331e-02 2.21024267e-02 2.05329452e-02
      7.15653449e-02 3.03241283e-01 2.04778269e-01 7.09772855e-02
      3.69809829e-02 2.36496497e-02 2.53223795e-02 2.51883138e-02
      8.56229439e-02 2.44139388e-01 3.03241283e-01 3.03241283e-01
      1.12074189e-01 7.37595409e-02 3.47236693e-02 3.27879824e-02
      2.88704559e-02 5.05783632e-02 2.10181624e-01 3.03241283e-01
      2.65339524e-01 6.42568618e-02 2.04210579e-02 1.50188860e-02
      2.88161039e-02 5.86600192e-02 7.48403445e-02 3.03241283e-01
      3.30546528e-01 8.64887759e-02 1.85707826e-02 1.63681135e-02
      1.08037665e-02 8.98660440e-03 1.54259410e-02 6.07201718e-02
      2.93752342e-01 3.30546528e-01 1.66207507e-01 3.01362053e-02
      6.32291734e-02 2.45343223e-02 5.55686653e-03 3.39756235e-02
      8.82170871e-02 3.30546528e-01 3.30546528e-01 1.52952373e-01
      1.34539492e-02 3.13166529e-03 3.02648754e-03 1.44491857e-02
      2.82407086e-02 3.87943201e-02 3.30546528e-01 3.30546528e-01
      2.38424838e-01 9.63241979e-03 1.04459031e-02 3.48100578e-03
      4.83848760e-03 2.71420088e-02 8.56600627e-02 3.30546528e-01
      3.26295346e-01 1.42389551e-01 1.63826942e-02 2.44077761e-02
      1.35016777e-02 1.91193726e-03 1.96032245e-02 8.04830790e-02
      3.26295346e-01 3.26295346e-01 1.93770945e-01 2.91823950e-02 0.
      3.90557060e-03 0. 4.42763092e-03 3.11949905e-02 3.26295346e-01
      3.26295346e-01 1.78113475e-01 6.97227614e-03 4.37290454e-03
      1.64513115e-03 1.96496607e-03 2.38180254e-02 9.31215286e-02
      3.26295346e-01 3.26295346e-01 1.82337046e-01 1.31888678e-02 0. 0.
      2.52900878e-04 4.62906016e-03 5.40110730e-02 3.26295346e-01
      1.53049663e-01 9.89688784e-02 7.11967573e-02 7.89607242e-02
      1.08845808e-01 8.48653838e-02 7.20839202e-02 8.09593424e-02
      1.15593717e-01 1.77128702e-01 2.34595940e-01 1.45889044e-01
      1.71655953e-01 1.66444376e-01 1.36052683e-01 1.22501612e-01
      1.09220646e-01 1.47699818e-01 1.63379893e-01 1.10192142e-01
      9.70569551e-02 1.29930511e-01 2.34595940e-01 1.48684353e-01
      9.86190960e-02 1.94070101e-01 1.72364444e-01 2.34595940e-01
      2.34595940e-01 2.34595940e-01 2.34595940e-01 2.34595940e-01
      2.34595940e-01 1.85382575e-01 1.94563344e-01 2.34595940e-01
      1.06631942e-01 1.45422757e-01 1.99692294e-01 1.80540517e-01
      3.44235413e-02 8.36995617e-02 6.37563616e-02 9.18181539e-02
      8.30488876e-02 2.32308939e-01 2.32308939e-01 2.32308939e-01
      2.03548223e-01 3.38934921e-02 1.08049683e-01 7.62218162e-02
      1.62580371e-01 1.51199013e-01 1.03913717e-01 1.34781733e-01
      1.60835713e-01 2.32308939e-01 1.41804174e-01 1.28149748e-01
      1.33882776e-01 1.34363055e-01 1.20819740e-01 1.59200802e-01
      2.32308939e-01 2.11474389e-01 2.32308939e-01 1.33544177e-01
      2.32308939e-01 2.00500339e-01 2.32308939e-01 2.32308939e-01
      2.48771980e-01 2.48771980e-01 1.69788674e-01 4.88195941e-02
      3.27758901e-02 3.49314027e-02 4.86968793e-02 9.97049510e-02
      1.22243412e-01 2.48771980e-01 2.48771980e-01 6.50653169e-02
      2.12194547e-02 2.20066924e-02 6.55237120e-03 1.29035190e-01
      2.26877049e-01 2.48771980e-01 2.18168631e-01 2.22694203e-01
      1.42702520e-01 5.15301600e-02 5.39179109e-02 1.39753565e-01
      1.46382764e-01 2.16688484e-01 2.05368742e-01 2.48771980e-01
      2.27011904e-01 1.54679507e-01 9.64329839e-02 6.10794201e-02
      3.72880548e-02 1.82688206e-01 2.31826782e-01 2.48771980e-01
      2.78313607e-01 1.32678136e-01 3.99570726e-02 2.95621287e-02
      1.12831090e-02 8.95945169e-03 1.23473771e-01 2.48556614e-01
      2.78313607e-01 2.78313607e-01 1.69633880e-01 3.12381871e-02
      3.42158563e-02 1.22424634e-02 1.59725621e-02 3.89695354e-02
      1.49894044e-01 2.78313607e-01 2.78313607e-01 1.55921772e-01
      1.36992469e-01 1.17510363e-01 1.03475176e-01 4.47704755e-02
      1.73608825e-01 2.29312032e-01 2.78313607e-01 2.78313607e-01
      1.23908110e-01 5.11970930e-02 4.15296517e-02 5.57945035e-02
      3.53115201e-02 7.56734163e-02 2.06932768e-01 2.78313607e-01
      2.82194078e-01 2.82194078e-01 6.60788938e-02 1.88487973e-02
      1.78176370e-02 2.23580673e-02 2.07427759e-02 8.41994733e-02
      2.21358165e-01 2.82194078e-01 2.82194078e-01 1.65702716e-01
      4.56232280e-02 7.45991524e-03 1.68019403e-02 3.59378941e-02
      5.40922843e-02 2.56219119e-01 2.82194078e-01 2.82194078e-01
      8.09780806e-02 1.28407741e-03 3.00835003e-03 1.02766659e-02
      1.61356293e-02 9.12483707e-02 2.82194078e-01 2.82194078e-01
      2.82194078e-01 2.82194078e-01 6.37212470e-02 1.23359030e-03
      5.14138397e-03 4.24156850e-03 3.13240960e-02 1.36734277e-01
      3.11582237e-01 2.92576760e-01 1.21650033e-01 5.90259731e-02
      1.10553694e-03 7.53589766e-03 1.53503157e-02 1.89824346e-02
      3.11582237e-01 3.11582237e-01 2.28394315e-01 3.17676961e-02
      1.67547129e-02 6.24380773e-04 2.71568587e-03 1.63827129e-02
      3.15715298e-02 3.11582237e-01 3.09812516e-01 3.11582237e-01
      2.42481306e-01 1.05738863e-01 1.26347668e-03 2.29837489e-03
      1.01003202e-03 1.56202260e-02 1.22169137e-01 3.11582237e-01
      1.12806223e-01 4.42550704e-02 3.51005793e-02 1.79820322e-03
      6.73303427e-03 1.40029462e-02 3.28956731e-02 2.38200217e-01
      3.16332430e-01 1.71283260e-01 9.39461216e-03 7.08801160e-03
      1.85719356e-02 1.55839408e-02 2.91193891e-02 8.56156647e-02
      3.16332430e-01 3.16332430e-01 1.23191111e-01 3.57389147e-03
      3.27713229e-02 5.93232699e-02 5.26981801e-02 2.36192010e-02
      1.55916914e-01 3.16332430e-01 3.16332430e-01 5.79967946e-02
      2.21984722e-02 5.12846150e-02 8.34633857e-02 4.57111709e-02
      2.80066840e-02 7.78830349e-02 3.16332430e-01 1.89935118e-01
      5.20763807e-02 3.27299200e-02 1.51523605e-01 2.82657027e-01
      1.43428534e-01 6.24330305e-02 1.45367414e-01 3.16332430e-01
      2.16913477e-01 1.01376273e-01 5.39602004e-02 5.76461367e-02
      1.66612864e-01 9.40254927e-02 1.48681238e-01 1.94436893e-01
      2.10540473e-01 2.36940309e-01 1.87284589e-01 1.13304950e-01
      1.67505622e-01 2.36940309e-01 1.73756242e-01 1.79068446e-01
      2.16377228e-01 2.36940309e-01 2.36940309e-01 2.18079746e-01
      9.84980911e-02 2.05488596e-02 8.73986259e-02 7.37635568e-02
      1.36312738e-01 1.55576319e-01 2.36940309e-01 2.36940309e-01
      1.81459561e-01 7.12851435e-02 2.17838064e-02 4.52308431e-02
      6.14818446e-02 1.37584865e-01 1.95983902e-01 2.36940309e-01
      1.26782969e-01 1.04475349e-01 7.19793215e-02 2.00901166e-01
      1.80793986e-01 1.57620236e-01 1.87904999e-01 2.00037211e-01
      2.00670019e-01 2.44802818e-01 2.11097911e-01 6.87421635e-02
      1.26365364e-01 1.51911229e-01 2.27775782e-01 2.44802818e-01
      2.44802818e-01 2.44802818e-01 1.68204963e-01 4.93592992e-02
      4.08083685e-02 1.36943189e-02 3.16197164e-02 7.37747476e-02
      1.28966972e-01 2.23691031e-01 2.44802818e-01 2.25409657e-01
      7.64650181e-02 4.43239249e-02 8.91627092e-03 2.64939852e-02
      8.34287181e-02 1.41875461e-01 2.44802818e-01 2.44802818e-01
      2.65541017e-01 1.99843705e-01 6.85924739e-02 2.99455170e-02
      2.47449726e-02 1.38662130e-01 1.71853170e-01 1.93062305e-01
      2.65541017e-01 2.65541017e-01 2.65541017e-01 1.38964057e-01
      1.19576551e-01 1.24988273e-01 1.11264385e-01 1.14676870e-01
      1.07028387e-01 2.65541017e-01 2.65541017e-01 1.15305513e-01
      3.81432325e-02 5.43746678e-03 7.95202982e-03 4.76887487e-02
      6.88049793e-02 9.63754207e-02 2.65541017e-01 2.65541017e-01
      2.30330095e-01 4.32532467e-02 7.15417936e-02 1.34784862e-01
      1.05684765e-01 9.46845710e-02 1.21874832e-01 2.65541017e-01
      2.19942868e-01 1.76736578e-01 1.28856078e-01 1.82037979e-01
      2.29466632e-01 1.71741903e-01 1.22923873e-01 8.48656893e-02
      1.82077289e-01 2.29466632e-01 5.01305237e-02 5.45895249e-02
      7.94632807e-02 1.81292892e-01 1.38302296e-01 1.55259043e-01
      1.60754472e-01 2.29466632e-01 1.38127744e-01 1.39666662e-01
      3.59380655e-02 1.59539312e-01 2.29466632e-01 2.28830650e-01
      2.29466632e-01 1.26154006e-01 1.69335097e-01 5.48189357e-02
      4.64781560e-02 1.97616257e-02 8.50819424e-02 2.16868564e-01
      1.94892019e-01 2.29466632e-01 2.29466632e-01 2.02404305e-01
      3.01960737e-01 2.24267080e-01 6.12564050e-02 6.02694927e-03
      1.15761664e-02 3.64918858e-02 7.26153329e-02 1.00617789e-01
      3.01960737e-01 3.01960737e-01 3.01960737e-01 2.02744499e-01
      3.88057344e-02 3.64371622e-03 1.07517522e-02 4.06857952e-03
      1.44407619e-02 1.75804615e-01 1.46605104e-01 8.48617330e-02
      3.12653482e-02 2.38467772e-02 3.93825248e-02 4.94173281e-02
      1.41347140e-01 3.01960737e-01 3.01960737e-01 3.01960737e-01
      1.85710773e-01 1.09982990e-01 4.10664231e-02 1.18202148e-02
      8.85705836e-03 2.84655206e-03 1.41458765e-01 3.01960737e-01
      1.66940615e-01 3.25229824e-01 1.57782257e-01 4.95666228e-02
      6.72085257e-03 7.16556935e-03 5.38229011e-03 3.71867754e-02
      1.48122132e-01 1.50945723e-01 8.51921737e-02 3.20841074e-02
      1.59426052e-02 5.67054190e-03 2.16176137e-02 4.78850864e-02
      1.65564999e-01 2.92024255e-01 3.46628159e-01 2.10612595e-01
      1.12381443e-01 2.62837447e-02 1.30659584e-02 1.54417045e-02
      2.09515337e-02 1.25658453e-01 3.46628159e-01 3.46628159e-01
      1.46068484e-01 4.13499177e-02 1.05110900e-02 1.18834600e-02
      1.92395933e-02 7.11140707e-02 2.85725087e-01 3.46628159e-01
      1.36105210e-01 4.71261330e-02 2.52091605e-02 5.54118566e-02
      6.34795874e-02 7.78630227e-02 6.27363175e-02 1.34970665e-01
      1.50049731e-01 1.38558596e-01 1.09163046e-01 5.44993691e-02
      1.28559858e-01 2.12645710e-01 1.71546325e-01 6.89165816e-02
      1.25536248e-01 1.14335202e-01 3.58095378e-01 1.18079297e-01
      8.31117015e-03 1.56504847e-02 2.48065293e-02 4.48346511e-02
      5.20142764e-02 2.24160701e-01 3.58095378e-01 3.58095378e-01
      1.91711932e-01 2.12698169e-02 2.87706386e-02 4.63707410e-02
      7.72240087e-02 3.50049622e-02 3.58095378e-01 3.58095378e-01
      2.71741331e-01 2.71741331e-01 9.18002129e-02 2.76078358e-02
      8.38255957e-02 5.52719235e-02 5.97837232e-02 1.10550672e-01
      2.47703940e-01 2.71741331e-01 2.14330316e-01 9.75316986e-02
      1.37529941e-02 3.25788520e-02 1.59830842e-02 7.30684772e-02
      1.58703998e-01 2.71741331e-01 2.71741331e-01 2.71741331e-01
      1.23318672e-01 7.16299266e-02 5.72944358e-02 3.27938311e-02
      3.58808190e-02 5.13629243e-02 2.50826359e-01 2.71741331e-01
      2.71741331e-01 2.10919052e-01 4.63320836e-02 3.19701619e-02
      3.70956883e-02 5.13807833e-02 7.47056678e-02 2.71741331e-01
      2.54674047e-01 1.13674745e-01 1.01778798e-01 1.99363064e-02
      2.06459444e-02 2.40232218e-02 9.23135132e-02 2.00793341e-01
      2.54674047e-01 2.54674047e-01 1.95265278e-01 1.48128182e-01
      1.56567395e-02 2.45225765e-02 6.81826621e-02 1.12584196e-01
      2.25966558e-01 2.54674047e-01 2.54674047e-01 2.20680282e-01
      1.51821867e-01 4.09733392e-02 2.06340775e-02 9.37831923e-02
      1.16156921e-01 1.01377495e-01 2.54674047e-01 2.54674047e-01
      2.16740683e-01 2.54674047e-01 9.55016762e-02 2.14426648e-02
      1.16390698e-01 1.36001393e-01 1.26024559e-01 2.54674047e-01
      2.43495733e-01 2.43495733e-01 7.27970004e-02 1.09160077e-02
      1.42597435e-02 4.43102084e-02 5.12545407e-02 7.83339217e-02
      2.35858873e-01 2.43495733e-01 2.43495733e-01 1.17975451e-01
      1.33019492e-01 1.19099304e-01 1.18227638e-01 1.07009903e-01
      1.56129807e-01 2.43495733e-01 1.98384658e-01 2.20452175e-01
      1.81743562e-01 7.73467869e-02 5.20495288e-02 7.30568469e-02
      8.87666494e-02 6.80394322e-02 9.54556242e-02 1.63431555e-01
      2.43495733e-01 2.28848964e-01 2.43495733e-01 2.43495733e-01
      2.34605938e-01 1.95566535e-01 8.92980471e-02 1.36699587e-01
      1.29916221e-01 1.80637449e-01 1.13450788e-01 2.03706086e-01
      2.30011255e-01 2.22316042e-01 2.30011255e-01 1.28927827e-01
      1.43404141e-01 5.21950312e-02 9.62253436e-02 7.63696656e-02
      1.30564079e-01 2.25375161e-01 2.11616248e-01 2.30011255e-01
      1.66164130e-01 1.61102712e-01 7.05337971e-02 1.49742708e-01
      1.61942720e-01 2.30011255e-01 2.30011255e-01 2.30011255e-01
      1.95179924e-01 5.98602444e-02 6.06186166e-02 9.65533406e-02
      1.06742002e-01 9.62028578e-02 1.86989114e-01 2.30011255e-01
      2.17619225e-01 1.87547222e-01 5.90611659e-02 5.42415045e-02
      6.46249056e-02 7.58018866e-02 6.47451654e-02 9.69701782e-02
      1.28748342e-01 5.84444404e-02 8.91017169e-02 1.73911631e-01
      2.62094498e-01 2.62094498e-01 2.62094498e-01 1.79353982e-01
      1.15898833e-01 2.17057571e-01 9.46769342e-02 1.64523963e-02
      1.39140308e-01 2.62094498e-01 8.23866501e-02 8.74580890e-02
      7.68658519e-02 1.58253834e-01 2.36616477e-01 7.91272968e-02
      1.01251036e-01 9.06304494e-02 9.51261744e-02 1.26788944e-01
      2.62094498e-01 2.59954393e-01 2.62094498e-01 2.62094498e-01
      2.62094498e-01 7.68884271e-02 1.18510664e-01 7.79060870e-02
      2.52788037e-01 2.00103700e-01 1.04021788e-01 6.02869242e-02
      1.13192163e-01 9.55090076e-02 2.20464654e-02 7.97064230e-02
      2.52788037e-01 2.52788037e-01 1.94447935e-01 1.08324476e-01
      6.16577640e-02 7.06920400e-02 4.38281484e-02 3.74445915e-02
      9.88555998e-02 2.52788037e-01 9.97955427e-02 1.92255005e-01
      1.82797566e-01 1.62729442e-01 2.52788037e-01 2.52788037e-01
      7.70703852e-02 6.90409094e-02 4.87323776e-02 2.42620677e-01
      2.01821655e-01 2.11697429e-01 1.47716597e-01 2.52788037e-01
      2.52788037e-01 1.30869642e-01 4.87298481e-02 1.60990819e-01
      2.95300633e-01 1.57746822e-01 5.16624227e-02 2.35770550e-02
      4.22312580e-02 1.13878259e-02 2.63773613e-02 8.56232643e-02
      2.95300633e-01 2.95300633e-01 1.05722360e-01 2.40838937e-02
      1.23247840e-02 2.46296301e-02 1.35828694e-02 3.45819332e-02
      2.34502122e-01 2.95300633e-01 2.95300633e-01 2.04015315e-01
      1.41965061e-01 7.12064505e-02 1.46785185e-01 1.22083463e-01
      9.44499373e-02 5.09668924e-02 2.88449228e-01 2.95300633e-01
      1.80240020e-01 9.58859026e-02 8.90305787e-02 9.42263976e-02
      9.17269588e-02 9.58570242e-02 7.47596323e-02 2.95300633e-01
      2.40474135e-01 2.40474135e-01 1.16467632e-01 6.83254004e-02
      6.47786930e-02 4.08631489e-02 7.69491121e-02 1.34717926e-01
      2.40474135e-01 2.40474135e-01 2.40474135e-01 1.79725334e-01
      5.86381070e-02 5.36615700e-02 9.29904953e-02 9.32981074e-02
      1.03844270e-01 2.40474135e-01 2.16327593e-01 1.57311335e-01
      9.15983394e-02 1.13236897e-01 8.48583579e-02 9.98149440e-02
      1.64245978e-01 2.40474135e-01 2.40474135e-01 2.17077836e-01
      2.40474135e-01 1.58910200e-01 9.00351480e-02 7.57787228e-02
      1.24929197e-01 1.82231352e-01 1.80158794e-01 2.40474135e-01
      2.30723023e-01 1.62092626e-01 1.33870646e-01 7.86768943e-02
      5.81250265e-02 1.37923971e-01 1.60635859e-01 1.00249842e-01
      2.30723023e-01 2.30723023e-01 1.59157723e-01 2.30723023e-01
      1.49650514e-01 3.26889716e-02 1.11875460e-01 1.18709698e-01
      8.04504827e-02 2.30723023e-01 1.96140423e-01 2.30723023e-01
      2.06011042e-01 1.53286979e-01 1.04809366e-01 9.90890488e-02
      1.99886426e-01 1.34996757e-01 2.09008321e-01 2.30723023e-01
      2.30723023e-01 2.30723023e-01 1.51737735e-01 8.21326673e-02
      1.06836885e-01 1.17049322e-01 1.09557860e-01 1.84707314e-01
      1.27859116e-01 1.32791683e-01 2.45367274e-01 1.40842333e-01
      4.75121029e-02 6.49374723e-02 5.48342951e-02 4.05649953e-02
      6.37640581e-02 9.97948796e-02 1.92243367e-01 2.45367274e-01
      2.45367274e-01 1.97825059e-01 1.89701125e-01 2.12281510e-01
      1.31494775e-01 1.01299748e-01 1.92475080e-01 1.60436586e-01
      2.45367274e-01 1.67137235e-01 4.29312997e-02 1.02764323e-01
      6.55067042e-02 8.40397775e-02 1.19415313e-01 1.38528213e-01
      2.45367274e-01 2.45367274e-01 2.45367274e-01 1.77074596e-01
      1.74883530e-01 2.12419376e-01 1.83891967e-01 1.53756544e-01
      3.69499847e-02 8.33596736e-02 1.80953741e-01 2.46962652e-01
      2.46962652e-01 2.46962652e-01 1.86197117e-01 1.18428022e-01
      6.97583631e-02 5.74125350e-02 4.70000394e-02 1.24977127e-01
      2.21290901e-01 2.46962652e-01 1.77705765e-01 1.34488001e-01
      7.99345076e-02 7.63023049e-02 4.35977951e-02 2.46962652e-01
      2.46962652e-01 2.46962652e-01 2.46962652e-01 1.94613844e-01
      1.57793641e-01 1.40604496e-01 6.46083653e-02 5.95423467e-02
      5.96327893e-02 1.56357437e-01 2.46962652e-01 2.46962652e-01
      1.45104170e-01 9.42323133e-02 7.12391660e-02 7.65388310e-02
      7.13669509e-02 6.24424890e-02 9.08453315e-02 1.67235851e-01
      2.52848238e-01 9.51847509e-02 1.05767578e-01 1.08913116e-01
      1.05936944e-01 1.14667065e-01 1.45683765e-01 2.26039112e-01
      2.52848238e-01 2.52848238e-01 2.14581311e-01 1.28230646e-01
      1.54768214e-01 1.01712152e-01 8.91207680e-02 1.00829259e-01
      1.09694667e-01 1.93757489e-01 2.42007658e-01 9.93433744e-02
